{
  "neuralNetwork": {
    "numInputs": 11,
    "hiddenLayers": [
      64,
      64
    ],
    "numOutputs": 1,
    "hiddenWeights": [
      [
        [
          0.3800512361567707,
          -0.478547054136225,
          -0.33824050671123507,
          0.4643944613564377,
          0.39811846036352816,
          0.1553009855341212,
          0.05272039104630867,
          0.43061703939306284,
          -0.7582122475049919,
          0.08710400751092498,
          -0.45661065628979314
        ],
        [
          -0.6936156803470418,
          0.08440634845351436,
          -0.042318793997936435,
          0.16421648877228154,
          -0.09308870393493933,
          -0.11864595729639411,
          -0.6358599074784628,
          0.5756017415756143,
          -0.02884166451069747,
          -0.7954367778377552,
          0.32966197720809226
        ],
        [
          0.08554081675087735,
          0.19594564714784202,
          -0.23468447586724484,
          -0.6440176456656381,
          0.11126357540575127,
          -0.845666373193603,
          -0.5509740433907514,
          0.2445440907706365,
          0.18480987103437055,
          0.2993534466581334,
          -0.03428229394589316
        ],
        [
          -0.648206765157681,
          -0.14182900752681996,
          -0.041353947593251034,
          -0.15153101991271462,
          -0.23790751908173385,
          -0.6214238684917756,
          -0.49941809926750824,
          -0.24869209445064927,
          0.577186872186639,
          -0.25885993804029805,
          0.787256431468761
        ],
        [
          0.19973962857662422,
          0.27547522355792226,
          -0.19221929263739626,
          -0.023922368401075512,
          0.1902998781170127,
          -0.05844994251099944,
          0.37534608451916485,
          0.07494983489114075,
          -0.0122203492951818,
          -0.3545726791498579,
          -0.22420081304375833
        ],
        [
          0.12948838899545045,
          -0.5169122021758407,
          -0.3579598691155135,
          0.8612355327645783,
          -0.21651637718979108,
          0.36296093727280204,
          0.10951534485641412,
          -0.25896111346926626,
          0.20437082842977933,
          -0.23815920479615754,
          0.9909043143710551
        ],
        [
          0.2122459994665071,
          0.11970198356792366,
          0.2507981653379807,
          0.09547990022084406,
          0.3159223427815101,
          0.013931646952893251,
          0.06982866593620375,
          0.24469303707902615,
          -0.21615409662379254,
          0.6632717516308143,
          0.08349475715326271
        ],
        [
          0.09352399102452535,
          0.1677405131728266,
          0.14783411049621933,
          0.03458814985665761,
          0.4116600247355255,
          -0.10836076291868714,
          0.39204523971933847,
          -0.291602493109469,
          -0.18215457578580774,
          -0.21824037824354756,
          0.49630309771465536
        ],
        [
          0.677216479887126,
          -0.04591456914646744,
          0.515980819165873,
          -0.1370987673447618,
          -0.25579926523938246,
          0.02121658033721293,
          0.04812484640647593,
          -0.5650461446724029,
          0.10047357271519256,
          0.3663030727469133,
          0.19007258321260512
        ],
        [
          0.060007765304446264,
          -0.2659012678840578,
          0.3415074017022825,
          -0.3220862316715889,
          0.36351476966588253,
          0.1601776772110216,
          0.035270014059761594,
          -0.048704826312223296,
          -0.027978392165216318,
          0.7924662063582372,
          0.1328985874145919
        ],
        [
          -0.0638612933321916,
          0.12196539080624684,
          0.2846637729795433,
          -0.08272760561220287,
          -0.5584986591301967,
          -0.5233080076888081,
          0.4034354556087752,
          -0.23983128848481663,
          -0.09487581285520347,
          -0.3785102091761835,
          0.06418889613964908
        ],
        [
          -0.4457923716784981,
          -0.3962426581890941,
          -0.04946253165774076,
          0.4343081468892282,
          -0.49817412026075936,
          0.011313540575172651,
          -0.27478188121620356,
          0.17475728505367993,
          -0.07259071652079098,
          -0.12349006310082626,
          0.564894901657003
        ],
        [
          0.12750712929104274,
          0.12042067082003423,
          -0.5152548743674514,
          -0.2532388401129633,
          -1.0323568134639702,
          -0.557553970518184,
          0.028385402701477012,
          0.09098765027714047,
          0.2604098953407701,
          -0.7709768818412305,
          0.4614229279196355
        ],
        [
          0.06571847726258863,
          -0.9047052687848978,
          0.9559736491648315,
          0.15466484372845676,
          -0.1606414676579769,
          -0.09381946868420549,
          -0.2043191461674602,
          -0.5011951716638805,
          -0.19855427015673405,
          -0.1895136808343091,
          -0.1526943224049176
        ],
        [
          0.15114731408637058,
          -0.1241867595973356,
          -0.23697235239720918,
          -0.25238678531155395,
          0.021304477034549445,
          -0.18566886535125826,
          -0.5714874936800287,
          0.12544828189977952,
          0.3134181623804002,
          0.8507779202381806,
          -0.4631675366474327
        ],
        [
          -0.049844570971051966,
          -0.3533686138615766,
          0.14192909960444478,
          0.393117996237693,
          -0.13012358426371465,
          -0.1645059567584777,
          -0.6060049712527037,
          0.2696412894827643,
          -0.24690775396350773,
          -0.182513315074987,
          0.47783395106011706
        ],
        [
          -0.5265367698391793,
          0.20633370078682814,
          -0.365780713015821,
          0.038550155748426435,
          0.3173894639917908,
          -0.17493538540212764,
          -0.3182297001610406,
          0.028299600785079777,
          0.32645935454936076,
          0.9799760234188454,
          0.2478523583842335
        ],
        [
          0.1128123055805583,
          0.13668077770265202,
          -0.5814782473762331,
          0.009061482353569624,
          0.40338646581303333,
          0.14055918875707887,
          -0.2627569515868729,
          -0.08720243158515932,
          0.09544238602458067,
          0.2980163258169862,
          -0.13950111192007075
        ],
        [
          -0.4592289975867106,
          -0.2206067938736244,
          0.018343525060844555,
          0.4039151641405505,
          -0.1544351813992605,
          0.5557664359270037,
          0.11037121259145286,
          -0.2122800733850089,
          0.024838375574035704,
          0.6875570887754093,
          0.36450096000943166
        ],
        [
          -0.2860956365437567,
          -0.8525044282447651,
          0.3773558002227714,
          0.0760388772709805,
          -0.5354756980694098,
          0.24575879491237737,
          -0.28186926062224077,
          0.7797652844299015,
          -0.01755330992388733,
          -0.5111642450144143,
          -0.49799945033346127
        ],
        [
          -0.5625976949544021,
          0.2829460939003939,
          -0.12109611282694553,
          -0.1497945747088775,
          -0.28270513208137027,
          0.551503239211153,
          -0.41206963011608466,
          0.1519908545776977,
          0.21585725709004921,
          -0.20783856301232842,
          -0.244743808560592
        ],
        [
          0.4681791563023664,
          0.12291918339519088,
          0.2694839134706847,
          -0.021257130186085514,
          -0.5100488441027038,
          -0.2756731000848599,
          0.1547975173032257,
          -0.3940738974184545,
          -0.25204852964484986,
          0.770686071409113,
          0.7635254903264646
        ],
        [
          0.7314333907522023,
          0.4864827925479945,
          -0.13400920484752565,
          0.18306148774843511,
          -0.11288105981573318,
          -0.47452161645395724,
          -0.3152431383235177,
          -0.1653080693009662,
          -0.10564939329281707,
          0.4243167404909158,
          0.13761490458520717
        ],
        [
          0.3167587702432777,
          -0.25405449577491535,
          -0.1588858568093965,
          -0.25024672850397184,
          0.368812390493311,
          0.4553248569820261,
          0.21826889502566685,
          -0.16470142074182054,
          -0.013303269961326249,
          -0.30721317106194146,
          0.5830888114788585
        ],
        [
          -0.03315751105169105,
          -0.05729411643014364,
          0.15463291393397346,
          -0.39872896108832523,
          -0.07718435672950458,
          -0.27732740506268194,
          0.2788278937001184,
          -0.58178533052321,
          -0.16162871535117462,
          -0.04963850320482401,
          0.07644796780229883
        ],
        [
          0.3258286196895292,
          0.1699578513131407,
          -0.13306556061716937,
          -0.4268104060726099,
          0.04114166306559681,
          -0.31357900589595883,
          0.46039912258331905,
          -0.16944599110935335,
          0.5096450105983419,
          0.10896264443455445,
          0.2226511212975477
        ],
        [
          0.029437395526774244,
          -0.3725834810376195,
          -0.4835234834879887,
          -0.5802793172029472,
          -0.12920688256882343,
          1.0287719271757012,
          -0.10968309315222194,
          -0.20690722578749113,
          0.10597134334437058,
          0.3330347959964292,
          -0.14178100231007223
        ],
        [
          -0.5095552710668997,
          -0.03418614862261662,
          -0.045680670322136845,
          0.4964757318334761,
          -0.6803152218797763,
          0.4018876032649036,
          -0.718913810054873,
          -0.26343741139983584,
          0.2944160082408418,
          -0.06163282298001389,
          0.26125589128344434
        ],
        [
          -0.05859107534637978,
          0.370845205177427,
          -0.7390924429305387,
          -0.269218316945745,
          -0.34146689576298545,
          0.11488125471984119,
          -0.4065947576081565,
          0.004323247294772666,
          -0.34290774597595897,
          0.22109591164785705,
          0.2603700939746435
        ],
        [
          0.3971646874901563,
          -0.23684362343280269,
          0.020970661355725596,
          -0.3358729348905418,
          -0.3113782682734671,
          -0.8509186210205809,
          0.6994076691059297,
          0.054307698875546165,
          -0.14141556916825837,
          -0.21603526878678428,
          -0.11849511715295888
        ],
        [
          -0.05191002863504361,
          -0.05621917206662849,
          0.01933077126203418,
          0.1099502482264626,
          0.2772913048431005,
          0.045863243957970326,
          -0.04777396035255262,
          -0.08288034144124894,
          0.009278204650080595,
          -0.5795359122274216,
          -0.5177312849886845
        ],
        [
          -0.06452039383277683,
          -0.42861313592533606,
          -0.3314803442544011,
          -0.004845186109903252,
          -0.2596163647171874,
          0.14682746190612642,
          0.013008328589974817,
          0.21003375641428018,
          0.7977274973301709,
          -0.7114806301182411,
          0.20156885785626363
        ],
        [
          -0.6982780819062168,
          0.39336262634061675,
          -0.018154234147513805,
          -0.2645484859478082,
          -0.32809689077047527,
          -0.6246770479753967,
          0.4259697622630004,
          -0.0974105358835332,
          0.6872572262002221,
          -0.882120101905944,
          0.3811777186658293
        ],
        [
          0.4572284365100162,
          -0.09870097228806018,
          -0.03235351143880218,
          0.05996626642739849,
          0.4196779479547391,
          0.727569118105558,
          -0.4772807369171523,
          -0.03817623039789257,
          0.03513099104263126,
          -0.07659504986478088,
          -0.07855770764880202
        ],
        [
          0.6411170084822636,
          -0.19756063156263579,
          0.1029863558836929,
          0.10960551290161334,
          -0.6080383126722071,
          -0.14906935562722612,
          0.0782503658259736,
          -0.4244048591945115,
          -0.11766741338220187,
          -0.10254004183139437,
          1.0138570237606641
        ],
        [
          0.233798293872023,
          -0.06239209748695948,
          0.35754315099415357,
          -0.20684443660404186,
          0.040643208772712276,
          0.19101454985680397,
          0.49311737483950235,
          -0.3516765036144454,
          -0.27865267264374155,
          0.12134345279109196,
          -0.4483715355378526
        ],
        [
          -0.1156867890850434,
          0.3444853920267486,
          -0.4500889262008266,
          -0.1052582969119167,
          -0.1764302431407284,
          -0.3922639881503343,
          -0.555718805796673,
          -0.24026753725401184,
          -0.010120466956246223,
          -0.6360227673713494,
          1.0938226671448732
        ],
        [
          -0.06683400979244046,
          -0.04173136247123491,
          0.11578294093817734,
          0.6147202835244951,
          0.37316673100993536,
          0.2715542990855717,
          -0.8041907725441474,
          0.28309032528540296,
          0.1063388495999929,
          -0.6731927648001995,
          0.25303757928951137
        ],
        [
          0.011511274059836065,
          -0.0865267720382286,
          -1.223167599416906,
          0.0273928137251572,
          0.525028179730938,
          0.1647524638384885,
          0.13979453157717117,
          0.457898839489468,
          -0.17548463797918934,
          0.8579099878696164,
          0.2337779583493758
        ],
        [
          0.20740567396351875,
          -0.7155727210351781,
          -0.35496187578680144,
          0.36323853778134035,
          0.6253579139690301,
          0.6631186109609838,
          0.10264457994575682,
          -0.17584966795557316,
          -0.24253250422548508,
          0.13615475011427441,
          0.16313904339075103
        ],
        [
          0.35317991937480836,
          -0.007542882901028391,
          -0.5045279793399794,
          0.11538943370799946,
          -0.01005586593519714,
          0.5346807683368104,
          0.01280414278179806,
          -0.43433779458946353,
          0.16199030224633304,
          0.15753693763429583,
          0.02325920335883576
        ],
        [
          0.09306269974291496,
          -0.01449623088019597,
          0.1984934474582267,
          -0.10880749139022942,
          -0.14551290884188703,
          0.2636027558400868,
          0.7975319101452701,
          -0.06238482832323446,
          0.47585170112054276,
          -0.39103865352157746,
          -0.5344118862715551
        ],
        [
          0.20445617664175128,
          -0.05210623295283921,
          0.3674956149520247,
          -0.19189220050197872,
          -0.3133945665332867,
          -0.22837967120064095,
          0.4126627005770839,
          -0.1690858685858077,
          -0.36708819353018624,
          -0.3712110051872619,
          0.040297712610409396
        ],
        [
          0.41696075214395606,
          0.20268213174596672,
          0.12932337582353284,
          -0.20718621333661305,
          -0.4524274146220241,
          0.1955788739427715,
          0.1301449457246805,
          -0.8375684239242661,
          0.12914050072100486,
          0.3122244596676643,
          0.18141086444869964
        ],
        [
          0.574725306574443,
          0.0792640448734684,
          0.5592206049401126,
          0.008241431175210036,
          -0.1763220900900124,
          0.3207046823031706,
          0.04962603516279733,
          -0.4097814353425975,
          -0.14746385970049938,
          0.3280707406729002,
          -0.5094903717944357
        ],
        [
          -0.39491633016238437,
          -0.17226830412660887,
          0.24989032665179123,
          0.06615009773311913,
          -0.1930239006764079,
          0.3041864610954447,
          -0.04129330517757357,
          -0.6283356328819004,
          0.06563320880837774,
          0.2584051948539687,
          0.5049133180010731
        ],
        [
          0.27918998722293764,
          -0.8985513530841968,
          -0.28675471819222725,
          -0.22111778301247698,
          -0.5594053536718558,
          0.37339307327919014,
          -0.45977711010505934,
          -0.4279799278891135,
          -0.3586639306107202,
          0.7943336362260899,
          1.6244341720771234
        ],
        [
          0.49793695565261537,
          0.0067383417431252255,
          -0.8426331827891488,
          0.03794608054623876,
          -0.35247751891464096,
          -0.6920147899954727,
          0.46618531593273027,
          -0.39834776744250944,
          0.4636361323664057,
          -0.8650762758203365,
          0.6207189364630467
        ],
        [
          -0.8254262912724272,
          0.8928445244608226,
          -0.05392896845321748,
          0.029096990792170565,
          0.232078615422009,
          0.4273468612883126,
          0.10885698305916315,
          -0.6685053171997609,
          0.031546790277116536,
          0.3465176559946102,
          -0.24856349641180164
        ],
        [
          0.3904292322497105,
          -0.38528247391400916,
          -0.1486463255498342,
          0.11767311948408915,
          0.010581688924061177,
          -0.06771370455485094,
          0.1323999995908364,
          -0.1661280809984656,
          -0.3518402724711938,
          0.5524663243528297,
          0.6699229942528085
        ],
        [
          0.1864296790285998,
          -0.4918847971878185,
          -0.1304343688919546,
          -0.07086932859373309,
          -0.6388293405195693,
          0.10855210242149606,
          -0.2585399494887156,
          0.2997540476983675,
          -0.0010575071743476056,
          -0.11747395291941745,
          0.22501458613696262
        ],
        [
          0.21753806476720658,
          0.49386047766744573,
          -0.1788289995062938,
          0.17082405554465951,
          -0.4376320214394805,
          0.3023403338633096,
          -0.4575303806254397,
          -0.5933893251351188,
          -0.3664587539866972,
          -0.1872559071006293,
          0.7114274828162281
        ],
        [
          -0.6539375808444654,
          -0.13302862275304358,
          0.16103785001341295,
          -0.14495743346471757,
          0.17465432440526676,
          0.8522106385397447,
          0.5906516121512698,
          0.08737636384339943,
          -0.24267945128366605,
          -0.18541504002469433,
          0.26713006527168154
        ],
        [
          0.33464466780530344,
          0.11885740999853084,
          -0.5874734882141688,
          0.125642515936581,
          -0.24984447846157448,
          0.10878808488030892,
          0.29470299982887305,
          -0.4098029824297907,
          -0.22180692065358587,
          -0.21579555554076002,
          0.8224271050563379
        ],
        [
          0.1498287408175809,
          0.437811526788046,
          0.3588704227060902,
          -0.2812804322052565,
          -0.29121471232875706,
          0.4095779835972797,
          0.028014733684139932,
          -0.3066714125326769,
          0.35783454470203574,
          0.07188792565722327,
          -0.28392092132209523
        ],
        [
          -0.5863067996327221,
          -0.10838275797170736,
          -0.9896221857540658,
          -0.2948448185130815,
          0.4589397260285858,
          0.7034207421145559,
          0.17993658531088078,
          -0.6656603414279849,
          0.5139895068334566,
          0.7462555269162742,
          -0.4015697434924526
        ],
        [
          0.035400545800527726,
          0.5530372492287642,
          0.07324558267113881,
          -0.05255505889324834,
          -0.2775307942855219,
          -0.13517573302444852,
          -0.23567916133148434,
          -0.21428229549423414,
          0.128628620321548,
          -0.2921205941756904,
          -0.18377582641271123
        ],
        [
          -0.276496381475258,
          -0.45822922553049533,
          0.14011800460775722,
          -0.7052739854652343,
          -0.44973038932635545,
          0.2955325019677513,
          -0.17201298109333718,
          0.01036422904318094,
          0.21221111529230094,
          -0.20672561791594418,
          0.01280342352586093
        ],
        [
          0.08745635892256728,
          0.5056182459963766,
          0.39806967014173594,
          0.24283994614070695,
          0.3900277458055494,
          -0.21820608844486708,
          0.7320815195308777,
          -0.12349476491397732,
          -0.3507531442819341,
          -0.4769940148977144,
          -0.3182096769933469
        ],
        [
          0.570973209365252,
          -0.2876703145592286,
          -0.13701734599831214,
          -0.19576828292624643,
          -0.023744173380794768,
          -0.23313849847986903,
          0.34901605290355175,
          0.16377368798326128,
          0.11830639004130016,
          0.2095504293158144,
          -0.037272382261503076
        ],
        [
          -0.2614277985474199,
          0.5608975971149359,
          -0.11527764908681915,
          -0.16807988862798498,
          0.3367160979283568,
          -0.13615186820846117,
          0.27511756890534345,
          -0.3320497075364313,
          0.2855079127363945,
          0.06634146855451044,
          -0.2466582508807886
        ],
        [
          0.05561476106829966,
          -0.3798610354013467,
          -0.50517342023793,
          -0.07416639905487594,
          0.37915869060241303,
          -0.14707918691992505,
          -0.6698931178634993,
          0.45089870330698917,
          0.4602257582528699,
          0.3172660016034702,
          -0.012249504186617981
        ],
        [
          -0.09491412273837661,
          0.04527675592912105,
          -0.08098986319902463,
          0.19250824961221116,
          -0.16784877931078457,
          -0.32687194089048016,
          -0.05671162933360145,
          0.930918413546863,
          -0.16909554365935778,
          -0.22746458105065132,
          0.26690184572336834
        ],
        [
          -0.13355613305522657,
          0.07806954007421499,
          -0.3983538132841294,
          0.30502203711288073,
          0.16521455674107938,
          -0.19516649501165645,
          -0.19818871498423377,
          0.02787623014582139,
          0.36686424830953374,
          -0.41843291805007693,
          0.10647623475863792
        ]
      ],
      [
        [
          -0.08042990776464573,
          0.03473867271804391,
          0.11962942076823907,
          0.09797437430087555,
          0.13541299930818518,
          0.39640399655351277,
          -0.07017117711177653,
          0.033738211104292475,
          -0.060957504837915295,
          -0.0820518716819985,
          0.1085571662194815,
          0.02042218708122312,
          -0.09114554850331505,
          0.09156686900742958,
          0.08418791351928165,
          -0.008550438235552625,
          0.010523314048237361,
          -0.04511410071114459,
          0.0658023650300216,
          -0.012726921690155275,
          -0.02182990387338549,
          0.06546833763748118,
          0.14284550396206847,
          -0.008566776821435092,
          -0.1944254473974694,
          -0.23458320788504086,
          0.0460701281391586,
          0.32933758919201594,
          0.038960226406631236,
          0.08901852427812196,
          0.03371028753756879,
          0.07043748502643395,
          -0.0622249189689883,
          -0.04673881701643472,
          0.3279402438566411,
          0.0949720144487457,
          -0.11823641707999293,
          -0.11306239849296613,
          0.17848892013220236,
          0.020996912140444707,
          -0.05182303399473679,
          -0.018737128289041963,
          -0.09365681981727116,
          -0.2329464134186892,
          0.21646496821044278,
          -0.05247082084787084,
          0.07608794526795713,
          -0.017541730186251214,
          0.01584745187172036,
          0.18519138628566492,
          0.03874571302173934,
          -0.10173022885898009,
          -0.03144182063553235,
          -0.1324378229041631,
          -0.07953292749379569,
          0.2824870902031037,
          -0.15692708042317657,
          0.029392416964665824,
          0.19894678064205834,
          0.0725154057985206,
          0.08602674759014386,
          0.016904645925530294,
          -0.09943421721862503,
          -0.019529461275725822
        ],
        [
          -0.08323739888360326,
          0.0440071681213428,
          0.0247318374175136,
          -0.12291360142079726,
          0.16897618850681248,
          0.03227682533532648,
          0.022408302672932895,
          0.03338880162609265,
          -0.09882707203400706,
          -0.08887458679924765,
          -0.02083911393354677,
          0.19095303082934367,
          0.09515743948835358,
          -0.05047016228361403,
          0.02197804383798989,
          -0.07041857118368984,
          -0.19600737747829955,
          -0.14417386541025634,
          0.08210138967137692,
          0.20029079550582274,
          0.14918289779800223,
          -0.08590920137985823,
          0.14781864990909654,
          -0.033659195165478425,
          -0.12112881056301794,
          0.005725398989635676,
          -0.0980179878296395,
          0.0756179003967965,
          -0.002569265329830603,
          0.2556130424702202,
          -0.03827886431036428,
          -0.07718543254009297,
          -0.010997814738935182,
          0.16192825958729715,
          0.050185974740733545,
          -0.07069453844847909,
          0.08237979952961358,
          -0.04918311753726411,
          -0.06435848951952797,
          0.02219080719859169,
          0.025539590922408883,
          -0.3843545677553796,
          -0.12979618538068693,
          0.025404425258466805,
          -0.09089386567717858,
          0.04846718701035933,
          -0.18596407034197057,
          0.21328109460149186,
          -0.044655109802221996,
          0.0031164274419282992,
          0.11135258835503317,
          0.0796525233834753,
          -0.07232773665585492,
          0.05160548178266935,
          -0.23479814730763263,
          -0.02848414237653927,
          -0.23604370348223017,
          0.15659425051893108,
          -0.04326067843215761,
          -0.09348218528175156,
          0.00717076052395468,
          0.19206937821684816,
          0.05738017859615416,
          -0.01126972697548998
        ],
        [
          0.049846887875732875,
          0.007349463860557598,
          0.06051703255324027,
          0.024960761303604688,
          0.04427713925447737,
          -0.21840657281717518,
          0.1841191394318265,
          0.1956769277884225,
          0.05268837174845589,
          -0.04255896333568101,
          0.1220770956120505,
          0.06779414476368617,
          0.003082579113046253,
          -0.014548432233060127,
          0.0787788870330358,
          -0.2293363781889882,
          0.07398429014438224,
          0.01795628951038869,
          0.01789181573759014,
          0.04172212929229332,
          0.15409453261347206,
          0.045450454028492425,
          0.010044069104165948,
          0.011189051900060223,
          0.052323407800052714,
          0.051113861819339544,
          -0.02511870000713531,
          -0.14189182121878866,
          0.08824580365682669,
          -0.08683499512228905,
          -0.03217614908873809,
          -0.015316559024373335,
          -0.10282897512654718,
          -0.00835579637038997,
          -0.040311021238321365,
          -0.2122537153694052,
          -0.034263700918939516,
          -0.08480606230940867,
          -0.05331409124032196,
          -0.0242007584341624,
          0.041683423672474296,
          0.08962959315486817,
          0.017211025555307118,
          -0.031228857469952423,
          0.08777057360406557,
          0.2554467286431337,
          -0.14084486348048378,
          0.037189935214710944,
          0.08179143837144053,
          -0.11621887159056263,
          0.023295443953400413,
          -0.06829979562780929,
          -0.07950178244592315,
          0.08245361444606165,
          0.2534844091948983,
          0.095489016819004,
          0.08660955259305002,
          -0.09862957246632911,
          0.14771737876165433,
          0.11213377912951558,
          -0.06298512088018046,
          0.028121262025292578,
          0.09566459061603762,
          0.10039487177469199
        ],
        [
          0.23835568146866912,
          0.0643048667864098,
          -0.00954850153723157,
          0.007909248316885026,
          -0.02155542522198856,
          -0.20808167742455225,
          0.0396118708544255,
          -0.05524248722211405,
          0.03217858989606792,
          -0.03317381004000253,
          -0.07146142699033646,
          0.12526112541494341,
          0.0012382486720959403,
          -0.2273681974527137,
          -0.05065378179592329,
          0.07130353574198765,
          0.16785398399727097,
          -0.1519639482167144,
          -0.017430616556483577,
          -0.009391715964228596,
          -0.05023513757669572,
          -0.17899022623762,
          0.06032093175020224,
          0.11391994673138402,
          -0.007878198612722228,
          -0.04121465954892856,
          0.06497457272670559,
          -0.06259397867741268,
          -0.10154766433295799,
          0.05800158745688344,
          -0.12652872702605883,
          0.021293700949375105,
          0.026266246746312734,
          0.1077709477295024,
          -0.17193930618124875,
          0.12607893204501458,
          0.07997612434461819,
          0.03961447126947809,
          -0.27009810437853465,
          -0.06480453703696336,
          0.13278484172629554,
          0.03885706725575111,
          -0.019566515357588916,
          -0.25666070790930623,
          -0.1193307788256888,
          -0.01272140344698125,
          -0.12452783053158828,
          0.11750943308175826,
          -0.06295195455651936,
          0.31085082350514703,
          -0.14711007067510695,
          -0.15873458685394115,
          -0.03455939862424385,
          -0.03175343064063054,
          -0.06104387709667769,
          0.05367394781257584,
          0.06910716501910323,
          0.0624098537146133,
          0.024575211457742555,
          0.16921608567499644,
          0.0036605826160344065,
          0.0022409425906282318,
          0.10611699023443973,
          0.1623272039894315
        ],
        [
          -0.34288096884787395,
          0.061802546581784155,
          -0.17157954019054075,
          0.29249356768998547,
          0.010421172436005658,
          -0.021779344318868306,
          -0.0788368149774098,
          0.17212533125025192,
          0.027823444421853305,
          0.15365252639840876,
          -0.08011972508498283,
          0.006178598115423696,
          0.18406973277017397,
          0.004490951972167862,
          -0.18811560541746922,
          -0.033539412472338645,
          0.19689292730610222,
          0.09530575093291768,
          0.11822408171596036,
          -0.04951628854170506,
          0.08332410560931613,
          0.03229904156473428,
          0.03169488554549218,
          0.31249356067093365,
          0.05951263257102679,
          0.08145520491761644,
          0.07495641502562891,
          0.15432849286607275,
          0.12961840406518904,
          0.05907496097847677,
          -0.1453245972421395,
          0.3140040394507232,
          0.16074482548999872,
          -0.1763842507004946,
          0.1542505894520766,
          -0.10628649495268351,
          0.20195822219874504,
          0.014260654042006498,
          0.33769936955646623,
          -0.13028357032888585,
          0.3046336696510613,
          -0.081665857329953,
          -0.23146589952564633,
          0.16590662019950214,
          -0.20941766072601603,
          -0.11799731105607233,
          0.24414174543375133,
          0.431427814543385,
          0.19556349700482545,
          0.03702578102094384,
          0.1518898280654835,
          0.16057915862721092,
          0.09023859238362796,
          0.31245046090662326,
          0.20829224011407463,
          0.254426363612921,
          0.018980841594988872,
          -0.12780176536969975,
          -0.2083342888348642,
          -0.1568358687868558,
          0.17899090560003866,
          -0.053378547583380107,
          -0.20475950877882748,
          -0.07943671377215261
        ],
        [
          0.016455242406891644,
          0.0918247587027248,
          0.10888572898106268,
          0.10169507151076268,
          -0.4137485961358021,
          0.336893370664409,
          0.0009987828999515282,
          -0.21394892855963388,
          0.23074261854505568,
          -0.10593319869138537,
          -0.05584451021396773,
          0.14560912749714092,
          0.1947812692321567,
          0.36301230658185235,
          -0.12897106818266438,
          0.17708694723813542,
          0.07520700015146312,
          -0.11046630194905438,
          0.2247548586589615,
          0.11042433573562807,
          0.19893838673380582,
          0.22299416255567173,
          -0.23513724699799674,
          0.3401147252323926,
          -0.021294411236470984,
          -0.20227111119187274,
          0.2892215793013645,
          0.4892483561231582,
          0.24045130791566113,
          -0.0803872382363536,
          0.07275786586480716,
          0.14849736055173837,
          0.20369114904023436,
          0.14841150385061985,
          0.22679041955280757,
          -0.0406040365657664,
          0.4192474871886713,
          0.2651560704008429,
          -0.025635267240192543,
          0.14050392683032586,
          0.2458812472820158,
          -0.26825604463039254,
          0.031347326068394896,
          0.15672674698617203,
          -0.0682739201349123,
          0.49295717484428986,
          0.5946396019762005,
          0.13900586492208927,
          -0.2930708599140255,
          0.16057952621883223,
          0.32199428596500873,
          0.5961155110661859,
          0.09743960193178659,
          0.39838935282216165,
          0.10527960090625214,
          -0.24604619702346925,
          -0.2345023340295919,
          0.5222021476040898,
          -0.28326834329948847,
          -0.3126269631450278,
          -0.006697648292024201,
          0.038804842189034794,
          -0.11484519662130203,
          -0.10916487063181791
        ],
        [
          0.08702162848513469,
          -0.09367832359638034,
          -0.19121469463103818,
          -0.16803032836471687,
          0.005912773843770774,
          -0.08602601736906473,
          -0.11136557812892914,
          -0.06321521775900432,
          -0.0788463062746005,
          -0.010135638262468567,
          0.24678322680692105,
          0.1886874639972434,
          -0.07297286875540923,
          -0.14038204052360745,
          -0.014935565610396483,
          -0.1001124640008669,
          -0.15734078777454752,
          -0.08034274897150004,
          -0.04974506049659074,
          -0.05398691821399777,
          -0.06478470636653574,
          0.02007854312474957,
          -0.059026909390230586,
          -0.02788456334499547,
          -0.14494128135807066,
          -0.07688479484915393,
          0.0967772388351435,
          -0.15156985695159592,
          0.042944850528978604,
          -0.20105836728235224,
          -0.16925754401594525,
          0.3181083563666523,
          0.22415273111322942,
          0.1399838408175998,
          -0.02758155898336875,
          -0.22734543558874243,
          0.047535680690353674,
          -0.04061646580640688,
          -0.0993087968967015,
          0.08932790616953253,
          -0.050380158966460226,
          0.18031797821878479,
          -0.06196328490487556,
          -0.19356656809768302,
          -0.09859278170006676,
          0.09605770307898667,
          0.2997166102089335,
          0.18691164928752751,
          -0.1608549739746354,
          0.027513836405689843,
          -0.08609069430681132,
          -0.2876259317232105,
          -0.1442680373429895,
          -0.0662946474928735,
          -0.04661602077146748,
          -0.06766262391182036,
          0.057840105369232446,
          0.10192127556021036,
          -0.031787531364175045,
          -0.07843380045766717,
          -0.126898280555295,
          -0.08718985854766492,
          -0.05632078334163247,
          0.1513115909907483
        ],
        [
          0.00936150289712956,
          0.02953046209525099,
          -0.058603387059420475,
          -0.061796898615968834,
          -0.15918887223506242,
          -0.10626705125820424,
          0.1992078548153711,
          0.13700578478204298,
          0.04613160511594779,
          -0.2716885192980774,
          0.009244718133911317,
          -0.061356271811556284,
          0.30670739129459257,
          0.0785734013115986,
          0.1356916911886657,
          -0.11763635546354308,
          0.07360501924618013,
          0.02146996786280967,
          0.07811250522616381,
          -0.037520444233294745,
          -0.05427189351959559,
          0.06691099249801209,
          0.022114615410463147,
          -0.06428901972776138,
          -0.1553648274759622,
          -0.14016434533978384,
          -0.01921117678675549,
          0.06812982347157434,
          -0.13023111968291645,
          -0.03054186090604457,
          0.1181306160211222,
          -0.1686918071533028,
          -0.12051739226686835,
          0.11494772337883973,
          0.04506364550992271,
          0.11587608234431823,
          -0.006700168540865994,
          -0.025954482757507235,
          0.023415070566982776,
          0.023536249978674584,
          -0.25563771467565244,
          -0.09638222210656482,
          0.24654602269146725,
          -0.21479278112895142,
          0.20762356114237593,
          0.059944147579069816,
          0.17566588168168695,
          0.28317135461033116,
          -0.06910425284024406,
          -0.029601769131285514,
          0.0664424552947404,
          -0.005087848570619911,
          0.06755845140386935,
          0.08696850647771573,
          -0.07077265587962642,
          -0.0537742645135646,
          0.14608162851945183,
          0.050252478761209377,
          0.09599038090090214,
          0.0097399079553662,
          0.34253454558558416,
          0.06799334079114555,
          0.05244638356019109,
          -0.021850851250398314
        ],
        [
          0.19562306292265746,
          0.1556865333477213,
          -0.013253432240346929,
          0.03911896529300646,
          0.10192075838941729,
          0.021215559871838086,
          0.12738601192857973,
          -0.06375776695241203,
          -0.038311301939855734,
          -0.042918489677070494,
          -0.15115009142251146,
          0.057110909038682114,
          0.035055351435521534,
          -0.09340292354288982,
          -0.059999559265384216,
          0.08030259740418631,
          0.08867937830041372,
          0.1781264892184201,
          -0.19388814051926564,
          -0.03777615487958877,
          -0.07627068837507607,
          0.015889885844264175,
          -0.1250328929148188,
          0.05059467646757231,
          -0.15826274491505046,
          -0.06445490317420151,
          -0.03578352659478647,
          -0.08436179733674512,
          0.18018048806530468,
          -0.05788485965139206,
          -0.13511336270493687,
          0.005740150949442408,
          -0.0526124845326747,
          -0.08870773084195227,
          -0.10664966908872077,
          0.04443066275677763,
          -0.07011409572464661,
          -0.23047503603138045,
          0.25131489582710204,
          -0.10509257652363782,
          -0.05775939684903257,
          0.005725328743013654,
          -0.11587843149317661,
          -0.2603903622119277,
          0.19679194059317595,
          -0.01630629666776194,
          -0.015949076014440216,
          0.05194772892838399,
          -0.25712439819947985,
          -0.05827584026592065,
          -0.10109142805135851,
          0.17340871721234577,
          0.0711504724239243,
          -0.16286804953124204,
          -0.06869572788120748,
          -0.04138471035151977,
          -0.08430108146968501,
          0.0370501470197743,
          -0.11618633243488664,
          0.11090309355089142,
          -0.06090747188319895,
          -0.037400084079966776,
          0.002273851868238953,
          -0.10955482392124934
        ],
        [
          -0.0036135008755052564,
          -0.26006475525708606,
          0.13744895413263458,
          0.06585999513160502,
          0.06753130842503674,
          -0.016349177117024407,
          -0.0693549507048706,
          -0.21787670339676157,
          -0.15883002161572102,
          0.0487600310510451,
          -0.1600502005077891,
          -0.021771673536321368,
          -0.2819696908644659,
          -0.16006341760132048,
          -0.21827960006358238,
          -0.1279195041749282,
          -0.0802427659728031,
          0.15590500595772008,
          0.06435582031402935,
          0.0679017412597398,
          -0.06067357816912829,
          -0.09566554473900954,
          -0.08680016795453677,
          0.0036276732296129507,
          0.022676803193746722,
          -0.0035250508377611283,
          0.04714659639149065,
          0.2800263437577152,
          -0.0034801475883132543,
          0.22367035846973726,
          0.0154715944899571,
          0.26406616692581075,
          0.1477477659736611,
          0.03739065748326557,
          0.05967846634604773,
          0.2557997044654069,
          -0.1579205430970601,
          -0.031039605692641675,
          -0.10853070370442824,
          0.07059916300313118,
          0.0940199284373747,
          0.19566972950081307,
          -0.020788304672187553,
          -0.015191262379686127,
          0.16952539047993842,
          0.07382750939346963,
          0.21013301554267835,
          0.02963078940926506,
          0.17670037135009198,
          -0.057732856498442696,
          -0.12757530040666323,
          0.0690448586726988,
          0.03359920485626647,
          0.0786978151276693,
          0.16786721998860224,
          0.040240727808030514,
          0.16243082588886668,
          0.08133167887996488,
          -0.0337298398386937,
          -0.11023871157480983,
          0.08411433524432495,
          0.1569816777124363,
          -0.2112384097134761,
          -0.005732947756569641
        ],
        [
          0.4517007659535925,
          0.1523194062219103,
          0.030592277036556096,
          -0.07328298672991126,
          0.13117155700145505,
          -0.21868733996939843,
          -0.1192129175527749,
          -0.24145767438744675,
          -0.5915573915173367,
          -0.19183676400484628,
          -0.32875811388867954,
          -0.15850720219061026,
          0.030987688737640722,
          -0.7929039194372957,
          0.10298639670136443,
          -0.24840139507520376,
          0.2163287282004896,
          0.48647586712392726,
          -0.3014212299015489,
          -0.05750210125489128,
          0.336437826934493,
          -0.9597610376379166,
          -0.4550075512725087,
          0.037668767555229916,
          -0.39965119361047624,
          -0.11241413593356284,
          0.1784244975469745,
          0.23577529921697413,
          0.09139451197059298,
          0.021257616662471796,
          0.34581211886200497,
          0.23110803338622196,
          0.05328789689034723,
          0.32863215551934505,
          -0.6464420819218046,
          -0.03305360417487579,
          -0.2173934942575337,
          0.3124689422004231,
          0.6213756497308608,
          0.4792458551375705,
          0.04587566515878298,
          0.11238688957972981,
          -0.3987509518184025,
          -0.4715939351702842,
          -0.3141702623654278,
          -0.30377239128683853,
          -0.5536282184542224,
          0.14876565839700617,
          -0.21324698390794336,
          -0.35122819143224493,
          0.0940410800324106,
          -0.35857233607687955,
          0.15532941581410076,
          -0.18005165645055046,
          -0.10566273588249142,
          -0.057084063156209064,
          -0.010808133788418611,
          -0.01440194571255263,
          -0.008286552722725733,
          -0.07233592913244218,
          0.2765012478858871,
          0.5105177046537331,
          0.029703601244085776,
          0.3022589361192471
        ],
        [
          -0.15409941930720905,
          -0.22104806584813336,
          -0.06580596922286133,
          0.18902412896475604,
          -0.2732155958955414,
          -0.20048286581893887,
          0.06197260310052369,
          -0.12989431372496735,
          -0.21282511432392492,
          0.03992645368935504,
          -0.06568930568462608,
          -0.0319262471472189,
          -0.20331581456429515,
          -0.1687794543134857,
          0.022221758554938204,
          0.1167802494446786,
          0.09549226871935577,
          -0.12599812315183193,
          -0.1482251224642792,
          -0.06668142727791636,
          0.13257974536511363,
          -0.0964958429151548,
          0.24989430563696827,
          -0.032759199034872066,
          0.0018132944282897683,
          0.10204722868059782,
          0.08147101806300017,
          -0.0955560377809954,
          0.12775290872436112,
          -0.16885939534630112,
          0.20439305076556774,
          0.04744090738400777,
          -0.12187416825765204,
          0.1640462307829731,
          0.2743663036095975,
          -0.150152204979363,
          -0.146055385257652,
          -0.14893657170154492,
          0.16513623571517277,
          -0.06793446602260117,
          0.19812052145872483,
          0.12001608533492573,
          -0.09911731762992289,
          0.01202408078963414,
          -0.12759921610441688,
          -0.04077976894306239,
          -0.041569346489405676,
          -0.1543670895434263,
          0.047711532359760604,
          -0.00013661564801790613,
          0.12054396307507165,
          0.05311106552389536,
          0.11852227033781738,
          -0.03764945472847993,
          -0.045054319858301696,
          -0.053593942396764786,
          0.08637811427273939,
          0.010448609576678078,
          -0.330757033688381,
          -0.1439358291554755,
          0.07673875302900886,
          -0.041985630529258876,
          -0.0985972143604443,
          0.002335754527338228
        ],
        [
          -0.2127320269364288,
          0.1193635300100584,
          -0.033264281165334,
          0.2600873108012265,
          -0.09530998606156423,
          0.6621889110633427,
          -0.38607684074672216,
          0.28168130911792905,
          -0.1478185425409438,
          -0.26164973723500773,
          -0.08405545820870426,
          0.2564763513892829,
          0.24390043146521256,
          -0.16515800769586897,
          -0.17473531779114623,
          0.09137180665924645,
          -0.05887972733996165,
          0.046364424816720776,
          -0.11357917944108409,
          -0.26926963715525587,
          -0.040130372823883334,
          0.10484081428148621,
          0.1371862816848385,
          0.13938285802900113,
          0.0194934889292079,
          0.1834376967460135,
          -0.051006666611751586,
          0.18065363449664168,
          0.2257266069753632,
          -0.10549907038223783,
          -0.05265003366847871,
          0.1496716940048643,
          0.18751430252298082,
          0.20914241728412422,
          0.511415314230333,
          -0.4125019592829552,
          0.379224752923833,
          0.3364180424910068,
          0.3564504500559983,
          0.2479280442948241,
          0.1758265533600472,
          -0.2805511584194386,
          -0.06517888434794483,
          -0.0563674533936463,
          -0.31378465515582726,
          0.15925020463108522,
          0.2606976376424367,
          0.3053687691248007,
          -0.21456306322483013,
          0.06065199824136214,
          0.13329166582115567,
          0.2898448166648263,
          -0.3849845230258539,
          0.23311787019555247,
          -0.2819048814022361,
          0.016780561868847316,
          0.014152218916282546,
          -0.009877711302377825,
          -0.266044446578856,
          -0.0721143134256401,
          0.04771240011177985,
          0.2216022554605174,
          0.14770839622798781,
          0.2771648852256704
        ],
        [
          -0.0009392263839451188,
          -0.07533264211330988,
          0.01618284626301774,
          0.0748884611349573,
          0.23603478612721693,
          0.40505289021924545,
          -0.006132696352816378,
          0.03932784144968453,
          -0.1417769966736051,
          -0.09790143930033345,
          0.0038086163796765067,
          -0.08074947309468761,
          -0.10129856362550758,
          0.09887113456240329,
          -0.056741976010233494,
          -0.006898006810533654,
          -0.26744386880047805,
          -0.029922182421229307,
          -0.030518242744007707,
          0.027594086626915284,
          -0.04820714163490228,
          -0.08782264654595374,
          0.00663114389385881,
          -0.2388694714946196,
          -0.05110106914180097,
          0.02004086748009106,
          0.06597102753798789,
          -0.0197209830249859,
          0.17860561784800788,
          0.06609016031118323,
          0.1310172699268883,
          -0.1302867577703126,
          -0.023382952181062452,
          0.18530370876888205,
          0.16782512976985967,
          0.16667154823827038,
          -0.13245968588349466,
          -0.042036109480816236,
          0.024259931111628684,
          -0.08634931476413829,
          -0.0008677951520588283,
          0.01434451093596773,
          -0.1208214010952214,
          -0.04413957163877241,
          0.11556057154452648,
          -0.030383748353858,
          -0.10582927523491131,
          0.11628536559055574,
          0.05908801801725061,
          0.018234693935597422,
          -0.045458294313343535,
          0.20248767235134946,
          -0.022842405432148098,
          -0.2633100751882734,
          -0.03794300570363078,
          -0.07089693155606157,
          -0.3164114053473347,
          0.009842890712799545,
          -0.2456570711506775,
          -0.030270968445314957,
          0.16409806784072767,
          0.04807504899179131,
          -0.2155127135880105,
          0.0010823930311443498
        ],
        [
          -0.19421257182172083,
          0.16859937027287417,
          0.06180913793622792,
          0.036920625335339345,
          -0.08069254818361511,
          0.20927892448289406,
          -0.23553170224494208,
          -0.007332642241329837,
          -0.010348907243429066,
          -0.35471071067439536,
          -0.007027669091327844,
          -0.14628888259263134,
          0.09336565369273035,
          -0.046964219449616075,
          -0.1740613004616629,
          0.1825921796517249,
          -0.17540975452760624,
          -0.08201476696849258,
          0.08977243000029422,
          0.16318079667981578,
          0.15544285011130984,
          -0.0897847485816199,
          0.1927211250083977,
          0.09737727445718015,
          0.025764743351745462,
          -0.02238246990398554,
          -0.05519508254158619,
          0.13684376842155524,
          0.2366969236753394,
          0.3277716234061756,
          0.05721279109796378,
          0.0921717479670451,
          -0.06733100743129737,
          -0.09849933238858043,
          -0.10286509341257169,
          -0.004060209378204962,
          -0.11445579234886674,
          0.004654429691372858,
          -0.14511718687142075,
          -0.07395088105700758,
          -0.05099703841627303,
          0.02879072773893856,
          0.02086716367651852,
          -0.05804948638000005,
          -0.2669667757372777,
          -0.04774077051440773,
          -0.06590009055243648,
          -0.0014712056966536765,
          -0.12694978052778758,
          -0.1365835102513522,
          -0.005247228227577435,
          0.13591364538704415,
          0.10351134926236394,
          0.02261889457985528,
          -0.282404845485285,
          0.054668811690491696,
          -0.16052850603390756,
          0.09370501180673989,
          0.09365388377671345,
          -0.02455723733091664,
          0.13411158849702343,
          0.02150331870584059,
          -0.1754008473403459,
          -0.06756400345450671
        ],
        [
          0.03138248838567902,
          -0.016587174114853026,
          0.004039664869537752,
          0.15294222433090435,
          -0.0053610380904488145,
          0.15932651508516546,
          0.07877029759687532,
          -0.11038892823181898,
          0.0668156202148852,
          0.2417511810152615,
          -0.1062646195396906,
          -0.010689620743516355,
          -0.07297291534222797,
          0.03569740095469875,
          -0.009967244460663388,
          -0.2304806119390149,
          -0.029509191452026167,
          0.05109142115208392,
          -0.06390016221533548,
          0.05187096727217368,
          0.15659897445813104,
          -0.240648436494084,
          0.05950145016283428,
          -0.1307156861549114,
          0.010260626036757096,
          0.005127057606353723,
          0.04267671631444242,
          -0.0953110232455337,
          -0.01100141972372032,
          0.014471921784253659,
          0.049699615055536196,
          -0.03532780314661003,
          0.09298968245321103,
          -0.21197498316233673,
          0.05679140629268292,
          0.04252368935352367,
          -0.2102266106935886,
          -0.12215064109906677,
          -0.08129081415456106,
          -0.006133520407502781,
          0.138718256262745,
          0.042468563978246075,
          0.1394130772001533,
          -0.015003030586000955,
          0.02143638879388635,
          -0.05495119032677815,
          0.21806150432858382,
          0.01258617906360203,
          -0.05142822315193583,
          -0.10820559879283637,
          -0.18404008098220637,
          0.1710361885713901,
          0.13292377537276392,
          -0.0035474169146541812,
          0.03803534806885084,
          0.0017490935941704652,
          -0.007832363531982365,
          -0.19813631411283447,
          0.010299592868702136,
          0.03598471033802424,
          -0.12110545743993004,
          0.11390835063498454,
          0.06654796763893027,
          0.25975999638757863
        ],
        [
          0.18397778065203332,
          -0.24225118837663037,
          -0.08714224834151257,
          -0.21050608252353956,
          -0.1095531900440482,
          -0.20400310238999314,
          0.1042553170362612,
          0.23768247103624093,
          -0.19440715079591916,
          -0.07601581761326014,
          -0.03542016553624297,
          0.14059271762619494,
          -0.10417767530640058,
          0.058789672482035385,
          0.1775031683333215,
          0.11400004216894132,
          0.04218028425420701,
          0.11578271348699824,
          0.11889114455781673,
          -0.22977967673968192,
          -0.09413639823947097,
          -0.004212969868891803,
          0.14314934012500394,
          -0.08711821720782616,
          -0.07655614012567345,
          -0.08527588577426652,
          0.03344565860046021,
          -0.16580459802431585,
          0.04975679745905514,
          0.05963590192085334,
          0.24412884223883108,
          -0.021071656632342478,
          -0.011568904289838249,
          -0.1024547549034746,
          0.05038652239723762,
          -0.1356395880256698,
          -0.10411955418755445,
          -0.04264800236859079,
          -0.1990300940312982,
          0.2115311435713636,
          0.051966817636791604,
          0.045279683379245636,
          -0.271872110615633,
          -0.07181246138062698,
          0.1195567428409994,
          -0.07258669282296418,
          0.1531776874036972,
          0.20363896737914217,
          0.24215393815479916,
          0.008986934593232894,
          0.050160228824137634,
          -0.1165568239228212,
          -0.04769647542189408,
          0.1341472019929146,
          -0.13330344213484407,
          0.02441818772830483,
          0.02006319204728402,
          -0.04599403419313797,
          -0.25100722873820047,
          -0.12377745461625231,
          -0.14222331087622164,
          0.054505231257254476,
          0.0758890947257768,
          -0.17335761978993527
        ],
        [
          -0.020532292321565185,
          -0.20773145472892535,
          0.0212033365471216,
          0.02453794701266417,
          -0.01707094008892493,
          -0.06441278634900373,
          -0.07530212014009263,
          -0.008943930540230976,
          -0.18205221700321014,
          -0.19617654963792241,
          -0.4315521351341331,
          -0.008317941705433454,
          -0.16755547528554957,
          -0.09174558113841069,
          -0.22338710611671977,
          -0.2078634316383564,
          0.05928608796824085,
          -0.19568643910432926,
          -0.014787747567072806,
          -0.010764043891164723,
          0.05601292850007821,
          -0.11144482985365912,
          0.06835100558081353,
          -0.0582653575066675,
          -0.014746009641704569,
          -0.014548127151535063,
          0.0035842703247206844,
          -0.31290086383534005,
          0.037885347894894374,
          0.1056049769550513,
          -0.08065138538455247,
          -0.018667725887571797,
          0.0360382533511809,
          0.17992215923774227,
          0.12362354100910852,
          -0.16229231586224196,
          0.0017228188513571628,
          0.20379160922727138,
          -0.20145345746442594,
          -0.369178185761314,
          0.2849485845405966,
          -0.1210709505379811,
          -0.15040080897593464,
          -0.007538724989135092,
          -0.034875740603724004,
          0.060436563410039765,
          -0.02594739867157297,
          -0.21109827573569073,
          -0.0531574029410884,
          -0.22981668470060312,
          -0.21694823894238044,
          -0.054595846338126724,
          0.013384466450328664,
          0.06054348298505897,
          0.13277337046645402,
          -0.008311966219672118,
          0.13073441619865972,
          0.04404002255977433,
          -0.15483883962177192,
          -0.11929752027075378,
          -0.10313111979700941,
          0.1035655820590827,
          0.044234219786326516,
          0.025428462305360368
        ],
        [
          0.07706058012507379,
          -0.07800718399308136,
          0.0038382013832244646,
          -0.19762567334311298,
          0.022001921863356907,
          -0.356745560923462,
          -0.2488437771473768,
          0.13825170367165968,
          -0.17971663237208346,
          -0.0024289793332045624,
          0.018030953577807946,
          0.3257171078982144,
          0.14644331532426322,
          0.027774977741122264,
          -0.029609412191960293,
          0.08359835127216439,
          0.024016711560316276,
          -0.12278232574980542,
          -0.004653317477351561,
          -0.21439136832920633,
          0.029436778013877393,
          0.11713945444528859,
          -0.005666804124586329,
          -0.06160842214983949,
          -0.22928421160707146,
          0.20399741653287196,
          -0.13877870124400182,
          -0.1847847019152918,
          0.02695249214848864,
          -0.0009833533429274835,
          0.013598208576090103,
          -0.03461781578505755,
          0.06354045437069396,
          -0.12211276047193902,
          -0.04428851374086359,
          0.18804834298329626,
          0.04154613506869242,
          -0.1813218932715683,
          0.10368857804919965,
          -0.013960340363727421,
          -0.09412542974144421,
          0.06061415418940822,
          -0.12474538842266512,
          -0.0687462256113879,
          0.0596243959461233,
          -0.030005870966496394,
          -0.39270568921401056,
          -0.1339060465611061,
          0.09612924934826864,
          -0.05692838808735627,
          0.14544190415522634,
          -0.04818855390971703,
          -0.009620260476239938,
          -0.10524607591803589,
          -0.03872556360701296,
          -0.08685639885964302,
          0.09613982899565576,
          -0.09084132619141504,
          0.05075870257663938,
          -0.04659454398315076,
          0.11126518436224986,
          0.11691385592751746,
          -0.026209308710329532,
          -0.11007186044277963
        ],
        [
          0.16656591432927512,
          -0.2810037836230516,
          -0.04540970242468498,
          0.10185595476177184,
          0.28136899831011813,
          0.11060262810850346,
          -0.18548070352800422,
          -0.06348832145928428,
          -0.2520471699871662,
          0.03583686452524213,
          0.15512716984452155,
          -0.14880841512525403,
          -0.2786040591359873,
          0.07956104256060915,
          -0.026380523197146243,
          -0.01968940343910886,
          0.09789606079939195,
          -0.1528081961848369,
          -0.004917734562446618,
          0.08108462347007886,
          -0.021651611672378456,
          0.020231620654843484,
          -0.1933627751083643,
          -0.1297404749473282,
          0.0680726270998974,
          0.0037099356354276473,
          0.1271459282840298,
          0.12034591792284229,
          0.008597951266650392,
          -0.059743341320703566,
          0.007405467843448017,
          0.08740924772897528,
          -0.09631093472052292,
          -0.04854625026203065,
          -0.10704790440730683,
          -0.09591152260541347,
          -0.05559626161147822,
          0.15498499742581692,
          0.022758864845365954,
          -0.03988289236626608,
          -0.19932746158852363,
          -0.13518210273613182,
          -0.0912057221629471,
          -0.055780267564588655,
          0.08182792417823478,
          0.049361364569838743,
          0.1644225433810087,
          -0.011033203932445564,
          -0.12878840517682943,
          0.1637956110502595,
          -0.12174699372768953,
          -0.009363920579696785,
          0.21407054690050276,
          -0.36170262192478453,
          0.04872108203962143,
          0.03218962449346339,
          0.02467600860598074,
          0.10954858294596076,
          0.2360324992657978,
          -0.013542764746467723,
          0.18253759890187854,
          0.05453771423905273,
          0.08768410557270871,
          0.025496395092859312
        ],
        [
          0.07829595135311043,
          -0.11582784868294503,
          -0.04668891108685661,
          -0.08880909836156799,
          -0.08023225784098825,
          -0.11795414932493846,
          0.00032527689171904896,
          -0.04459638913378097,
          -0.18092133451100548,
          0.1623804026716674,
          -0.06779809112492469,
          0.1396406515079915,
          0.027595886235626792,
          0.04064078126261504,
          -0.0034550849937119363,
          0.061622212746243715,
          0.05523042230831398,
          0.060612527694920836,
          0.06197964665788297,
          0.06979676276659907,
          -0.06560542741183897,
          -0.055848488239707283,
          -0.07246977206041408,
          -0.11790510067418532,
          0.0631331738879837,
          0.010532492054581382,
          -0.04529090167896074,
          0.12562559800180542,
          0.12966315789692062,
          0.029505917895149725,
          -0.05489465482750839,
          -0.12881513516771856,
          0.15204885330780496,
          -0.12831382461473667,
          0.2589757121560803,
          -0.001638093714060769,
          0.015843449832904116,
          -0.014110832126308637,
          -0.13118025928480026,
          -0.06493674885044097,
          -0.12425584450277632,
          0.0439275300442811,
          0.08854303590389137,
          0.1073512267345116,
          -0.21091580358882167,
          0.021072063291545096,
          -0.06294680867987008,
          -0.0984367015819482,
          -0.08107031636797789,
          -0.016820872813733373,
          0.06961208377621772,
          0.25595446342042505,
          0.034606304444074386,
          0.11624793031470602,
          0.19562647525758659,
          -0.05926959907015467,
          -0.17394979543843983,
          -0.1428270641378235,
          -0.03228158981676033,
          0.10112635635336807,
          -0.0509929256354724,
          -0.20525977729078165,
          -0.009931437554390963,
          0.026834418990905676
        ],
        [
          -0.015460917896409236,
          0.055613143039806925,
          -0.20605469969777795,
          -0.25885272917968055,
          0.24197640144601962,
          0.1657561552019121,
          0.1533178943077531,
          0.16014048238073167,
          0.04425990451097523,
          -0.01252196143019052,
          0.15549562755564855,
          0.10527713534883756,
          -0.14497099276203557,
          -0.07698675354673105,
          0.06202155508689452,
          -0.020677299054788552,
          0.028409787264130463,
          -0.09509332531897233,
          -0.3645382602709463,
          0.13519153309924464,
          -0.05187358333530299,
          -0.031179282754869985,
          -0.035519708973040034,
          -0.04098777347014692,
          0.12629543332070284,
          -0.012718239359926794,
          0.19492546113427875,
          0.0532082452604559,
          0.20510621550022579,
          0.20833171870443928,
          0.02105781601838918,
          0.033499501760109844,
          0.15606994911884972,
          -0.159803231632079,
          -0.06642330281575254,
          -0.012259927821283673,
          -0.17788320951946693,
          -0.006636719102247256,
          0.04602566416435627,
          -0.013690103415467364,
          -0.09181157865064886,
          -0.04249835157099248,
          0.10673224875279301,
          -0.009260654978152878,
          0.036517955668779176,
          0.13279650677323054,
          0.11454072675401018,
          -0.21129997005839088,
          0.04221819463591092,
          0.16038276946672417,
          -0.010128973506668153,
          0.001839627431530633,
          -0.2164384347681709,
          0.03926444660689613,
          0.09263318517316306,
          0.16983775092442116,
          -0.0626754213315031,
          0.18623904041113776,
          -0.14254764200387865,
          -0.1150787935866542,
          0.059565200430691884,
          0.12128979095623506,
          0.02519491311063452,
          0.09856456720630968
        ],
        [
          0.11296883734902656,
          -0.021763774290597886,
          0.07215634586093686,
          0.14275306543836086,
          -0.09208816227328497,
          0.07401128834990481,
          -0.03362720423052447,
          0.052315960031054126,
          0.016996161210804397,
          0.07534717410975396,
          0.07290728447379231,
          -0.14181084429659915,
          -0.05763701149443409,
          -0.12219464372016424,
          0.10669889832353126,
          0.020725246494272584,
          -0.00948506819093841,
          -0.03661480815074616,
          -0.28585642840933145,
          -0.1340364653325944,
          -0.09370693291457383,
          0.0794143516881064,
          0.1559396307236281,
          0.12252927807518918,
          -0.01002840469663306,
          0.23074636748222063,
          0.043941640481907865,
          -0.09044482816751986,
          0.15001980773541707,
          0.04393882738101253,
          -0.17488781894585745,
          0.031164456574182542,
          0.05167675017105246,
          -0.08931101323994171,
          0.13096863606504708,
          0.03589411825430219,
          0.19105825281117306,
          0.0016740766568230144,
          0.16040847954594084,
          0.0958497830263662,
          0.06407107661852243,
          -0.10478888316253512,
          0.14075189456983359,
          0.060902939504358,
          0.22575753007401392,
          0.022156725236004152,
          0.012781725214871212,
          0.06481699662667867,
          -0.1042547692855209,
          0.21592688632350657,
          -0.003975191350774132,
          0.2879997713766855,
          -0.07780113495363745,
          0.05534116040922879,
          -0.21734777182224377,
          -0.09655383505666823,
          0.1150493172189256,
          -0.035510115212536275,
          0.14378041488191537,
          0.25137681706236187,
          0.005041568601362062,
          -0.08708148363824748,
          0.15602513240233312,
          -0.012113000412805996
        ],
        [
          0.07250790124443207,
          -0.01705825709854977,
          -0.08996228057387129,
          -0.2447293071563114,
          -0.031273738985593304,
          -0.3164588000198995,
          -0.04358333745871964,
          -0.10232253911494779,
          -0.21282013258496266,
          0.02471928737517968,
          -0.006011383624954617,
          0.028426864608284048,
          0.06625118343749792,
          -0.000521750218190517,
          0.049743374198924634,
          0.08807835374414408,
          0.1465237741796753,
          -0.06588940827171781,
          -0.09624118559365182,
          -0.10307351216876712,
          0.32678109631967317,
          -0.017810082058268523,
          0.14508847199138192,
          0.08506597342356594,
          -0.28468965046153166,
          -0.07920777080790582,
          -0.12661076812953964,
          -0.03379447497806542,
          0.15722121694828445,
          0.009025739311660477,
          -0.01812823049800815,
          0.12434205581480991,
          -0.058360316356786915,
          0.2758956410042151,
          -0.0434149654760872,
          0.12838893973387458,
          0.3124228251319411,
          0.12051610306478827,
          0.0004393807973994932,
          -0.348664935943964,
          -0.06573245549324853,
          0.10715451795028762,
          0.044780518606256585,
          -0.0322888049483811,
          0.22749203694913814,
          0.026439386059045777,
          0.17617438739555677,
          0.1169940361345676,
          -0.19459197361259387,
          0.23087910662739927,
          -0.12752627743704725,
          0.06081128715992167,
          0.16482650135942153,
          -0.10729624826219296,
          0.20834997156996624,
          -0.15807946741436665,
          -0.15411534361128415,
          0.12275958496740189,
          -0.1403325793328034,
          0.021942495044319933,
          -0.22153113911120983,
          -0.06778460007161297,
          0.1024246068840899,
          -0.10211825984511541
        ],
        [
          -0.08236685257425423,
          -0.14401428716048703,
          0.14464690227889831,
          -0.12193698192973425,
          0.1670348794589127,
          0.08845467068731072,
          0.015187790432068866,
          -0.0027837130678819246,
          0.08233238182076504,
          0.038938219328939365,
          0.03876670431525928,
          0.07023947627065516,
          -0.12763921582784782,
          0.03607440203771768,
          -0.09593759415909646,
          -0.061233021185494264,
          -0.07109289409197961,
          0.04259828388072406,
          0.2382833778544649,
          -0.17768068597656386,
          0.19194051526608746,
          0.2407637679321333,
          0.17771556346161219,
          -0.04191533085245849,
          -0.11363426505235957,
          -0.12540900160524257,
          0.11687265862974743,
          -0.027033692238316195,
          0.06746579412509733,
          -0.17252994400166297,
          0.2127853538735719,
          -0.10771621599520793,
          0.1235615223572936,
          0.29433031255358644,
          0.0025807566937309776,
          0.17818025172133892,
          -0.24928806011745622,
          0.04055323911700184,
          0.004538492025264403,
          -0.10225853538190403,
          0.2739336343711029,
          0.028241232830574524,
          -0.19840401773286917,
          -0.0017512795161547987,
          -0.007564166657929804,
          -0.07172981037084965,
          -0.21691396233213536,
          0.2889970625196304,
          0.15242403901053106,
          -0.16561409464354407,
          -0.004329449285314942,
          0.07741821324418165,
          0.06323827274983271,
          0.030672053874248564,
          0.14559135506711332,
          0.06862371706198328,
          0.11119079239589656,
          0.171878220770609,
          -0.09051356859776925,
          -0.16936328767711803,
          0.07071665050795183,
          -0.02732173854648522,
          0.07115425633499703,
          -0.08913997768272285
        ],
        [
          -0.06111700093727038,
          -0.19866518147116521,
          0.16751803260991044,
          0.11941898302020178,
          -0.07621453058950721,
          -0.10446068991924821,
          0.14382773334023038,
          -0.14732461477112974,
          -0.009900119841167508,
          0.18792664067585466,
          -0.12416476619966232,
          0.030534238694744725,
          -0.1223783201645975,
          -0.16694904667657268,
          -0.27391981936519355,
          -0.11183638728070516,
          -0.03832567402244535,
          0.17652059536460446,
          -0.13488447564565123,
          0.09785175482260604,
          -0.06268486763781765,
          0.23916087412563258,
          0.1690661963554387,
          -0.1307984385143301,
          0.059340618336759084,
          0.04335099121602597,
          0.14714349027806642,
          -0.0904872295857811,
          -0.17005743598044945,
          -0.24268500722105749,
          0.1785078365234343,
          0.10845490381819468,
          0.06031504095524633,
          -0.09217658163672642,
          0.06671877518701715,
          0.11837356306417603,
          -0.06716647202227538,
          0.1258438277413194,
          0.1923451956632945,
          -0.181205420934397,
          -0.02828177466119345,
          -0.2403687541490415,
          0.0011578421437071422,
          0.057869844264523705,
          0.060614579422009145,
          -0.11319728215225917,
          0.13471686780750472,
          0.02819453917324001,
          -0.09170228069363084,
          0.21636866212922393,
          0.043276849390236564,
          -0.14613598250239732,
          0.1799052365036968,
          0.16679216417854378,
          0.15953913633314265,
          0.018970773339870586,
          -0.15839120913571603,
          -0.00865696563984849,
          -0.05232367269210601,
          -0.07760164639951189,
          0.02861830561831847,
          0.07604011925889848,
          -0.17764792585688463,
          -0.09138343235553043
        ],
        [
          -0.030143458967752376,
          -0.03987719639364696,
          0.085091068799473,
          -0.13089848907726867,
          0.10869496038934928,
          -0.16684568301872882,
          0.21649933311742492,
          -0.15221918235290854,
          -0.2769275844127861,
          0.038182651171252455,
          -0.019412342260021337,
          0.0327811575682231,
          0.08583959923530264,
          -0.04373482790152905,
          0.154515921206049,
          0.03860510827713446,
          -0.25644344540982816,
          0.19833462672473437,
          0.22195692944019527,
          -0.1779162616974748,
          -0.12818379156594092,
          0.11891366784548371,
          -0.027579336913021786,
          -0.12057025651432286,
          -0.10687221453421204,
          0.014289667524063372,
          -0.21461476952162145,
          0.15015956644985634,
          -0.1393641534356657,
          0.14085495969308184,
          -0.0017405844312198197,
          0.05767466542250693,
          -0.00644756970800425,
          0.05476042373715043,
          -0.07129744710248312,
          0.016024503876739263,
          0.05257254740953273,
          0.06306171937032237,
          0.10246054105919596,
          0.001007828517758036,
          0.12105534810884715,
          -0.20060436820874317,
          0.19487397366652992,
          -0.018996156378599537,
          0.19352057565370567,
          0.05641451439109731,
          0.23999049818596754,
          0.07049584970851662,
          -0.23993370304679273,
          0.02584500664137163,
          -0.06717384909240547,
          0.11269840358003541,
          0.19187627348146205,
          0.03234414134448614,
          0.12830842200871387,
          0.1374904063905608,
          -0.09328019153426334,
          0.145672973662544,
          -0.0725698567467996,
          0.024369147766324057,
          -0.0390186811881101,
          -0.09413131419293992,
          -0.21639691650366777,
          -0.1434685252854823
        ],
        [
          0.48018273254752375,
          -0.5048607455043594,
          -0.23957784341840435,
          -0.6276162090806382,
          0.07398250465835357,
          0.2872958918849386,
          0.1584548485613749,
          0.2222201723458995,
          0.2673974988265712,
          0.35343548954187365,
          -0.3504313053700159,
          -0.21601398889080475,
          -0.6536104496927824,
          -0.5276955815777514,
          0.16083599955267439,
          -0.06113674997062209,
          0.2870894876906415,
          0.4141920663029837,
          0.308971824134345,
          -0.6687539691969542,
          -0.1969172134726303,
          0.2142874338436345,
          0.38764983262403435,
          0.23574551287547493,
          -0.1965688396496414,
          0.15760757948033724,
          0.1594890107244043,
          -0.181876079681424,
          0.050878246253613195,
          -0.2722954357585167,
          -0.2931747068775242,
          -0.5150167590385838,
          -0.8138428835322769,
          0.5569104379915306,
          -0.17249804156583173,
          0.07997284571730565,
          -0.21309101597343583,
          -0.27926897897901914,
          0.6726177777851522,
          0.645130436329409,
          0.2698390866123337,
          -0.20686505114953327,
          -0.24384157172036316,
          0.099453698170401,
          0.28668391096991436,
          -0.051985136412967876,
          0.3752777411376839,
          -0.25061556828754383,
          0.25713063932738095,
          0.444893443853641,
          -0.14472830282650448,
          0.14678736475075305,
          0.0603844955070856,
          0.09639623654051872,
          0.007751578399129724,
          0.9538109234608039,
          -0.18404014305628258,
          -0.34861391026069377,
          -0.11510565563331507,
          0.19214172343783884,
          0.10741963872199155,
          0.29528379025982593,
          -0.34021578517939965,
          -0.042850889389303023
        ],
        [
          0.14934806490115687,
          -0.14311699541052122,
          -0.2108638917609057,
          -0.022018924066706285,
          0.15738760481489555,
          -0.0634449483543534,
          -0.21354965817390656,
          -0.005141030586773693,
          -0.02775977649952544,
          -0.0809539431921629,
          -0.01254996742625874,
          0.2258609630302469,
          0.12618559491417727,
          -0.21945034599692415,
          -0.06296267129626719,
          0.02225253353195341,
          0.09350003658480507,
          0.03598782556576351,
          -0.0006386225307836145,
          -0.053051330352389355,
          0.012225728528916254,
          0.09296759056870874,
          -0.04791223995429967,
          0.044047583875831145,
          0.03206149532746011,
          -0.04001668470700159,
          0.07862221077479227,
          0.16191714500668383,
          0.08358164968541394,
          0.005944749670740277,
          0.011153588833094896,
          0.012428375516121186,
          -0.05422403512088152,
          -0.2716605751778793,
          0.10729371266794817,
          0.15755274488758386,
          -0.16666588237263993,
          -0.11360224813495129,
          -0.2407017126592335,
          -0.03030609451749648,
          0.02421378561124238,
          0.13507794508876683,
          -0.153944715307223,
          0.28388477704674486,
          -0.1078442893224494,
          -0.039801868709417196,
          0.04862002488650768,
          -0.35161561866862256,
          0.12042391629640181,
          -0.18023113878430663,
          -0.1643859386337941,
          0.14956987233765182,
          -0.0005480893008750362,
          0.0443694651790612,
          0.2515790195435316,
          0.08439735201975328,
          0.053095541642198936,
          -0.05168522677269352,
          0.034905369276036095,
          0.011283075623555334,
          0.05804510915768862,
          0.01901037737998089,
          -0.21100865249271136,
          0.00781283404711647
        ],
        [
          0.2630047369987543,
          0.06512546037799022,
          0.16022789248375932,
          -0.04605329834205054,
          0.09873101454947032,
          -0.05059051591861192,
          -0.1852220915414204,
          0.07209601824661854,
          -0.055366141558967345,
          0.1059423343750481,
          0.04307779744528066,
          -0.1064829193946566,
          0.07332772439408022,
          0.05025213762419378,
          -0.09246297647889722,
          -0.1169919796908163,
          -0.1108675790203321,
          -0.124474717423736,
          0.09258414552577651,
          0.052672338669278805,
          -0.13715671812832458,
          -0.13542170779270793,
          0.2670315299495039,
          0.037496429791545834,
          -0.0860731178220623,
          0.07205525647236768,
          -0.028933203982265173,
          0.22821225963548353,
          -0.06943833444919686,
          0.10721732902282916,
          0.10067316777487792,
          0.20808627531114576,
          0.02035185428954307,
          0.0555091233315074,
          0.07499335176171835,
          0.15606207592537433,
          -0.10763857075596905,
          0.14622153447600167,
          -0.024366365172917806,
          0.039771369535277185,
          -0.09972642971268979,
          0.14752428259435882,
          0.15273061764349663,
          0.12456746400692083,
          0.13671779188778208,
          0.2542678261757759,
          -0.12681820936145874,
          0.0317406357404538,
          -0.04827250388803017,
          0.10007298829247498,
          -0.011884217918016811,
          0.024268298216945046,
          -0.06469983811758268,
          0.2302322911456606,
          -0.15308534516128589,
          -0.07247212430397003,
          0.2219137786300381,
          -0.12111686679910505,
          -0.09901104525078953,
          0.009542270704824277,
          0.09814222556537046,
          0.022997449008653296,
          0.013151606172518041,
          0.17940953862005588
        ],
        [
          -0.030317160387761194,
          0.08251233106604206,
          -0.18374285211531377,
          -0.046129286635744754,
          0.05313087172025283,
          0.11691739583133208,
          -0.002457409223609273,
          -0.06883241777000394,
          0.009252229065458849,
          -0.14867083680331428,
          0.2270229730335901,
          -0.03956618671111064,
          -0.012263440022309427,
          0.0788824433751826,
          -0.12603597055246207,
          0.15100316096510413,
          0.11684914993204175,
          0.022659723686380036,
          0.22929501706415356,
          0.14646405138604396,
          0.08671732097866199,
          -0.07580986803499638,
          -0.09263560576067077,
          0.19177011003795108,
          -0.09110487226434959,
          0.037274220928614835,
          0.009460650625286247,
          -0.010874674990893615,
          -0.026355476966044122,
          0.006868170413165742,
          -0.08917422372490423,
          0.10656365831700428,
          -0.11392588946945467,
          0.05326664345768511,
          0.11175884092813194,
          0.12161268472127403,
          -0.045547795274939705,
          0.04247999246333656,
          0.11607013172496033,
          -0.35456282773449543,
          -0.0681169035981303,
          0.0361651702123294,
          0.156515645365097,
          0.16086285391685315,
          -0.018940358610953816,
          -0.04705876135333497,
          0.11312751765574332,
          -0.13140550344433766,
          -0.11208822135447465,
          -0.17410763960304435,
          -0.20619883290554628,
          -0.020412716223212647,
          -0.10413574793218067,
          -0.03272668632472745,
          0.017265999918920756,
          0.14836710925763705,
          -0.04841654922354606,
          0.05660235745705479,
          -0.08011700731073819,
          0.014770098015135588,
          0.08973505261843967,
          -0.1741529017805897,
          0.03992711858114823,
          0.15777565497619683
        ],
        [
          0.19291011054203144,
          0.16259905122333146,
          0.3930404104873934,
          0.27422400238222105,
          -0.16321428102633473,
          0.23493100654733423,
          -0.03745544269767214,
          -0.2671562637966755,
          -0.03526368882968296,
          0.0829697649228978,
          -0.5055952161917109,
          0.10398598884497662,
          0.01183793173974469,
          -0.03430467291229793,
          0.35505067876575913,
          0.3316553032505237,
          0.29997582071220547,
          0.11103627496351881,
          -0.03247879790777076,
          0.4993217231724337,
          -0.13791115074569152,
          -0.06187768608735901,
          0.2878012079165886,
          -0.03900527091288388,
          -0.13317185549055327,
          -0.1405545009177631,
          0.1599628822699792,
          0.13739343667367188,
          0.28906451436611136,
          -0.22144566067827579,
          -0.06457738959972506,
          0.30851974327165976,
          -0.1959617416201119,
          0.16039617758791003,
          -0.07158961996765428,
          -0.4098090298379432,
          -0.09972971464798279,
          0.2441191404885956,
          0.4135652553516661,
          0.008979831690302984,
          0.22875125643173544,
          -0.42164102123782615,
          -0.379371316155275,
          -0.11247234261639141,
          -0.20515916628589195,
          -0.35592905227911065,
          0.5395927483219425,
          -0.15152976059064174,
          -0.4096965870196524,
          0.007382269193731477,
          0.32990314389258696,
          -0.25804911858702073,
          -0.29085027935499663,
          -0.15957917627257417,
          -0.07705603573424787,
          0.04943972705225523,
          -0.06944575863809056,
          -0.04914714806972775,
          -0.427370884206635,
          0.009505610544712864,
          -0.2619757940685093,
          0.48472481293439745,
          0.3680823280799335,
          0.03915953480805619
        ],
        [
          -0.0929026489111736,
          -0.005283270598942021,
          0.047231983997399994,
          -0.05128246863402318,
          -0.05150450534011314,
          -0.07397180109094591,
          -0.054244570201370426,
          0.05352392834447278,
          -0.022999938128972063,
          0.0684062448017453,
          0.011012888418462971,
          0.057449389855350974,
          -0.15238930254239996,
          0.16686795369573168,
          -0.024776305402238158,
          -0.212073692767593,
          0.1643022966153901,
          0.09684432509212502,
          -0.22926845223991785,
          0.13948404951357835,
          0.30798950686926385,
          0.04843198662929141,
          -0.02519466089113955,
          -0.2952358400335112,
          0.06660746336024935,
          0.20978474695492746,
          -0.14811673775440362,
          0.02706834218298605,
          0.1720688980045396,
          0.14404481610464384,
          -0.05658325348098472,
          0.0719940812101406,
          -0.16847868709703906,
          0.013345005578618774,
          -0.04000101775948555,
          -0.12337752998653784,
          0.001617677386725678,
          -0.023560196115209698,
          -0.11238099429993341,
          -0.08168027378282104,
          0.12225240850407056,
          -0.12014601749889993,
          -0.0462424835999351,
          -0.0725141995640898,
          -0.1523965488891998,
          -0.238974226507998,
          -0.018432054349963114,
          0.16570170119376917,
          -0.21133616900387778,
          -0.11787694621455778,
          0.026716782480806125,
          -0.06651598335647352,
          -0.12728855526889288,
          -0.03189152123809224,
          0.10716435871349732,
          0.08302903956785379,
          -0.009390334700348845,
          -0.09704195992947262,
          -0.09207768897618387,
          0.04689197588372518,
          -0.33789743246071924,
          0.004824729565053263,
          -0.03733051137971706,
          -0.270521736558076
        ],
        [
          0.03633253772853553,
          -0.14406583126111616,
          0.10201742864634109,
          0.002063216603451625,
          -0.09095007762850903,
          0.056033162613952116,
          -0.03908365635502606,
          -0.11446405644428571,
          0.06732933821123613,
          0.15811261617503375,
          0.12682294910177755,
          -0.0015470689587945934,
          0.1930275814542856,
          -0.06468687580531861,
          -0.012714014560316029,
          -0.003624911061321305,
          -0.1833805389396789,
          -0.06372704205945644,
          0.19970222440810495,
          -0.08862594099147493,
          0.1917433621107099,
          -0.04213541864126198,
          0.20251380056732077,
          -0.1798184770065622,
          -0.2145281030741833,
          0.06534207851041168,
          0.02826243589341308,
          -0.0016646165401763469,
          -0.017220208813010295,
          0.06846348642195392,
          -0.19194830449249395,
          0.08117523336855746,
          0.10516396049293754,
          0.10887792480088669,
          0.003995556692836055,
          -0.06322479547176585,
          0.02169651670163084,
          -0.04487612107490494,
          -0.20594062587178572,
          0.0976764376536011,
          -0.0076452681940478075,
          -0.05207337686542935,
          0.07905445893770205,
          -0.20396812080721974,
          0.08355693120664717,
          0.04930681201283125,
          -0.04557434701379983,
          -0.03618920895955662,
          0.050307726641532394,
          0.08609555575245706,
          0.0872703974193919,
          -0.1435316526929406,
          0.16020726916971922,
          0.08471126047134452,
          0.11828723793624675,
          0.21283001982640187,
          0.07835654456068804,
          -0.036432164974600376,
          0.24602137022611695,
          -0.14727727608298616,
          0.2352804395721833,
          -0.010830644382549524,
          -0.12340845074775973,
          0.09654612417096929
        ],
        [
          -0.10422783392773012,
          0.36222711261180046,
          -0.03239257231484516,
          0.05533259747781953,
          0.035399240031513284,
          0.020091292052585252,
          0.050095388565360506,
          -0.03546321006049477,
          -0.06443240904772485,
          0.016069495858369778,
          -0.08004160566618038,
          -0.08561474341204069,
          -0.04138735607467838,
          -0.10124314092251188,
          0.09285900363399185,
          -0.04219388257970885,
          0.052304163986888676,
          -0.10799445080816414,
          0.14436565393350895,
          -0.05792430328166301,
          0.4588601272539686,
          -0.0033990351230664155,
          -0.24177464226171166,
          0.09680376126837986,
          -0.027263075914841735,
          -0.09711792506851279,
          0.05399425468544435,
          0.047665818346244455,
          -0.15074038968976164,
          -0.04189503989440278,
          0.050490292283137304,
          -0.19296213241227567,
          -0.2509834416652839,
          -0.15745306488027705,
          -0.1515269361505939,
          -0.20682870176916365,
          -0.1525500737115761,
          -0.20473443310273381,
          0.21413234820358715,
          -0.18022779782437304,
          0.1519402444799915,
          0.01141091626786619,
          0.006713229070827578,
          -0.132076407464963,
          0.1165856597295087,
          0.1434708681269223,
          0.2363594591324509,
          -0.10759336514160155,
          -0.06259681079478184,
          0.1980631746394905,
          0.10713819130419619,
          0.09873954339925664,
          -0.06205507711747287,
          -0.26554954147107035,
          0.2866221990204783,
          0.055370272096673126,
          0.07523547363675744,
          -0.03240156914897814,
          -0.0583791493139912,
          0.15588386448187735,
          -0.026136426127293215,
          -0.1251728866123499,
          -0.16984348476263222,
          0.0722109906757342
        ],
        [
          -0.09310759905217803,
          0.11352798117670455,
          0.14859385951589155,
          -0.3078846072292861,
          -0.05142977146779028,
          0.13112614221968322,
          -0.08247407019856771,
          -0.07079334050570157,
          0.052209588091063526,
          -0.010153678896758913,
          -0.13949014562230694,
          0.012663510914351899,
          0.07222563434556037,
          0.034160473601993646,
          -0.014256181796782048,
          0.22170593320386003,
          0.01832826790336138,
          0.027500354558334567,
          0.12271225307919068,
          0.19387233406128598,
          0.2302168591184304,
          -0.06939261698846465,
          0.04324689029010271,
          0.016511847309216423,
          -0.08150206215873303,
          -0.040214074832874265,
          0.1518955118721592,
          -0.08288773708743952,
          0.09419629092903682,
          -0.011151178994831012,
          0.0352525755318324,
          0.019953471734103854,
          0.05818235291299006,
          -0.030655666716838576,
          0.25180117816533204,
          0.021111718460960726,
          0.19776486895700815,
          0.1610119974711577,
          0.04454255926427353,
          0.03356481598273402,
          0.007166108629228244,
          0.19338217869791618,
          -0.11178623677853915,
          0.03108988614081289,
          0.19455631503276952,
          0.1272418855341268,
          0.05952370541917154,
          0.16263024630362857,
          0.29734612539122973,
          -0.14669286692340983,
          -0.04104359108274513,
          -0.19141605971908965,
          0.03729248849740168,
          -0.027836548271269246,
          -0.20813605866391421,
          0.012395329497318646,
          0.08627068819971664,
          -0.1765570669125065,
          0.1232741937537438,
          0.0759320239204225,
          0.12320121598952877,
          0.09595369477963844,
          0.14929238273806167,
          -0.039208210295306724
        ],
        [
          0.10443025601706273,
          0.05748498110327411,
          -0.0004904767303261319,
          0.136542128367953,
          -0.042690660568240404,
          -0.09679949789477883,
          -0.0074390668155386065,
          0.12874959326915186,
          0.11589956740715689,
          -0.024215639145756848,
          -0.033679646156949336,
          0.11325125618342977,
          -0.11914637232312233,
          -0.06520145218653518,
          -0.15203584846053603,
          0.061623578780391514,
          0.0115694972048847,
          0.07164914514555473,
          -0.12732709319928537,
          -0.0592237191688783,
          -0.005550677748240833,
          -0.18524775200247956,
          0.08262874639168845,
          -0.06533212563868936,
          -0.152060790965719,
          -0.10982071231398732,
          0.19039614669857965,
          0.02830544778643534,
          -0.22675927920469124,
          0.2869909798636453,
          0.07298492534347682,
          -0.0757074462033947,
          0.11364051863461487,
          0.06271937635696154,
          -0.04016048023874367,
          0.07946354331638611,
          0.17760964552739358,
          0.1846468702078905,
          0.004610070935035861,
          -0.24833540135250054,
          0.1664127450378791,
          0.06585049994595128,
          -0.07135484433643283,
          -0.054173269382882874,
          -0.057224596444851214,
          -0.10461307296068684,
          -0.07541553733579182,
          -0.2532061443114494,
          -0.07937198089890203,
          -0.006115405161637302,
          0.0926877674603304,
          0.0820254402263428,
          -0.08788289362468224,
          0.08346462303431121,
          -0.019747813129962495,
          0.004356943343226101,
          -0.01409471848765945,
          0.1572817359622981,
          -0.09959295563519534,
          0.07577177370635611,
          -0.0011352792000371352,
          -0.1029929828653308,
          0.14719542138680713,
          -0.06831810777435908
        ],
        [
          -0.042911235366017285,
          0.06449277712800153,
          0.1923447802722406,
          -0.14903835698429146,
          0.009345264209329919,
          -0.059920891889823795,
          -0.0015893881331158128,
          -0.02163032805172928,
          -0.005409153786948172,
          0.1557793705802174,
          -0.23320317244677125,
          0.015535429233246134,
          0.08979816647564144,
          -0.07610418849257448,
          0.11176507896469726,
          -0.23049164028968203,
          -0.3061325875945485,
          -0.021040726188993848,
          -0.010661841114468683,
          0.11466726937952582,
          0.2171327425254013,
          -0.1379123408547173,
          -0.3370660921628942,
          -0.01234963875880633,
          0.20392764351847523,
          0.06390735404333646,
          -0.07704263487101327,
          0.2543906011928953,
          -0.0965760332119007,
          -0.17951397184853718,
          -0.10191996776635519,
          0.022306337413356043,
          0.03858928634976214,
          0.07601988101098689,
          -0.09666627988747195,
          -0.11072863518440675,
          -0.18223886145211698,
          0.1054440438823729,
          0.03412037145698412,
          -0.027611278152592914,
          -0.14465651819086028,
          0.1462734839185473,
          0.011742889521187471,
          0.11768735118846244,
