{
  "neuralNetwork": {
    "numInputs": 11,
    "hiddenLayers": [
      64,
      64
    ],
    "numOutputs": 1,
    "hiddenWeights": [
      [
        [
          -0.19986565724417574,
          0.06463651538343165,
          -0.15279751245735407,
          -0.40773953200225066,
          0.8059378638894988,
          0.07277442333425095,
          0.12229993996831393,
          0.3961224947083787,
          -0.10282498863771712,
          0.6819744280084119,
          -0.5159060098800612
        ],
        [
          -0.5895063591846581,
          0.2994019426703397,
          0.3204724389718626,
          -0.10104164961138286,
          -0.07070516421519966,
          -0.05806943989999916,
          0.30131877340134694,
          0.460463182018533,
          -0.6676324423733524,
          -0.14031595591759305,
          0.04465606454141174
        ],
        [
          0.2556985686722987,
          -0.08043641413696731,
          -0.17168942829714864,
          0.2147463044675274,
          0.0026004373302032117,
          -0.9285786388617738,
          0.23031360986877217,
          0.17689898105018445,
          -0.33697769890393986,
          -0.32978519240874804,
          -0.4983826783111523
        ],
        [
          0.41440989062038,
          0.43228385213592385,
          0.6876123014834565,
          0.2780862090829703,
          -0.6814893057712226,
          -0.42164036288118334,
          -0.7648154848365932,
          0.11107532630719197,
          -0.25349618224294074,
          0.21612280102238282,
          0.3187643525319141
        ],
        [
          0.02607285526674315,
          0.33343731401955523,
          0.6166916300836282,
          0.2234157671351607,
          -0.5925914713313838,
          -0.040584128467590054,
          -0.21686088102620552,
          0.3093854122929054,
          0.4333939793470686,
          -0.608772394618513,
          0.04622795645075641
        ],
        [
          -0.5014953306536941,
          -0.08851552672332459,
          -0.06573612704898948,
          0.8190745351439521,
          -0.4565041783258243,
          -0.4091889938519758,
          -0.18948694601191943,
          -0.16422744318171106,
          -0.0753900175106964,
          -0.23300820809263387,
          -0.02346690391748645
        ],
        [
          -0.4600726285998893,
          0.27183256623895,
          -0.5960053155451991,
          -0.13121898764376666,
          -0.2644874378810058,
          -0.04882672449400495,
          0.8976744222449633,
          -0.31029698039545517,
          -0.5049584030138695,
          0.5717621556768797,
          0.1279796632286864
        ],
        [
          0.5334787281083067,
          1.2885720115761046,
          -0.9010755396167309,
          0.03481845486838805,
          0.11515301222809365,
          0.8709773901182862,
          0.10712136036348222,
          0.4449417193856496,
          -0.5037659733767008,
          -0.09862043482135505,
          0.12568240059137858
        ],
        [
          0.22991681283913362,
          -0.14081878728425334,
          -0.3858190637136082,
          0.7527749843555498,
          -0.04625339657725226,
          0.558129770826121,
          0.488105967248503,
          0.025278278193210067,
          0.4614862175612257,
          -0.42201139215823913,
          0.15445195218565264
        ],
        [
          -0.04382536325273798,
          -0.04310539614987591,
          -0.5845700068623209,
          0.13360851268841825,
          -0.6961379872973512,
          0.42290610089024083,
          0.12007000384269957,
          0.24395898729555632,
          -0.01900770459055464,
          -0.14652535881079568,
          -0.27906726420543626
        ],
        [
          0.16306937003277405,
          -0.3120106775663715,
          -0.19585604666802126,
          0.5753571233837657,
          0.5554708098334654,
          -0.001037149232808169,
          -0.21435501122167547,
          -0.12270251948316693,
          -0.20880479868909407,
          -0.9765410365053175,
          -0.27638269501319007
        ],
        [
          0.6110344702185481,
          -0.3233694659401329,
          -0.3538524799878285,
          -0.06730256092425906,
          -0.7492335276160438,
          0.10690846343733561,
          -0.3082676594854197,
          0.18483841528279782,
          -0.07080461962361063,
          -0.6456743999289661,
          0.3060909945034611
        ],
        [
          0.8486944970505363,
          0.48536641930637164,
          0.7394284786809381,
          -0.11266030700192974,
          -0.12687391287612135,
          -0.15248480804517608,
          -0.43355623854255754,
          0.35561128293481736,
          -0.02594944131437277,
          -0.3950847050019884,
          0.20724532811950658
        ],
        [
          0.4146452641026073,
          -0.9077140024079543,
          -0.5436860057270152,
          -0.12617028197381083,
          -0.7390996355899265,
          -0.3743606011861154,
          -0.4194402166418695,
          0.034008085072507,
          -0.10717261089290339,
          0.056861335651741333,
          -0.5479262547991551
        ],
        [
          -0.2783382158712145,
          0.3473523660706838,
          -0.14931440207232852,
          0.21188108911801135,
          0.15581457927578055,
          0.5927215019498521,
          -0.566033272477283,
          -0.33698387671419366,
          0.24070202628438953,
          -0.8678590943695819,
          -0.2851862587771508
        ],
        [
          -0.6108245771907465,
          0.05844785564865264,
          0.36612128558102736,
          -0.07058192185847184,
          -0.550251744387095,
          0.19845447387605553,
          -0.6550165402715267,
          -0.4774201601704063,
          0.5625996414388393,
          0.07971005754398804,
          0.7867513450810596
        ],
        [
          0.5771917374735763,
          -0.8508058131144351,
          0.5587448881571168,
          -0.3046955427199994,
          0.10447546948944941,
          0.44981427753696906,
          -0.027937582382132637,
          0.26047210557091066,
          -0.03613569741309708,
          0.43725722721049537,
          0.2573867612257344
        ],
        [
          -0.6423796716223285,
          0.5707135737621041,
          0.6381833944894052,
          0.10583783814492062,
          -0.4227905711243428,
          0.3250694738207675,
          -0.06231687849112523,
          0.05629464967490445,
          0.4092544970973452,
          0.21581259683550347,
          -0.6985753230481488
        ],
        [
          -0.2582126775382119,
          0.28524754066219393,
          -0.40733626542921636,
          -0.23467794513796308,
          -0.1627518306884494,
          -0.29857802434901715,
          -0.12492730545440597,
          -0.5717393575840115,
          -0.26310774126912095,
          -0.24851288795458873,
          0.7469204403132366
        ],
        [
          0.08575894907645594,
          -0.33182720529107906,
          0.24845068448663665,
          0.21765503262433591,
          -0.15329858554994216,
          0.1615371197923122,
          0.5837966410228561,
          -0.38345654418276637,
          0.3266156136645983,
          -0.2827273015315857,
          0.022915501012140096
        ],
        [
          0.03971607454809484,
          -0.3471330701508725,
          -0.36177834900385564,
          -0.11551920193060868,
          -0.15802201563452792,
          -0.1271471709759796,
          -0.2430064482812085,
          0.23407089968648212,
          0.5962175820053142,
          0.4861158993488224,
          -0.8588497487822601
        ],
        [
          -0.9839986091947862,
          0.19087275925822622,
          0.16826778262384523,
          0.6429887996969121,
          0.713496354313275,
          -0.26447825649362,
          -0.5050209123984483,
          -0.35700733555265485,
          -0.1532190808515647,
          0.14458199806418115,
          -0.2212005723797377
        ],
        [
          0.06117094425655796,
          -0.052996446016678786,
          -0.6047448565887982,
          -0.061971748404622655,
          -0.38552333438953235,
          0.199820485486832,
          -0.03094355184011563,
          0.31455789622723923,
          0.38775486411553994,
          0.1374769019856151,
          -0.20130264335341316
        ],
        [
          0.27715478962760565,
          0.09031673194143632,
          -0.32540524643215896,
          0.131715393021552,
          -0.0018010387558490479,
          0.13602753652302493,
          -0.219593118278582,
          0.8562492260811837,
          0.03800428644687665,
          -0.003928679235453281,
          -0.24062687233614624
        ],
        [
          0.19381503544960585,
          -0.12859601825205,
          0.16244179565401948,
          -0.6669268868400867,
          -0.0002171146494702249,
          0.3015406635305931,
          -0.6393879388907292,
          -0.3758764670220483,
          0.1874879017418784,
          0.2681375456070363,
          -0.748994453738806
        ],
        [
          0.054974941138449085,
          -0.04647372550504805,
          0.3987045583147428,
          -0.519894922141382,
          -0.3290859710588176,
          0.18383309399586767,
          0.19782246479305507,
          0.06784946696722988,
          -0.12715365790147423,
          0.3259016688041709,
          0.512340625887007
        ],
        [
          0.051392585222759996,
          -0.029555122214291237,
          0.8342545615328723,
          -0.15748430292388224,
          -0.2957501638223787,
          -0.061517918247320245,
          0.25779906388377144,
          -0.07580823705274539,
          -0.19786258530647619,
          0.29497056690299506,
          0.06208590088620922
        ],
        [
          0.47270866928166955,
          -0.13546004782873516,
          0.5881806437392195,
          0.20248399673024714,
          0.07610169199553486,
          -0.35907619366854837,
          -0.5913285655164193,
          -0.9298401569435583,
          -0.1339697896704686,
          -0.42099466667407076,
          -0.2292596837638881
        ],
        [
          0.23505044812845466,
          0.300697491454032,
          0.5877419605881002,
          0.08584738349618995,
          0.29291319861230725,
          0.07602016979553777,
          0.5266980855691654,
          0.9055522777892903,
          -0.193379065779932,
          -0.309109863666381,
          0.3140533194645227
        ],
        [
          0.06590222907783387,
          -0.020881509928545133,
          -0.24803757316456948,
          -0.761455660842889,
          0.40337178730062645,
          0.7524911035394335,
          -0.8344584460214783,
          0.6565042387169833,
          0.193569728334812,
          0.2511596682211792,
          -0.6810890620782808
        ],
        [
          0.37244796962218263,
          -0.008567589539881399,
          0.6717361686791736,
          0.326382968309997,
          -0.057092412839589574,
          -0.3515022391331913,
          0.1940365750870348,
          -0.502555530237679,
          -0.03211708153124168,
          0.6828182792850944,
          -0.302627067686348
        ],
        [
          -0.16481948310987798,
          0.23740548658631058,
          -0.05727816734496504,
          0.24586283137632337,
          0.20775252286456497,
          0.30315845446425715,
          0.1774218075980191,
          0.2433892637977229,
          0.5048107039889275,
          0.2666130848755832,
          0.08402171079326104
        ],
        [
          0.09814104291441134,
          -0.5230990008205062,
          0.3819758029797334,
          0.2415956392019008,
          -0.9280387258640647,
          0.5427579752702452,
          0.4099003554121065,
          -0.3698101674368598,
          0.5238013830692244,
          0.26371330132437154,
          0.27320784074041143
        ],
        [
          -0.28429036476218933,
          -0.22532657308198825,
          0.03155202816796636,
          0.24204911617281716,
          0.2907453672720464,
          -0.9873834133399166,
          -0.20447317209343827,
          -0.442090073273773,
          0.13254633184258657,
          0.2995316957648707,
          -0.4277021494162715
        ],
        [
          -0.11670637092836775,
          -0.16960081582737277,
          0.15076604075187197,
          0.26089027648911167,
          -0.6977157562389465,
          -0.524606301115154,
          0.025822416075251698,
          -0.4481744875178882,
          0.2460078653913826,
          0.22926524488039715,
          -0.6156407266842804
        ],
        [
          0.26935367201444355,
          0.263443241312339,
          0.25075357927278163,
          0.2643394929302874,
          -0.23262655117794284,
          -0.1840099357130866,
          0.7777193825196381,
          0.08967360444720947,
          0.2752534266522066,
          0.7282460009354398,
          0.24596136017556663
        ],
        [
          -0.3115819427664026,
          -0.11593094778584627,
          -0.14662379024618855,
          0.4720538330738007,
          0.24304727603584103,
          0.667304428005668,
          -0.9841026319952698,
          -0.010804304848896966,
          -0.5167932258544294,
          0.3954393779655913,
          -0.2992704034523441
        ],
        [
          0.1277951628639821,
          -0.7216811758363458,
          -0.46278765894564217,
          -0.3330953955094814,
          0.5033951360267129,
          -0.2800193242488921,
          0.3060401407869779,
          0.12191127969805035,
          0.12585253992046658,
          0.12916345816674368,
          -0.12050429714728704
        ],
        [
          -0.702206171536874,
          0.07243287390047733,
          0.23099697764630095,
          0.2763912343113852,
          0.43199906099616564,
          0.15867528431947003,
          -0.1874235397058141,
          -0.17931307057709883,
          -0.3652194577315924,
          0.10148034152144243,
          -0.27055711941628935
        ],
        [
          -0.028905212172490553,
          0.47049633455825346,
          0.4772554137395022,
          0.8099547784791676,
          0.10080383521190013,
          0.2985535707610504,
          -0.7020462382460554,
          0.035063288779736725,
          0.8309255532682408,
          -0.20786297855035327,
          0.1083914038625001
        ],
        [
          -1.243962951910567,
          -0.4613900118122844,
          -0.1338835981504798,
          0.0012686875600120351,
          0.23996957129120033,
          -0.7424577379663797,
          0.0105518487701168,
          0.039836515602674136,
          0.27744925894116446,
          0.6012833773429049,
          -0.5807542966824598
        ],
        [
          0.06957629739891152,
          -0.012009360984370306,
          -0.5011204138712706,
          0.4544544255996685,
          0.5912701492150138,
          -0.3529357925213782,
          -0.019556181506889668,
          0.6704243643675161,
          -0.5746048303028365,
          -0.9729975530571171,
          -0.08314097658594986
        ],
        [
          -0.869465002169628,
          0.5907727317924575,
          0.07999117105831403,
          -0.04681440361416773,
          -0.25464454943049064,
          -0.24975860401934669,
          0.6272080560465717,
          0.44006131639173257,
          -0.2530857319488056,
          0.9019238647388067,
          -0.27117723470317645
        ],
        [
          0.4882179579791608,
          -0.055353517487379274,
          0.6001831984219627,
          -0.43702376873921867,
          0.48850556961829505,
          1.322694249222191,
          -0.26620948163550373,
          -0.6883738201298973,
          -0.35370137697356896,
          0.27162098063546214,
          -0.20138834270218822
        ],
        [
          -0.3148693262523864,
          -0.26230688522034185,
          0.008112635317880552,
          0.4329500280911,
          -0.6673193031632346,
          -0.8591049229695242,
          0.04946434970229005,
          -0.6277948546077282,
          -0.08381979691779304,
          0.378700025204697,
          -0.3183024960050242
        ],
        [
          0.44951941608339196,
          -0.05905459419980985,
          0.12474997648484035,
          -0.1955551340928824,
          0.2792471710944861,
          -0.8969107419274657,
          -0.2124920289710361,
          0.04655011946125212,
          -0.5398598952627273,
          -0.3824244543681638,
          -0.11264986529957588
        ],
        [
          0.614275307327917,
          0.16463722813575496,
          -0.002994600534408034,
          -0.24191803414742533,
          0.2834168744019577,
          -0.4680465414034238,
          0.2756268218740301,
          0.15467352735900283,
          -0.12742376042486944,
          -0.4121983564964959,
          0.1918145614224505
        ],
        [
          -0.36230531828868834,
          0.05750018590652742,
          0.20725653846315323,
          0.09920030109472762,
          0.00710699724502278,
          -0.42696530435163305,
          0.07134831324308226,
          -0.38989807007760696,
          -0.4995140862429678,
          -0.4876959094618965,
          -0.3156415703447127
        ],
        [
          -0.1631131998640358,
          -0.04823674937906057,
          0.5741123710173974,
          -0.4702388670371087,
          -0.21513240976982873,
          0.10106252255485035,
          -0.36074257390946957,
          -0.18342768921660704,
          0.7352299399853979,
          -0.4607493787443008,
          -0.1660547777203196
        ],
        [
          -0.3793494807411297,
          0.5587823144782974,
          -0.49398853055468844,
          -0.81374372309029,
          -0.07010555470505445,
          0.1091221741063844,
          0.46558108846782037,
          -0.08063253504577171,
          0.24908290570067795,
          0.6025007879495556,
          0.13825460992706062
        ],
        [
          0.022884144464168088,
          0.1753991177036693,
          -0.2314124297623447,
          0.396136646003544,
          -0.6004461759259149,
          -0.33777776959794553,
          -0.3711695797362573,
          0.34602706380339393,
          -0.11485535070184665,
          0.03511613843040928,
          -0.22996070442306868
        ],
        [
          0.6179631875018221,
          -0.06615328453107455,
          0.19514245804228872,
          -0.51427707019384,
          0.13012452798564222,
          -0.10210798392131618,
          0.49382031051049846,
          -0.4002100309270823,
          0.37291826429229097,
          0.36439516128773647,
          0.3159974076263249
        ],
        [
          -0.004686102376796558,
          0.8266224951166808,
          0.30647307980247745,
          -0.003063474264227446,
          0.28804327796086077,
          0.7689623280306112,
          -0.5807177727859822,
          0.35071444341460595,
          -0.7402949647632423,
          1.0765333085833912,
          -0.03297682049474199
        ],
        [
          -0.4955765188637528,
          0.5526307730262462,
          0.22549485887085371,
          -0.7427190531235307,
          -0.007388087138689039,
          -0.35197056733017884,
          0.37032293476571687,
          0.9513865801669026,
          0.034206829106943136,
          0.541098383079297,
          -0.7234718903359051
        ],
        [
          0.07109499579790866,
          0.10252916550753456,
          0.8323514092354366,
          0.2667846001663151,
          -0.06029133213105497,
          -0.1321575064458372,
          -0.24414663692376284,
          -0.2010298913992127,
          -0.2650864848856456,
          -0.1091841174806708,
          0.3855763428898389
        ],
        [
          -0.05878323056601576,
          0.30641529373524923,
          -0.10986543534658476,
          -0.9714951261870192,
          0.15412933063534656,
          -0.3085300949096727,
          0.00996717746500297,
          -0.0028491362000470756,
          -0.059272461970129135,
          -0.39515961274059486,
          -0.06852109831077662
        ],
        [
          -0.6384330225951601,
          0.4276781833575994,
          0.37205534675065083,
          0.39756787744278754,
          0.01816562881264386,
          0.1258113359203229,
          0.532486633540106,
          -0.539656282705217,
          -0.4517428809942342,
          -0.013419767290236943,
          -0.12797507051764828
        ],
        [
          0.1511601063894261,
          0.9853171890927722,
          -0.20968588771941454,
          -0.500714561143099,
          0.5401901712568018,
          -0.3006136238752584,
          -0.025502845380599458,
          -0.3333166904276739,
          -0.12540556273391124,
          -0.1605272923746568,
          0.4848797123478628
        ],
        [
          -0.1040984764547821,
          0.7056729054698216,
          0.04935879020033515,
          -0.32420920138311854,
          -0.5565900634124796,
          -0.31382098835091704,
          -0.22903818903481962,
          0.2777570718211129,
          -0.325329365441308,
          -0.2039770657505226,
          0.1300303886806907
        ],
        [
          -0.22404305209927036,
          -0.09565799727122148,
          0.13374522492605362,
          -0.4651954649641168,
          0.22639612145431587,
          -0.049760632471362885,
          0.29626552537073964,
          0.2890864081708125,
          0.4283399159970983,
          -0.8473589219690362,
          -0.11281335551149829
        ],
        [
          0.2726141269819103,
          -0.388603817281407,
          -0.5389063406642989,
          0.21482629909647702,
          -0.2794497049138177,
          0.9709999215868047,
          0.062279054092407436,
          0.4558614985683868,
          -0.25132808296165426,
          0.5994207483799151,
          0.6022520072481709
        ],
        [
          0.4055510815452523,
          0.07318124808195685,
          -0.08035086707056707,
          0.3945442099410961,
          -0.13951307783495856,
          -0.3698146516875338,
          0.9600772422501404,
          -0.4567546947610113,
          0.6801956840741992,
          0.6073124598915405,
          -0.48810792521655605
        ],
        [
          0.69322277091952,
          0.14927404179115653,
          0.32167566388976754,
          0.023624628890619656,
          -0.3137650595441763,
          0.3901658803496855,
          -0.27011853517610773,
          -0.46938924551452194,
          0.16916081796293927,
          -0.6805666693275194,
          0.07634791575535806
        ],
        [
          0.3082296723740143,
          0.32175192833284816,
          -0.15082297393390073,
          0.38380824308761324,
          0.045918969144119234,
          0.1691602380678705,
          0.2578642688094896,
          0.0029440846559813604,
          0.3681619140733401,
          0.3037244404184563,
          -0.09968625109225093
        ]
      ],
      [
        [
          0.08795701347924886,
          0.1369772404694012,
          -0.09950050043430209,
          0.04526987539056476,
          0.07957517049797092,
          -0.010882250700002871,
          -0.1420707532452826,
          0.07254130367648873,
          0.05983371111742165,
          0.0013093878248368709,
          0.023253192500674317,
          0.15168292927118632,
          -0.08234871379153513,
          -0.07285802406065629,
          0.1313525705247639,
          -0.28600055578333095,
          0.08708667223091034,
          -0.08497234023694879,
          0.08769595751733975,
          0.18285215100306906,
          -0.03157886608893104,
          0.09528345972281549,
          -0.13166854461072683,
          -0.12068531861502159,
          0.1436175566896144,
          0.06035191506723427,
          -0.08302993491578696,
          -0.08440767154427191,
          -0.17152311282782945,
          -0.15400828101854683,
          0.04053540595724582,
          -0.16122435406024838,
          0.08908253866374527,
          -0.2076005003197791,
          -0.19614094889240916,
          -0.276442212228082,
          0.035507380809663924,
          -0.26906279977487413,
          0.010796108526870511,
          -0.09721333586643383,
          -0.06380304326779129,
          0.005335108671028322,
          0.06650644479631564,
          0.22548985390131326,
          0.0016375131478081203,
          -0.013709120995796834,
          -0.5545818733794999,
          -0.2147368830844639,
          -0.2667154315177102,
          -0.1462372682787572,
          -0.25360099947106435,
          0.07564054479020112,
          -0.2126632527244438,
          0.24373515538120066,
          0.13239347322113465,
          0.052821820618174406,
          0.10930421506290224,
          0.005838188019070903,
          -0.4122599313578602,
          -0.04887359067412241,
          0.06533743337064164,
          -0.04512250551992294,
          0.14032117781935394,
          0.022608933423978173
        ],
        [
          -0.1032224586014267,
          -0.3953313183019059,
          -0.1374680683695958,
          -0.15298305985379432,
          0.2429973601792007,
          -0.3146449250510731,
          -0.10922131980842568,
          -0.3527559857299352,
          -0.10054916708131814,
          -0.1237657635749078,
          0.0751689721532294,
          -0.41106381176323586,
          0.06843386632513587,
          -0.061240585326978784,
          -0.0476363063622887,
          0.050682750505349,
          0.2540370578415486,
          0.013200037001293342,
          0.039342823103854445,
          -0.19951634034593946,
          0.2847296112672385,
          0.0044235762885994154,
          0.0005839305449085347,
          -0.29917977600297835,
          -0.0017423837199547346,
          -0.09259421138038959,
          0.41141187562738973,
          0.012923741978636855,
          -0.08008230278646666,
          -0.09152848282637444,
          -0.16996669017444263,
          0.0011073690845901545,
          -0.2571399536278478,
          -0.08925814653033942,
          -0.18098459464986325,
          0.030271578228025713,
          0.024888393027932894,
          0.20255018085937324,
          0.1502124415611343,
          0.23000593492392826,
          0.0236474013232476,
          0.10075028766991355,
          -0.39770560424102747,
          -0.15350987463241583,
          0.09837462858298532,
          -0.21428403596680867,
          0.03918585184219607,
          0.20416504581260939,
          0.0011765118546582028,
          -0.31820232825925276,
          0.06439917638264868,
          -0.4833120241192922,
          0.36889993279514366,
          0.18832745913298565,
          0.21190606069477477,
          0.005651083833630309,
          0.15901028089539107,
          0.07873893251419234,
          -0.2741344431600436,
          0.05004710062692121,
          0.1339719164652625,
          0.004723684591330698,
          -0.022336345059482413,
          -0.1394302210285359
        ],
        [
          0.14416213596431768,
          0.058742388940092725,
          0.0532513066752464,
          0.1834536137750115,
          -0.40691896583916964,
          0.06613613110778901,
          -0.03319129211915574,
          0.007739071233540899,
          -0.08208042064460186,
          -0.052302752137352033,
          -0.12007310039420294,
          0.05196083844793064,
          0.138662878285593,
          0.20410480343525433,
          0.10633417110308956,
          -0.31260604958025107,
          -0.10132010683654728,
          -0.1841899705673995,
          0.2269441854216573,
          -0.17120070124627138,
          -0.18408145342946455,
          -0.10172492929708031,
          -0.18985005649660835,
          -0.04460306679025805,
          0.3440543485152059,
          -0.0379258097144662,
          -0.2073655448654231,
          0.017507713032603744,
          -0.32503009977850605,
          -0.1896174711629868,
          -0.03327128677381047,
          -0.09183374633518303,
          -0.06657846051038945,
          0.16750629518681226,
          -0.18626840174103737,
          -0.07707250952656497,
          0.05662661912916587,
          0.09443660540336198,
          0.11644811122650597,
          -0.276508124044496,
          -0.3995741037914875,
          -0.01269057069947815,
          0.03974916333008128,
          0.2744501519497391,
          -0.12884026409807217,
          -0.10207597368437338,
          0.008077118524505005,
          -0.00649493884288399,
          0.09411082411476193,
          -0.09354379492741954,
          0.10239472078184196,
          0.3831037811236328,
          -0.05704031486406943,
          -0.17268114031330978,
          0.1438500398442342,
          0.20096000370818373,
          0.057886683244231935,
          -0.04874367464708799,
          -0.2109233527033725,
          -0.07471795422536112,
          0.06115913074256577,
          0.12563008883898893,
          -0.1144875410157617,
          -0.04379747956589156
        ],
        [
          -0.33115322999877544,
          0.07480174458908441,
          0.07573588973095159,
          0.30911048517332035,
          -0.14372217972057216,
          0.223855406480568,
          0.1675648831060536,
          -0.23278779482987538,
          0.18186757329428258,
          0.4301257250440358,
          -0.5179713939342238,
          -0.1849860624054115,
          0.21907682986621946,
          -0.187506459682589,
          -0.06014539397044997,
          0.4230104934129601,
          -0.013674664490056403,
          0.05690788380667044,
          0.010352342088817695,
          0.15297925364802697,
          -0.07830719069018607,
          0.00559735160761533,
          -0.009173833444413778,
          -0.09185920017862864,
          0.24863341312957168,
          0.09772190431305125,
          0.23548065041230834,
          0.21259374198470005,
          -0.42576888267621704,
          0.19211776364098263,
          0.05589665194472826,
          0.19610578614216806,
          0.29212201214827394,
          0.20516047636411114,
          0.14778743489292073,
          -0.10526990426230283,
          -0.22887738323341236,
          0.4385809282552733,
          0.20428813539874413,
          -0.01762941119959523,
          -0.019502972700070648,
          -0.17130035530814883,
          -0.2819476783241605,
          0.09281851362956718,
          0.021523352765961207,
          0.1531881818064896,
          -0.3013402918674037,
          -0.17075513184243196,
          -0.05555751659991363,
          0.03647614059269198,
          0.11042136074753542,
          0.09152541058771814,
          0.019322138756917295,
          -0.1629663146132489,
          -0.16220664236870516,
          0.13354133884382383,
          0.1306114742489931,
          0.24380151387016546,
          -0.1626623853943936,
          -0.15725090661934052,
          0.398490689776464,
          -0.08597422512208035,
          0.031020428947305403,
          0.01870771372083386
        ],
        [
          -0.0397156745172113,
          0.07652287690997787,
          -0.4503052357696651,
          0.0001338573091866023,
          -0.017359639927994667,
          0.22750737088197573,
          0.09442081703970744,
          -0.20646488222959672,
          -0.0646220173718585,
          0.11451934549018808,
          -0.09572323704046988,
          -0.263989529841564,
          -0.03893426414089832,
          0.07473290849820237,
          0.19573902470232588,
          -0.21408755069025515,
          -0.08151510709214316,
          0.09921688334085997,
          -0.001697625080709116,
          -0.021123296590501797,
          -0.059262485474777665,
          0.1331094344727753,
          -0.2862137940340446,
          0.030148831095376603,
          -0.05348263506605544,
          -0.06520445942936343,
          0.3423547687614638,
          -0.18596141394010066,
          0.34508753113834284,
          -0.07861523501695766,
          -0.06800705364513604,
          -0.10489977127514948,
          0.03996254276731,
          0.2441268832904026,
          0.14380731124338375,
          0.05158443809948971,
          -0.05147680246487067,
          0.51357119856996,
          0.03552141208587678,
          0.01685239340828147,
          -0.3080023110025407,
          0.19006742420316702,
          0.21414055419266545,
          -0.010999843150420302,
          0.0033067161714043472,
          -0.011661926090508607,
          0.07681187148535147,
          0.05084298072467631,
          -0.2965318094124986,
          0.01610562296546476,
          0.11735120819683374,
          0.011253297306791508,
          -0.028966284974496184,
          -0.1144853070218319,
          -0.14188222151045166,
          0.27828515829536404,
          0.07787754806748401,
          0.11512980737312506,
          -0.1572332207389105,
          -0.23377183327818893,
          0.204872373382815,
          0.3478869990607969,
          0.01971571168093078,
          -0.028207220215789724
        ],
        [
          0.16443996054391805,
          0.16082183901293765,
          -0.19697897632903194,
          -0.1143184042027268,
          -0.1500001374822444,
          -0.11228708099350923,
          0.17216310503036417,
          -0.07083138923205233,
          0.004557122642020649,
          -0.02719658124482863,
          0.007178972346658038,
          0.11925912728185796,
          -0.5586914388349613,
          0.02174630815230818,
          -0.10572656588505513,
          0.11713520353089196,
          0.2581972612762649,
          -0.08024029421509354,
          -0.1576682721613607,
          -0.03153096799189351,
          0.01278355503825252,
          -0.043105651484802505,
          -0.0592197614615389,
          0.1428669384515573,
          -0.09638751412297274,
          0.6485700091939325,
          0.20199152527477177,
          -0.09166489606141091,
          -0.13344460239134612,
          0.02174343879184334,
          0.15803226319342134,
          0.13699775718730076,
          -0.22128648086616118,
          0.033074117201783944,
          0.08697780217438816,
          0.10290569617841896,
          -0.1754631383886956,
          -0.41224407165570703,
          0.4171937584870239,
          0.15795318104174907,
          -0.3083731349345328,
          0.09731762450128399,
          0.14052429394201785,
          0.0963901408303495,
          0.1270497750956798,
          0.10289546627471781,
          -0.10522772436142634,
          -0.07099355284456814,
          0.37989518776258235,
          -0.23013485623104965,
          0.33497855000257265,
          0.012273651384257594,
          -0.14010882635917984,
          0.27647196609815133,
          -0.1529183292007911,
          -0.033647453471958216,
          0.0881906607793839,
          0.16737484249864332,
          -0.28199779308715406,
          0.1032358349563857,
          0.003322976977555468,
          -0.09613891359157656,
          0.17041772831315527,
          -0.018490837741657728
        ],
        [
          0.31244105324839677,
          0.2676985586989044,
          -0.2017613355010529,
          0.1983911054179034,
          0.27147968929432076,
          0.06998686214798794,
          0.08758051962536632,
          -0.31039505645535376,
          -0.09996630843974523,
          -0.17275741557677549,
          0.12815881742448373,
          -0.1406469639514163,
          -0.022067342094617602,
          0.04251160588823444,
          0.018652150386935358,
          0.09663038404071286,
          -0.5831548955526442,
          -0.023440322073986032,
          -0.04572197262770836,
          0.11172164084208798,
          0.07601833298125656,
          0.0018814809603066016,
          -0.2682629873271052,
          -0.12396478916185591,
          0.06921638184446419,
          0.06551380231919532,
          -0.14175809331258368,
          0.25220589431959206,
          0.025858635549030333,
          0.10538677517968524,
          -0.2865420846742071,
          -0.02724039705111972,
          -0.2384045533732405,
          0.072670325958091,
          0.15876982130928147,
          0.12824239673938265,
          -0.04610022779041356,
          0.08399268949045034,
          0.006402804964163301,
          -0.0735971245128119,
          -0.040585874703943356,
          -0.22779484498529726,
          0.4437316731681235,
          -0.14879823117943464,
          0.36074669494880013,
          -0.06462464766926211,
          -0.17909231694402272,
          0.2271602719861527,
          -0.2463024384717418,
          -0.07856642715082625,
          -0.19658538065571957,
          -0.014648574329485197,
          0.08914845817982948,
          0.10972003220383302,
          0.04729524966260337,
          0.08044969350212261,
          -0.3078324511306019,
          -0.16426555356950343,
          0.0742052217713275,
          -0.3438732926408245,
          -0.2978627222258053,
          0.28506991296312784,
          0.15079728892839497,
          -0.18509271032681424
        ],
        [
          -0.19614149199473033,
          -0.10583462897623609,
          -0.0693379455603429,
          0.00031272652191815565,
          0.25507577425401784,
          0.11185271889148482,
          0.10467287195629406,
          -0.042464530674103884,
          0.08388267508538219,
          -0.13345915964291435,
          0.6214061757973394,
          -0.08031771699208703,
          0.003766708145912788,
          0.08044108889324718,
          -0.06806329635937128,
          0.1446124547723426,
          -0.18640439504411382,
          -0.21909262350497932,
          -0.07992164629686921,
          -0.15894224998094195,
          0.08655349507403039,
          0.22204905959253984,
          -0.07165715451604539,
          -0.08252428593483957,
          -0.12655628722160922,
          -0.09422829026493422,
          -0.07760698368627267,
          -0.39061844118542155,
          -0.047400718516196906,
          0.04730966501926496,
          -0.014433314588128649,
          0.2548117032842219,
          0.024236094951675176,
          0.01584665893350934,
          0.11064153790979915,
          -0.1808704105950809,
          0.20022333477063245,
          0.139202524344615,
          -0.18527515647514003,
          0.07459339555796343,
          -0.20928982546289865,
          0.31361982707259106,
          0.28613967172424143,
          0.06283596683646869,
          -0.05283587526266076,
          0.02893933498188435,
          -0.04462626381941487,
          -0.047685152862462735,
          -0.11313074819483654,
          -0.16134073960554446,
          0.07429353288755598,
          -0.31015467375311284,
          -0.28844712714123394,
          0.12315393513347092,
          0.10460191348346574,
          -0.21741595564202676,
          0.25623445728426925,
          0.2700417717644065,
          0.1807302972755603,
          -0.6577756060680011,
          -0.11012440272708501,
          0.07147516092161467,
          0.23842638458111726,
          0.09386984684875499
        ],
        [
          -0.0788872187328673,
          0.16042907084455352,
          0.01086866231403264,
          0.019871236321433602,
          -0.2959408817025422,
          -0.05561610536360631,
          0.02949073899926233,
          0.10954558773635159,
          0.13480109071246654,
          0.36431611536670605,
          0.3150473271887748,
          -0.26968136560407585,
          -0.07122976169358831,
          0.0009088216479870324,
          0.09370439177804003,
          -0.06690461238482726,
          -0.01121720340237558,
          -0.029653861755338993,
          0.035924780194221816,
          0.028254873859763538,
          0.1053203524548491,
          0.09817512431932256,
          -0.030757732596797042,
          -0.021817331732299737,
          -0.12127594579742546,
          -0.2501874106308811,
          0.14575066644415172,
          -0.3262921242971981,
          -0.3262996354284712,
          0.054861951373473994,
          -0.28327239045066294,
          0.1385288016278217,
          -0.02092813692886825,
          -0.15425443361332516,
          0.34096271212716767,
          0.1854787586416395,
          0.23938970426515316,
          -0.02842393749817773,
          0.10124657417514367,
          0.20238765251102936,
          0.15928806767609413,
          -0.04524696475288159,
          -0.42552443499815595,
          0.316258390290044,
          0.2410092589910902,
          0.005080242469211525,
          -0.2609069877037415,
          0.03028658550928397,
          0.2732868080549297,
          0.029214354450508136,
          -0.24384017655469087,
          -0.029623364040592497,
          -0.14432996026860714,
          0.07692086569609143,
          -0.06437112098029239,
          -0.22424708626818982,
          0.183885541954452,
          0.0436162360732348,
          -0.0532550717580281,
          0.14128766647376154,
          0.28300568767488193,
          0.07676409114642602,
          -0.1466594400513095,
          0.18912998144165574
        ],
        [
          0.12896758096321648,
          0.030826746241710383,
          0.23630828212300858,
          0.3716579944879003,
          0.05630846817769525,
          -0.2782400003434922,
          0.2018044948688378,
          -0.14959499608575041,
          -0.04387054579465907,
          0.16996098643182372,
          0.22211268885665417,
          0.045859712820004596,
          -0.036782703757716105,
          -0.1944999378761285,
          0.05008096298330452,
          -0.15017340181873204,
          -0.27867446325573586,
          0.1352852134799209,
          -0.07474405330094937,
          -0.25009637179350735,
          0.16781180857623929,
          -0.027052227014517205,
          -0.049623079987891054,
          0.17298392368782314,
          0.3492208263699243,
          0.3779349630419137,
          -0.23125709428137628,
          0.10653841824281174,
          0.0399555156599007,
          0.11684353133134417,
          -0.15832951935728404,
          -0.019070966667302906,
          -0.011342906670509474,
          -0.22351586928972436,
          0.033371292358973875,
          0.10148961353334339,
          0.07329638750026603,
          -0.16014162527015746,
          -0.13050101567060976,
          0.04435102889657214,
          -0.04595961290263791,
          0.10381426250862538,
          -0.052811660989281056,
          0.057877426724067406,
          0.07330830482334894,
          0.20155808785831283,
          0.2949340561187827,
          0.21795138613058426,
          0.08416096711140277,
          0.02382597789675074,
          -0.05873833119853249,
          -0.007613001716535172,
          -0.15563359531206303,
          0.06287020640935657,
          -0.3164954935841237,
          0.051436024128196284,
          0.09437633389942506,
          0.2775822800673342,
          0.06143951049725737,
          0.23434547106145467,
          -0.03361527873390981,
          0.07680758266019279,
          0.3012117038447187,
          0.007796433733158693
        ],
        [
          -0.08909310250158568,
          0.1992444027966274,
          0.148804699850621,
          -0.049125799191698655,
          -0.07401943310836663,
          0.2866643991158753,
          -0.1814868836337935,
          0.11056525876062341,
          0.11599443112522383,
          0.07897495900719709,
          -0.24341808135620396,
          0.17929825311253883,
          0.12764545495702706,
          0.13148989140010783,
          0.15000135510141252,
          -0.2440619840726125,
          0.17460877921666806,
          0.1655026589135325,
          -0.08381677075243735,
          -0.06649208506181284,
          -0.009140416958575339,
          -0.09766395134786715,
          -0.46070635571875457,
          -0.04696217313588567,
          0.002916688676986006,
          0.09956311111766582,
          0.15227815540149925,
          0.23093286675413305,
          -0.08123599934292594,
          -0.09776765068928615,
          -0.19843843473505662,
          0.15506176532743562,
          0.05130625966963234,
          0.08946599318246679,
          -0.2353132886450778,
          0.0355393995092207,
          0.3719128109061187,
          -0.22983701920118613,
          -0.12030718484628912,
          0.03612338059768669,
          0.1243167030912932,
          0.22657928908000896,
          0.05482317124390411,
          -0.1488909444106353,
          -0.0919210505345806,
          -0.07242127280178148,
          -0.20088101195688257,
          -0.2453455910307209,
          0.25249949870481886,
          -0.13703477453971397,
          0.08020832823054438,
          0.1458165887833097,
          -0.07450046264806215,
          -0.0180423568211128,
          -0.2611365552675433,
          -0.020651597239313233,
          0.17554232065144418,
          0.04471274279895385,
          0.1585229231352262,
          0.2666439780059994,
          -0.022806677565779334,
          0.05808236680845403,
          0.05900645809773503,
          0.2567505169590325
        ],
        [
          0.047630263369416975,
          0.09741287191174854,
          0.03685066998910807,
          0.0879851987819091,
          -0.28378933866430567,
          -0.28403711683890875,
          0.4811240448948668,
          0.21947000301846045,
          -0.11447898883822451,
          -0.24654575539185705,
          0.1532176553223819,
          0.17894967678758414,
          -0.04061316308916218,
          -0.19126564829048393,
          -0.25481555043915466,
          0.1455492745433442,
          0.13389376519922166,
          -0.174557600324148,
          0.034000143258376456,
          -0.20826812386440358,
          0.15766843505492634,
          -0.01587773507265394,
          0.2461092394580668,
          0.0890628090514669,
          0.029261083590907233,
          -0.02194990941225052,
          0.13696954725834876,
          -0.10078979122755288,
          0.16802472385285644,
          0.062203794117668965,
          -0.012983246708512617,
          0.08915527581185032,
          0.21738902885522393,
          0.1410384840323131,
          0.20671958620252434,
          -0.23973986670527275,
          0.1356970268758348,
          -0.16823356372571283,
          0.3559368482059544,
          0.11476448073767395,
          -0.20343521163544526,
          0.05251125437005965,
          -0.11735071989043054,
          -0.11295281002556412,
          -0.11464294923516966,
          -0.009960879749048223,
          -0.10628007382782437,
          0.000688820062708205,
          -0.3620266926057467,
          0.09522759540003907,
          -0.09217767618983712,
          -0.07675280046961709,
          0.3409475711236612,
          -0.39272718206461665,
          -0.07057194649225451,
          0.3624843302752755,
          0.2485576825159668,
          -0.2573200743272904,
          -0.19537211690139972,
          -0.20030157932523884,
          0.12071823085516163,
          0.12101968072060157,
          -0.0869100444909664,
          -0.014184318502266133
        ],
        [
          -0.2633031980079664,
          -0.0944235147750961,
          0.051898892526424045,
          -0.29169526897793907,
          -0.08225612138147934,
          0.11814990373352352,
          0.07850578983941228,
          0.02912334449909299,
          -0.08618434531090781,
          0.059532973276398525,
          -0.184739461237863,
          0.18512892499107922,
          -0.013243332182052038,
          -0.011659226215090647,
          0.0361238899698728,
          -0.25183087277045124,
          0.15079801044941252,
          -0.03787480399419103,
          -0.16010301594349405,
          0.31640380280040425,
          0.07338380012260409,
          -0.14918318154276922,
          0.02753341131230055,
          -0.04461220660477423,
          -0.18860494464121774,
          -0.04285841080501373,
          0.10627652847889583,
          0.11246082009186471,
          0.2755160896257029,
          0.0890345669558178,
          -0.18207102704453493,
          0.32669253143537696,
          0.002684923446044701,
          -0.05465442412085195,
          0.36293224513825584,
          -0.10757159669149953,
          -0.0945055965647421,
          -0.18983180201048327,
          -0.24716037622283435,
          0.4228579855801708,
          0.06532332121352673,
          0.11948933567713325,
          0.09955707707800597,
          -0.2493612442027348,
          0.1978215211088055,
          0.021565858993815457,
          0.034532930222667145,
          -0.2725106588301959,
          0.2459523253820733,
          0.07049957442638863,
          -0.19456390095258308,
          0.03326251793290933,
          -0.01366189068561802,
          -0.15165749296199427,
          -0.19618337350133344,
          -0.37400186469031654,
          -0.307019409945565,
          -0.036166233956843034,
          0.01861008897780377,
          0.1633737043945315,
          -0.2066903758392662,
          -0.20593693679201633,
          -0.018055277932994,
          -0.22639852714213637
        ],
        [
          0.11944761469477012,
          0.08817501360814872,
          0.028244707318129544,
          0.19262320150801357,
          0.07296674166428958,
          -0.16617760258117678,
          -0.11058166895953282,
          -0.29461432997539005,
          -0.142375701030939,
          -0.16882004583344903,
          0.16579027783383413,
          0.163943660917139,
          -0.08587720259297393,
          0.24895251871097168,
          -0.29620028777061835,
          0.09197345308155905,
          -0.09973126697338412,
          0.11987413639760458,
          0.2057400688190739,
          -0.05966193469486299,
          0.05453783958358003,
          -0.1709446873759068,
          0.2226746293048273,
          0.13380814464230392,
          0.029909153676772,
          -0.03385755585999861,
          -0.1400032957153409,
          0.24506559250559498,
          -0.05217055856625881,
          -0.06265370101924883,
          -0.10288031164173829,
          -0.02208905545130069,
          0.012387049222020488,
          0.008053473517863435,
          -0.04198780545286348,
          -0.006930535666651317,
          -0.16612057010528167,
          -0.25025711206631746,
          -0.09607738105809917,
          -0.22602205390385127,
          0.26618421385557894,
          -0.08247039104684854,
          -0.10228642054018054,
          0.137919475393864,
          0.16288369619128967,
          0.09744690457903538,
          -0.07617386279824839,
          0.27140025158528347,
          -0.003992054632248273,
          -0.1293938410595078,
          -0.014813462972733359,
          -0.18373896033788772,
          -0.025695739831757953,
          0.23885924188339902,
          0.3031890168596133,
          -0.01615286077737811,
          0.09534087453717209,
          0.052759884400468623,
          0.3183090269501141,
          -0.10853206636307752,
          -0.08496315820699861,
          0.19390521436585406,
          0.3085295973059288,
          -0.03989842955696238
        ],
        [
          -0.0464153826536706,
          -0.2786524458312318,
          -0.025636937384595285,
          -0.03873543566133176,
          -0.11297714284407402,
          -0.06282816930366682,
          -0.1400166961901786,
          -0.02058310745645811,
          0.10452711525516126,
          -0.04542150505939622,
          0.398976155424917,
          0.03556715585855397,
          0.01716854049185175,
          0.08674513624856434,
          -0.06355780817094885,
          -0.20536386941865953,
          -0.01659255422990503,
          -0.2858441686036377,
          0.0880286780123479,
          -0.0483791425827054,
          0.07957684852915249,
          0.1793866279753415,
          0.17676827930984343,
          0.135165046917851,
          -0.03387740563511132,
          0.32043388607822554,
          -0.25785530081309344,
          0.06467931820891255,
          -0.29754505946127324,
          -0.0011223899927402475,
          0.12499752786319207,
          0.38389012154577007,
          0.2510975874649597,
          0.09853152270552322,
          -0.17358315650471426,
          0.05393422806977183,
          0.19680263692289668,
          0.2700758710444912,
          0.19608189890583097,
          0.26589023702274234,
          -0.14250446589003057,
          0.0026639083140564406,
          0.1912178964452344,
          -0.16542010585246425,
          0.2171032916485934,
          -0.18374807985039623,
          0.22411911022100672,
          0.00995718863561434,
          -0.2880589738054342,
          0.1402796657236705,
          -0.09889693686024995,
          0.029233372409495858,
          -0.134148208984633,
          -0.3107550308963123,
          0.05021107892142034,
          -0.024715837321339192,
          0.23379651568056883,
          0.016319175519669854,
          -0.13434561052603267,
          -0.07090586196800618,
          -0.17274472027586252,
          -0.17685219509598646,
          0.08103729177664876,
          -0.13101896044587436
        ],
        [
          -0.20239393023043772,
          0.07818703875799969,
          -0.3102657458190603,
          0.14105974453059783,
          -0.18698136103191224,
          -0.052706734469262474,
          0.12073007554321005,
          0.0026145786666911587,
          -0.20875880303182734,
          -0.04306018100623972,
          -0.006919622772842834,
          -0.009892006416693709,
          0.1563272899470839,
          0.18154250475591902,
          0.06252776114531745,
          0.24475742361256353,
          0.3065948157017955,
          -0.3167209561264045,
          -0.055550983139528415,
          -0.019882852976114453,
          -0.05024931792817598,
          -0.11297965525508749,
          0.35424890188299896,
          0.07837561266896245,
          0.06647704301526887,
          0.2129211613076803,
          0.25947111451703697,
          0.05282027453494182,
          0.09258622346704513,
          -0.26504535149746117,
          0.057745822948636394,
          0.4556912533352842,
          0.1814816616437217,
          -0.020511675096207403,
          0.4022424051452444,
          -0.0782777565366575,
          0.07512854269558397,
          -0.18865072388213994,
          0.20423015236725592,
          0.010715881732943175,
          0.07874454332552401,
          -0.055052598619575614,
          0.20644875141919813,
          -0.18170438455696653,
          0.09341917263815724,
          -0.09997843238340275,
          -0.19840983642069548,
          -0.07431718921296585,
          -0.20293034060233908,
          -0.24321256420148812,
          -0.10800529740964804,
          -0.16415911558221474,
          0.09650728179169751,
          0.1649428260993386,
          -0.2640885546072139,
          -0.058152919678998286,
          0.11488723676474619,
          -0.04912588140460391,
          -0.04001659596824619,
          -0.0005971673067700332,
          0.11214827521309305,
          -0.26722847727436744,
          0.12833426784562424,
          0.001794813985129634
        ],
        [
          0.14535701404397605,
          -0.18955239159325454,
          -0.14386744268397875,
          -0.2468610271051474,
          -0.033775370741514446,
          -0.4262090240808229,
          0.0023882369047760936,
          0.35534106514925873,
          -0.05947711167562662,
          0.2157034061668114,
          0.007868274937056443,
          0.24832798905716957,
          -0.1819730879332856,
          -0.39733653991375195,
          0.2558762649547057,
          0.10733378215336505,
          -0.17439683535759445,
          -0.03182329032870386,
          -0.05163816225403138,
          0.28750825793297224,
          -0.008690717382179232,
          -0.21159029145340133,
          0.18157898965073224,
          -0.0849204464650226,
          -0.012595023687627065,
          0.0881086647255188,
          0.00999374792481124,
          0.6920470375284454,
          -0.1397231158064096,
          0.05294605792401836,
          -0.3440092301867163,
          0.13734900226123706,
          0.27837296320377275,
          0.015317957189438678,
          -0.16722633150006913,
          -0.14969575922167822,
          -0.20695255570203985,
          -0.002729700616138542,
          0.18704972111801302,
          -0.14880269957103653,
          -0.28799202129922485,
          -0.17617978372175072,
          -0.0013957976105117658,
          -0.44214726233663587,
          -0.20370767340256996,
          0.020592417165643005,
          -0.01905347289406685,
          -0.11497434685664461,
          0.13962139904939697,
          -0.24283618676199534,
          0.0643406721082078,
          0.030652974795331474,
          -0.05213496063847553,
          0.12038793356332796,
          0.1809045086641162,
          0.33319407462371353,
          0.01600392521651779,
          -0.02484632152139039,
          -0.27524811231199164,
          0.1259441088246128,
          -0.13453706633061058,
          -0.31912761188948635,
          -0.039291846706165326,
          -0.32178853118166983
        ],
        [
          -0.16699412740683503,
          0.2290181295555036,
          0.0877386765805758,
          0.2274360185229755,
          0.0501646059931834,
          -0.1774316896967401,
          -0.01224191908151325,
          0.09135743088200457,
          0.18062298632721344,
          -0.397216578489001,
          0.1494083243216734,
          -0.011277233060306228,
          -0.05124851240154708,
          -0.17863769881561564,
          0.25508763331959994,
          0.013858037938281014,
          0.05432891189726512,
          -0.08908071990816474,
          0.19183454305091216,
          -0.03713945854577503,
          0.1986189125270691,
          -0.09770407011013296,
          -0.06227269011454706,
          -0.07621817018280168,
          -0.2757282956446954,
          -0.2041882013078125,
          -0.08383835891332825,
          -0.13885728826010915,
          -0.02639160126314702,
          0.12507435953960708,
          0.004832824049716261,
          -0.16953352293057777,
          0.03110060983550113,
          0.15024358054849485,
          0.2650620783988278,
          0.21132283077176856,
          0.2081029240926348,
          -0.17301623850222594,
          -0.4087880501770877,
          -0.08639798119426724,
          -0.23202775274898438,
          -0.055175558605803865,
          -0.017400260676019786,
          -0.04452969344113309,
          -0.029833518412856013,
          -0.1979828652807889,
          -0.15244477962960118,
          0.15868431832682942,
          -0.03322338809805038,
          -0.09669666906759443,
          -0.11466793741882819,
          -0.31587315101565633,
          -0.29687613822881004,
          -0.19127909709862467,
          0.18012294678754853,
          0.4148351655388439,
          -0.10960692381169217,
          0.02654858473526741,
          0.004121647710740108,
          -0.06651245386239014,
          -0.12355367638659331,
          -0.21194256271399123,
          0.2012789212377169,
          -0.22103532744946128
        ],
        [
          -0.1956467616229937,
          -0.03194165451036654,
          0.05802458281388194,
          0.05931877649994962,
          -0.11033795222084364,
          0.041401493748376816,
          -0.03162545297308985,
          -0.20333663700065444,
          -0.060568334283982235,
          0.19796878711406418,
          0.03503373826679127,
          -0.20561171099623826,
          -0.21244037268867014,
          -0.20096078225031463,
          0.23545398346521468,
          0.023314114556416823,
          -0.276217941654149,
          0.17360048102614623,
          0.0031992827223209066,
          -0.11055599762180018,
          0.055537042645559434,
          0.02312469655852727,
          -0.1777067135894157,
          0.11935659177198962,
          0.04600817289081946,
          -0.2300604842878973,
          -0.06490173402373003,
          0.2088847454307871,
          -0.10628531511918798,
          -0.2951801001940782,
          0.11126344883997967,
          0.14013360792039947,
          0.054182293587232984,
          -0.059418863755052946,
          0.01426439369210776,
          0.07119803575160394,
          -0.024940961249636528,
          -0.009483818751316377,
          0.016022848915488944,
          0.33187261443610044,
          -0.2943975077130262,
          -0.2973956079431842,
          0.0391755129103935,
          0.16599988889767872,
          -0.1299011883990886,
          -0.15384608607278522,
          0.09029227574446116,
          0.11683588724087503,
          -0.2529792434448871,
          -0.16536639740252507,
          0.477315188068858,
          -0.14367525267509398,
          -0.14953163900124447,
          0.05100383056464243,
          0.156472264978181,
          -0.2044307295047821,
          0.1735767542409675,
          -0.017654583412002826,
          -0.26157837736129835,
          0.05704285037503552,
          -0.11495430100312307,
          -0.052287438656046056,
          -0.10632958214607963,
          0.39037314450778277
        ],
        [
          0.4445537736581763,
          -0.10080435886050741,
          0.09898215516630367,
          -0.09004912749867898,
          0.004062671345621615,
          0.1476198422400333,
          -0.06993138154953264,
          -0.030787552803043607,
          -0.030289199033536593,
          -0.06260077084765153,
          0.2233417190120238,
          -0.01885263304948153,
          -0.10655209216420937,
          -0.17753828394848278,
          -0.07874530760144058,
          0.06727050716217839,
          -0.2640809333860394,
          -0.08240653114933892,
          -0.28585914859907713,
          -0.005626418810493435,
          0.06237040854775347,
          -0.019889982032094765,
          -0.02401126081190021,
          -0.005448500299077653,
          0.03546051968770752,
          -0.1789364761119638,
          -0.015886616788841266,
          -0.13225541427265974,
          0.1134526129196981,
          0.08691710406799573,
          0.18820332958268982,
          -0.11275694314059573,
          -0.299704659221279,
          0.11025159189088798,
          -0.2751641174528149,
          -0.20580923771487372,
          0.1555370047766977,
          0.0161331616247477,
          0.4078607468615526,
          -0.029564397617010938,
          -0.040071570023669664,
          -0.1412864700223237,
          0.25085569826288434,
          0.016822993667904428,
          -0.1655175788494157,
          0.06246987282726054,
          0.00576047358156068,
          0.08560430596974283,
          0.023870627906713054,
          0.3116088231455223,
          0.07053358843884296,
          0.06700976882755112,
          -0.04862900421902541,
          0.013150882344898245,
          0.2337424284848354,
          -0.3407354680864174,
          0.2986463636702391,
          0.06479468486551428,
          -0.10553316188459387,
          0.25423983803560746,
          -0.006899099595798249,
          0.010381011898725777,
          0.031016272940244147,
          -0.09997043496988209
        ],
        [
          0.0418770920032377,
          -0.08571378260798482,
          0.33590374554270663,
          0.07051374832938218,
          0.22118877188339245,
          -0.03940868742111388,
          0.1375661174925666,
          0.367369447996069,
          0.07851707159217644,
          0.0787683449511827,
          -0.22516070123106047,
          -0.13683250362482294,
          0.10964705317336575,
          0.1681687044437889,
          0.06901021139533385,
          0.05845259623982953,
          -0.07390901117089654,
          0.0931310325577853,
          0.0028070646268687797,
          0.20232555558622642,
          -0.1592375403784189,
          0.05025094463541869,
          -0.0756813307072821,
          -0.22128553553733615,
          -0.08339042011927654,
          -0.06960091142493405,
          0.11093369657306477,
          -0.39275821637710956,
          -0.06569015831206756,
          0.07451201809913173,
          0.2088665786203413,
          -0.09742709653024147,
          0.10538577628949995,
          -0.19036647097575896,
          -0.0011789743798003179,
          0.32836432397458193,
          -0.02030832406725438,
          0.04123346234970095,
          0.22390839522683076,
          -0.04534767024219697,
          -0.16482554461984936,
          -0.2772764316304986,
          0.1727227583123056,
          0.2675898519683515,
          0.016791574374708268,
          -0.10702598300441946,
          -0.06824599685726261,
          -0.13009596917753374,
          -0.05820807309396572,
          -0.12784386465090097,
          -0.0074847893043335,
          0.08169853180618876,
          -0.015607971751478046,
          0.16878890106443134,
          0.1749872869659691,
          -0.11225967677834815,
          -0.040608919138305354,
          -0.05340236983436708,
          -0.08806948284974557,
          -0.3860957883446947,
          -0.005474664197811728,
          -0.11363698843170884,
          0.011588176804855601,
          -0.07052883350805232
        ],
        [
          -0.12296760892732439,
          -0.3948445550583606,
          0.17817259949940262,
          -0.1361286209791565,
          -0.03541746206989133,
          -0.07798462227940202,
          0.00797053514911457,
          0.34335679505938566,
          0.07465773068349094,
          -0.09033578721735107,
          0.17148593811138793,
          -0.040398839536404184,
          0.16513627586001742,
          -0.0104372141413858,
          0.007015459204599738,
          -0.22382751292722017,
          0.030268980521824976,
          0.23153535321891866,
          -0.4279504337221945,
          0.05184090208756314,
          -0.31457427946046895,
          0.23585860223219707,
          0.23596115319182698,
          0.03477419403135513,
          0.002587145642206181,
          -0.12433002618253608,
          -0.16167128871279957,
          -0.019200673409226043,
          0.10541845650518566,
          0.2868443954111655,
          0.2566198325781132,
          0.12146777465475397,
          -0.060423688313033165,
          0.20936806099323244,
          0.34669801748724793,
          -0.06027795138062865,
          -0.02906881228563864,
          0.1823965325507384,
          0.18599012133818288,
          0.014513604357746951,
          -0.1072559341266901,
          -0.07427967080252947,
          -0.02011212039596065,
          0.05628364623945673,
          0.06388992974090618,
          -0.04605338386978883,
          -0.48804691522139987,
          -0.032657504462606485,
          0.23435719806547478,
          0.19226574325933757,
          0.046520843712043146,
          0.35051338266671894,
          -0.09585742709633688,
          0.24747552673946915,
          -0.20452127061098116,
          0.12451436458585519,
          -0.19056104453803913,
          -0.047997579711494424,
          -0.1954464420519926,
          -0.09617222246979491,
          0.11893998455122691,
          -0.14958513967156356,
          0.05433503863298444,
          0.08334886451979386
        ],
        [
          0.16357924598012413,
          -0.1100371252193201,
          -0.14537184811476034,
          -0.04107427903336126,
          -0.11523056326968908,
          0.018005855641918807,
          0.024303235827781756,
          0.09908291460053853,
          0.061933452193100424,
          -0.11889269606506572,
          -0.10960911907456525,
          -0.010434021766385812,
          -0.12814320722298062,
          -0.18976155748816925,
          -0.1330169489139668,
          0.17352981885239835,
          -0.08636335324337933,
          -0.17312388959975028,
          -0.009881416625492601,
          -0.09841870964635334,
          0.007902933659354185,
          -0.1867715682371293,
          0.13690297326750656,
          0.06201282911117975,
          -0.01805076375108284,
          -0.2938570516372445,
          -0.06501170277749035,
          0.2198910391648829,
          0.3013644382532324,
          0.274381575328677,
          0.02211791196833596,
          0.13148840699353406,
          -0.0055920867296347584,
          -0.17617583042862586,
          -0.31579633454455514,
          -0.06246676739987315,
          -0.12585103198827768,
          0.09704998066108697,
          -0.08459568828531376,
          -0.08265029194319105,
          0.25716894341790286,
          -0.21056826169043752,
          -0.02067867942733001,
          0.07604846124598275,
          -0.12070149428629631,
          0.3051466054926726,
          0.12433954297824294,
          0.1915060709416982,
          -0.14849686287307143,
          0.2109465157145867,
          0.06788127852030876,
          -0.06794071890356768,
          0.13309185691988595,
          -0.008967567178754115,
          -0.04276228983491856,
          0.26881695530998634,
          0.009418802225862725,
          0.2777919877614775,
          0.23888576740307413,
          0.28046915477503936,
          0.023726423498862656,
          0.20896438084736826,
          -0.3509309931828312,
          0.12401070820962645
        ],
        [
          -0.022795905904933175,
          -0.24605093163594086,
          0.030230122683269422,
          -0.026127089228122506,
          0.10032386701962677,
          0.15161473632045108,
          0.0820190659459694,
          0.01096105646391614,
          -0.2041980284961276,
          -0.0368047834951794,
          0.061431922037196454,
          -0.2575138278853057,
          -0.06804491269257108,
          0.36407576373384143,
          0.24378572658705258,
          0.016301267223734348,
          0.10682099195850833,
          0.16761159041263962,
          0.0073689431645029895,
          0.04087237599851101,
          0.0030227110628774003,
          0.0592060673448724,
          -0.1725191450462105,
          0.12008852499351674,
          -0.31615543371396554,
          0.010877562427477467,
          0.046331196320498175,
          -0.0815433915956534,
          -0.23639300769936875,
          -0.0997923665419588,
          0.05893600339114072,
          -0.0630309674580635,
          0.03225979742347459,
          -0.2723099592997413,
          0.2953935550863469,
          0.26112524840278556,
          0.17209426871592962,
          0.14142888914001997,
          0.033515700782268266,
          0.04801865404230252,
          0.0831765496954521,
          0.13341241338902884,
          -0.10687462394741545,
          0.43286276442472,
          0.11893773806998811,
          0.1875209441528827,
          -0.13765000833906826,
          -0.04603127873739859,
          -0.07526110728224536,
          0.13726427197658012,
          0.2927226051938422,
          0.15506772013632128,
          -0.05025381464100155,
          -0.06381521460877584,
          0.15998399400045635,
          0.04964189684923456,
          -0.012612640163258734,
          0.2151744878659704,
          0.08945244857451766,
          -0.081182894055232,
          0.08692313408625058,
          -0.0936827428505932,
          -0.09123153518960904,
          -0.12036771503157642
        ],
        [
          0.05699283698079483,
          -0.16088588910376528,
          -0.20282384464699538,
          0.1294738016288351,
          0.0505768662909792,
          0.1030297393997073,
          0.15793754272253627,
          0.2133941399377789,
          0.13484310725576223,
          0.11113269348205786,
          -0.05688688269123202,
          -0.017160975910752486,
          0.3423360801874866,
          0.2990894443403014,
          0.07928052696513173,
          -0.2987666006808104,
          0.1865741534139137,
          -0.09879673284664035,
          -0.25548174844029264,
          0.2934360778513582,
          -0.06326890578383923,
          -0.10184834231517505,
          -0.15139962462681217,
          -0.027748645183780403,
          0.24304019879275435,
          -0.07865529606719347,
          0.18140981360343478,
          -0.21455202172253016,
          0.08638166879042515,
          -0.012606741351231706,
          0.2244426560581256,
          -0.10353019594164692,
          -0.15694493956715852,
          -0.030294024612586498,
          -0.2706603796001683,
          0.0654156611233084,
          0.332911082553836,
          -0.1598883036580789,
          0.45454479084731636,
          -0.0965235885528391,
          0.10755083962318078,
          -0.060910659692411,
          0.2874324444101177,
          0.12920036626797604,
          -0.1056021543397873,
          0.02813331324217976,
          0.1585131053981715,
          -0.18279794609314357,
          -0.17713662156962384,
          -0.18480836667788164,
          -0.04658793806052983,
          -0.22948011782700786,
          -0.24126954471137027,
          0.03292440016792086,
          -0.19518388874364787,
          -0.19169820421718337,
          -0.4288545607966607,
          -0.15889908778287226,
          0.31968131869599986,
          0.4830366841548804,
          -0.15327873822284802,
          -0.07043160923583643,
          -0.06245198095703471,
          0.15623926536711608
        ],
        [
          -0.02437772225934115,
          0.1144550514057446,
          0.1231748820736174,
          0.2666125945401402,
          0.494492201021637,
          -0.03868792633950057,
          -0.008745468731549324,
          -0.16294964714940646,
          0.13501898479563457,
          0.03836498052663485,
          0.034621986494320196,
          0.192055587452382,
          0.08916555544386237,
          0.15657752889413082,
          0.2931964255278136,
          0.016468901482052954,
          -0.2202932713393637,
          -0.22738253939246303,
          -0.1860095695299793,
          0.027242700205386283,
          0.1573834504253334,
          -0.2737003622881187,
          -0.08038120236836742,
          0.024819930964068815,
          -0.024357638108628364,
          -0.12521704954790772,
          -0.19393485617788123,
          0.08774766221403166,
          0.019229678111555064,
          0.1223237940188088,
          0.21210256740265301,
          -0.18628970357826946,
          -0.010604099622879993,
          0.08765692376400488,
          -0.04267856795099131,
          -0.13882794533239395,
          -0.024799378241628454,
          0.11127189041475745,
          -0.14352420003475058,
          0.19544033748115347,
          -0.07838578475511127,
          -0.5396659539280464,
          0.12885101293444448,
          -0.0052359231303023305,
          -0.1507374306863858,
          0.22225598004843927,
          -0.031186281060308265,
          -0.19671927243647164,
          0.03489434376620804,
          -0.053835507958178125,
          0.17191208166460212,
          -0.08801689932923465,
          -0.1294195733929284,
          0.008454055904665135,
          0.38229735771804996,
          0.22064274771398362,
          -0.19019202604688346,
          0.35935763167259177,
          0.29024892480238235,
          0.33362979122263975,
          -0.1113930306664932,
          -0.21309665600309774,
          0.28556057919810346,
          -0.06999338121114353
        ],
        [
          0.26328717271375895,
          0.09899479062837242,
          -0.1202378479474565,
          0.17219866537866801,
          0.003827344933500877,
          0.1429563746238897,
          -0.08248274876424519,
          0.13390488624463665,
          0.018366292543037923,
          0.14407529784528894,
          0.026389227481998904,
          0.3586027718767488,
          0.04124032178332855,
          0.20591450254254043,
          -0.12965239356631686,
          -0.24549908278625185,
          -0.22119253314904205,
          0.18634278375322183,
          0.4015818212651837,
          0.033684491207387104,
          -0.307772167393081,
          0.08308154101968439,
          -0.038501704094908495,
          -0.21037873509516528,
          0.10137955253333404,
          -0.0398170159039304,
          0.23203717281477895,
          0.11644591068273977,
          -0.13486975438650806,
          0.14168069883825446,
          0.30809675539518205,
          0.1450595981680329,
          -0.07809404859627767,
          0.36501131583176816,
          -0.07304379110415059,
          -0.3458176832422143,
          0.09359850643178984,
          0.17461923970040363,
          -0.1610648466736652,
          -0.22641683708661617,
          0.10004967157256234,
          -0.25940397054767567,
          0.1788705646876267,
          -0.027105355858649358,
          -0.0620924237899178,
          0.011374779687887575,
          -0.22979547751076626,
          0.11411643424751426,
          0.08045561766635541,
          -0.22119237530693692,
          -0.2162538815199653,
          -0.00023365821187975862,
          -0.12505370705267638,
          0.11579250215143434,
          -0.04908034621635455,
          -0.06447251262067642,
          -0.17382881583054405,
          -0.15844681868206464,
          -0.20488099928707537,
          -0.03774231234808202,
          0.03975939671083872,
          0.31159090531773376,
          -0.10614749624641956,
          0.07663241040447395
        ],
        [
          -0.09793601548274043,
          -0.02940305920827629,
          -0.12418401032678555,
          0.10780442863306268,
          -0.031347970753238696,
          -0.13865099327545793,
          0.19462836422018312,
          -0.2814235068435433,
          0.18695665079827398,
          -0.16217984700617094,
          0.09668839171757165,
          0.06767777018233613,
          -0.15054838328696865,
          -0.061503514543015225,
          0.2159115250459821,
          0.09040545310551236,
          -0.12168498220314747,
          0.1921213569145451,
          -0.1284799815654775,
          -0.20199794653031602,
          0.13641600701994275,
          0.018048254153740836,
          0.48283963835201793,
          -0.1077347449130861,
          -0.18364753272822357,
          -0.005074852583112589,
          0.2954079595410437,
          0.03583239584234314,
          0.1874367110703651,
          -0.07174271461704126,
          -0.02828802016183295,
          -0.2675408942241375,
          -0.18635523974107343,
          -0.10036768006963431,
          -0.17390752568807955,
          -0.1345261983968348,
          -0.04106628374280073,
          0.21964120119228644,
          -0.0932159052153246,
          0.03628859487468975,
          0.052988818241776835,
          -0.08083344538654015,
          0.048556019343328975,
          0.2894885751154822,
          0.06768383805819414,
          0.2841745734495279,
          0.1462579455503609,
          0.17543853169462187,
          0.08619298307113878,
          -0.20218106417136109,
          0.0718715493137479,
          -0.18639761925424067,
          -0.08597669076600396,
          0.17261251090379245,
          -0.39648890521636787,
          0.20743806766654405,
          -0.0270159214351322,
          -0.17490390559533295,
          0.44109830391004023,
          -0.17848890923920907,
          0.017526808657209212,
          -0.0061450497694719,
          -0.053694507676652396,
          0.1035440236587311
        ],
        [
          -0.19498344024216213,
          0.00820645898301826,
          0.47215542067431004,
          -0.06798475343652119,
          -0.10062234450465793,
          -0.25777555727921003,
          0.1944077040288706,
          -0.1566102397957698,
          0.14973739765067282,
          -0.15038509845087134,
          0.17949118776522105,
          -0.17443511946973075,
          -0.043219540007212495,
          -0.10632824026855812,
          0.05364798856233846,
          0.23507441886998667,
          -0.09230350610378009,
          -0.3791622846928172,
          0.039624704126262726,
          -0.11204308845859057,
          0.04550036597893092,
          -0.09280213598551484,
          -0.20691291410325996,
          -0.18478149961927087,
          0.11478997114988271,
          -0.0938923981832928,
          0.07306978145652095,
          0.005339443903446262,
          0.07532767005183096,
          0.012933925266724242,
          0.23398442733968927,
          -0.32691130804533497,
          -0.4592216746996269,
          0.28764045894579604,
          0.18766434342884797,
          -0.15299876943601168,
          -0.19114156142891794,
          -0.01870170781643919,
          -0.043011299443061146,
          0.015761532267407247,
          -0.2033068926425331,
          -0.03556253769716756,
          -0.11487520068720196,
          -0.08219163831733016,
          0.15238388654916019,
          -0.08816427530942353,
          0.1651811568458248,
          -0.15604635162987743,
          -0.2822301504218168,
          0.1178967376377045,
          0.03581597383368508,
          0.034240471193809706,
          -0.14108688437176578,
          -0.034606945719163985,
          0.14057492374419064,
          0.016681960148475162,
          0.11033263107857365,
          0.08077713785608621,
          -0.17390573814124072,
          0.14366547349999576,
          0.2744361220384557,
          -0.13087953703961408,
          -0.06118061840781142,
          -0.2163274641315533
        ],
        [
          0.2748481227450414,
          -0.09336042924468134,
          0.147926620428619,
          -0.2425255874493716,
          0.07155557220130986,
          0.06560513413714934,
          -0.10796826791300973,
          0.032128969014350604,
          0.27196479669578477,
          -0.006864409315937652,
          -0.20390741866064785,
          -0.013001972618207914,
          0.21076726842027332,
          0.10343075134790627,
          -0.06305553546317577,
          0.3092927424344507,
          -0.17287366207212623,
          0.05807137654620235,
          -0.06065487037720052,
          -0.2854300832783969,
          -0.1751626627871862,
          0.13057827977950653,
          -0.15565820317334456,
          -0.22166870292088825,
          0.060006392557394726,
          -0.010865021804822307,
          0.08308240236979486,
          -0.02385191457430255,
          0.27357426512138283,
          0.20237875795402485,
          0.09197852878820108,
          0.09274903835902742,
          0.20637972458862638,
          -0.1293501433140584,
          -0.2937034747154394,
          -0.013523984182656773,
          -0.18876395353676798,
          0.08501535860423484,
          -0.058115199110816224,
          -0.1850808179512011,
          0.13765761167372054,
          0.035336715356081294,
          0.03440180014097418,
          -0.09618485890122756,
          -0.3389247003788769,
          0.03559203496089276,
          0.23558589765120191,
          -0.23193994144819813,
          -0.1480208339655205,
          0.19795387079559823,
          0.34916107969743926,
          0.10102124811178051,
          0.010384691856457547,
          -0.07990458743464181,
          -0.12551654684233515,
          -0.08935730617798171,
          0.08440477807462721,
          0.19448822382261616,
          0.1773009194707485,
          0.2861795280491288,
          -0.08315407428944714,
          0.15243770006268467,
          -0.21090153655077074,
          0.35736775422798367
        ],
        [
          0.279485984059149,
          0.3468096623183321,
          -0.267399223179819,
          -0.27895134248056846,
          0.00002657893812994885,
          -0.11702636642656314,
          -0.07666891577062912,
          0.35085864411128925,
          0.15562112187301683,
          0.04169810343796491,
          -0.0383292850583075,
          -0.18819226011927273,
          -0.3026850770917734,
          -0.1314373263281315,
          -0.061271698933518436,
          0.07452775148893953,
          0.14164893837478046,
          0.31171858927660107,
          -0.045137779403916806,
          -0.08319630573703231,
          0.14711002621670616,
          -0.11642369099787202,
          -0.2019183088606312,
          0.15535907418543793,
          0.2960330614728645,
          0.05552834883660521,
          0.00032285303411772796,
          0.07605313532098557,
          0.2454176974965934,
          0.0626440232548853,
          -0.14473902934652583,
          -0.0882583689362825,
          0.12199774109407355,
          0.04188983495779723,
          0.05067046072379229,
          0.21679141450562037,
          0.04960962901035892,
          0.0674761043181568,
          -0.008749757880361744,
          -0.04103309926911255,
          -0.12490116447201552,
          0.08838522201523989,
          -0.5000751022404376,
          -0.37793087463767105,
          -0.00044137724047886893,
          -0.12576391530634962,
          -0.014973325657800332,
          0.26686694784880977,
          -0.010560974761612458,
          -0.46556689269441276,
          -0.06187577722050418,
          -0.20360088789313732,
          0.09168378218178376,
          -0.2104092095825664,
          0.05256724255693279,
          -0.11216153848597575,
          0.05696474045043946,
          -0.010760158104142976,
          -0.21257464370126603,
          -0.08680563679451024,
          -0.16656496142809052,
          -0.3062883344342796,
          -0.27992996389428565,
          0.2075426014195117
        ],
        [
          -0.04681308015902026,
          -0.03348477858837287,
          0.005107403665704352,
          -0.1502311943829336,
          -0.20937156604230248,
          -0.12836183308488747,
          -0.1810954074453386,
          -0.044685566690761645,
          -0.07393810230138617,
          -0.024635718826619864,
          0.2965468750898617,
          -0.2037502739795982,
          -0.10703750581628917,
          0.2639942847581145,
          0.08008634867054068,
          0.3019771240591669,
          -0.16236202964185506,
          -0.16405550735376098,
          -0.1103102046882183,
          -0.13084220354249085,
          0.03355225193585482,
          0.18858181480479813,
          -0.1110393660709371,
          -0.27954547403704194,
          -0.1892196955858895,
          0.0044355862324654,
          -0.23178061752464604,
          -0.07452089030057713,
          -0.1596638576265275,
          -0.04919121795990887,
          -0.09509116349103765,
          0.2673583490523551,
          0.3048952316773405,
          0.14119074873390486,
          -0.1462489806416148,
          -0.026838507019607116,
          0.18804965583975325,
          -0.20394517486020694,
          0.16600335044712886,
          0.02389420138478702,
          -0.10527787229682532,
          -0.15127447390577095,
          0.14319899642949407,
          -0.1558353010479276,
          0.04565598653846898,
          -0.07759229004228724,
          -0.002813147679442384,
          -0.2084664899311873,
          0.3355302704788709,
          0.21623330217442835,
          0.2775656492376911,
          0.2473348717305936,
          0.08267412993545549,
          -0.11931122775093589,
          -0.25157941495464425,
          0.11977715758669975,
          0.12233511597511763,
          -0.03816051451008481,
          -0.07934787573037864,
          -0.048073906113101514,
          0.0360981541147987,
          -0.22197601661092686,
          -0.044873319489527996,
          -0.08058538259343884
        ],
        [
          -0.39191502949601087,
          0.30401475846177684,
          -0.033089354580784505,
          0.05618139124580593,
          -0.051755969091939566,
          0.1649416457211752,
          0.20941634262437317,
          0.004923308166447383,
          -0.3353381244524305,
          0.07331489760056395,
          -0.01688900304789176,
          0.17772104081412898,
          -0.15043156535979427,
          -0.1257821619101164,
          0.11697425082493974,
          -0.1151545105421375,
          -0.10484006576329218,
          0.1590965623520073,
          0.025668196788708034,
          -0.015286433453243296,
          0.2721054903242216,
          0.06999851031632952,
          -0.11555471384673723,
          -0.1748697645183158,
          0.18661273377460585,
          -0.24427006851949165,
          -0.22276870138741708,
          0.22275296365311315,
          -0.28467561756195603,
          -0.12155938687464608,
          -0.045367709095413926,
          0.03947790996156384,
          0.16921090095834068,
          0.10711314307471094,
          0.2027800912629052,
          0.15699793004268742,
          -0.0037438437004359685,
          -0.016989348849263383,
          -0.006216222629954459,
          0.04510557187364871,
          0.06020089651382551,
          0.07257734340910323,
          -0.07776542016534134,
          0.30154747403058985,
          0.18027029946317638,
          -0.07743523194793869,
          -0.163137834434514,
          -0.00392853903741201,
          0.05629623721106078,
          -0.30256226416462667,
          0.020166278514733547,
          -0.137730223758915,
          0.019144492480631884,
          -0.006920063469060099,
          0.009244833562106154,
          0.12806593510019698,
          -0.01102847362047628,
          0.04701847895660753,
          -0.3113916936923477,
          -0.2839468607889203,
          0.26611457578203696,
          -0.0616135657543991,
          -0.007138111386201542,
          -0.044469918738403995
        ],
        [
          -0.09147444047302065,
          -0.043280842817369554,
          0.027377749381288636,
          0.03465953651945941,
          -0.006944666573775841,
          0.1896618967368773,
          0.09942134924477128,
          -0.0027204575320045475,
          -0.1663491236154484,
          0.05863814108718038,
          0.03141441466198179,
          -0.29867597064377877,
          0.0025197486171600423,
          -0.24924963873665734,
          -0.15628678213234062,
          0.02302936127933466,
          -0.1707577316314982,
          -0.055943749207669244,
          0.10157441076348156,
          -0.1447547811605527,
          0.29600314653204635,
          -0.033836236058411726,
          -0.33476842226290776,
          -0.17558428177950322,
          -0.08267718766306435,
          0.2752666110587932,
          0.018338223613348168,
          0.015465821445985748,
          0.007832258828885413,
          -0.32386682189685734,
          0.10115874087539792,
          0.08267724824713234,
          0.08143556842508026,
          -0.1475087960517209,
          -0.06221562877527964,
          0.1845752266647614,
          -0.14342077374187007,
          0.31747975836537845,
          -0.09216534730599275,
          -0.07973146985693152,
          -0.2267255756787167,
          -0.04634590339705496,
          -0.16913681944602135,
          0.1225273232591426,
          -0.10352804144091467,
          0.019355094738036576,
          -0.10675445731325046,
          -0.2565483819516912,
          -0.13886929391863254,
          0.4989722727926952,
          0.22557819253274733,
          0.23548689497653735,
          0.31960492716819683,
          -0.2163955956037646,
          0.31662485652193045,
          0.07506261750236944,
          0.07607695239774274,
          0.38672547723168826,
          0.008891082626084514,
          0.013916536412514557,
          -0.1289623359211973,
          0.1795853830590515,
          0.04454659185250191,
          -0.11973071204372543
        ],
        [
          -0.11223068196742708,
          0.07822446163858435,
          0.155468800376635,
          -0.11121835310261986,
          -0.13868131061856626,
          0.2290896056959225,
          -0.09671248616621504,
          0.386737450998427,
          0.11130128592592527,
          -0.13608628084992433,
          0.46922972440937943,
          -0.2228475034417228,
          -0.13180146300108878,
          0.20432739227090854,
          -0.01220049654134109,
          0.0017512287179514171,
          -0.38155608713823147,
          -0.13733446701073343,
          -0.4068206959903726,
          -0.06543357114286295,
          0.046764625344712665,
          0.10303168453914356,
          -0.10116251868743291,
          0.2123821707149883,
          -0.171604996044487,
          -0.20986954160535717,
          -0.05036606380295245,
          0.10192227283862282,
          -0.0992853822655138,
          -0.03935858491822704,
          -0.3784022460086971,
          0.10509131741818387,
          0.402681073785595,
          -0.3177086575624661,
          0.2475521339487277,
          0.09664846497722407,
          0.3347348334753933,
          0.10234496975418356,
          -0.03343075080496665,
          -0.11095933341746181,
          0.085117281246584,
          0.35719082633962845,
          0.11527862725803106,
          0.19410975802177194,
          0.13809434578858662,
          0.185305169310445,
          -0.1516425198179167,
          -0.0538235183349702,
          -0.06298944551113664,
          0.15653047382658913,
          -0.10375680586488818,
          -0.22869852113456282,
          0.03190144039463625,
          -0.11304960959536477,
          -0.008821839117588878,
          -0.011606760636735875,
          0.006373223308746566,
          -0.08791789857776616,
          -0.09579068196365144,
          -0.203139109134031,
          -0.14185884337584626,
          -0.08351488504665179,
          0.203374955408458,
          -0.1915456734121407
        ],
        [
          -0.16012699151250293,
          0.157105406207577,
          0.21464598556842998,
          0.11048193324547596,
          0.10036261774300186,
          0.22200642323985256,
          0.1516101042770529,
          0.05901118011517229,
          -0.24933731484170776,
          0.0905859204597413,
          0.2857292272284936,
          0.29322593223796917,
          0.23282355767493854,
          -0.3575984297561459,
          -0.1819220022369134,
          -0.09548614508847326,
          0.04502830580981738,
          -0.055957898597019405,
          0.14391292222332966,
          0.007456573059129462,
          -0.020428764506795507,
          0.07572368577351435,
          -0.07097641031266431,
          0.07897051352905561,
          -0.08840281612411098,
          0.3379314702908851,
          0.03923838776159284,
          -0.24998750372424267,
          -0.10508624341816912,
          0.29118012601253623,
          -0.010197669174214162,
          0.3122354506728919,
          -0.06932569524192435,
          -0.11239450130539844,
          0.00511090947742855,
          0.09017101165125634,
          0.05174423581822342,
          0.42174869308665464,
          -0.2922185011833552,
          0.062636615158874,
          0.1013999176535805,
          0.11572593442323785,
          -0.11050511128981375,
          -0.053647801999302205,
          0.08599566785642855,
          0.008144111060616431,
          -0.06117610560539914,
          0.07673945772590789,
          -0.3067911124295711,
          0.0038546961365485736,
          -0.1522847665539485,
          -0.0899946356585175,
          0.24512242089930977,
          -0.08675792771572387,
          -0.17412386318756273,
          0.1837202409558749,
          -0.049242393644219035,
          0.1262603456750966,
          0.036154811537857365,
          0.20161378282353706,
          0.03216636220984019,
          0.06498158875569286,
          -0.16054367141724446,
          -0.10016606624396107
        ],
        [
          0.060065585803449305,
          -0.14233027184102287,
          -0.09671849602861059,
          -0.21176417917495124,
          -0.14014755236326779,
          0.24239552335020614,
          0.15619829038289493,
          0.13911720352397713,
          -0.0405538570631499,
          0.2939424024663351,
          -0.34043281991867064,
          0.4420915441103027,
          0.03187934187748637,
          -0.0028311720224797384,
          -0.05202672639733551,
          0.33340084521419133,
          -0.0905489050639498,
          0.04881498365348073,
          0.2546359728154778,
          0.0381645414269165,
          -0.06174449378265876,
          -0.12145129047467738,
          -0.1001449905445105,
          -0.08624736695674705,
          0.2553081664690322,
          0.07105021834764262,
          -0.15234374879810322,
          -0.2627996871687379,
          0.08803809426958512,
          -0.057582998713802167,
          -0.3711780633984907,
          0.10184617461428987,
          -0.028316754617636733,
          0.22252641845001184,
          -0.06433387171564794,
          0.3442718697313602,
          0.2016658513734506,
          -0.11584739675266643,
          -0.24182189878662952,
          -0.007380254276043477,
          0.12125093120646574,
          0.05764303186275286,
          -0.529745471127361,
          0.08897024450058405,
          -0.12060231791149628,
          0.017871314372985645,
          0.18290456358220383,
          -0.12037135276993781,
          -0.21289757778117635,
          0.18582318827578234,
          0.20307124461168388,
          -0.10465766343634464,
          0.04600694045424325,
          -0.08013962724214294,
          0.07334144018551658,
          0.1291521194386605,
          -0.19407272954114485,
          0.006688525757623292,
          0.18396398619178467,
          -0.44356350032025976,
          -0.05206965550796677,
          -0.014163279227976056,
          0.021780308125643782,
          0.32516429887997694
        ],
        [
          -0.12178911498832001,
          0.2047416323439848,
          -0.11738329348812726,
          0.15413975246289724,
          -0.07423838121935895,
          0.3646402034990126,
          0.5821754595802848,
          -0.1487472676168387,
          -0.22013437277104453,
          -0.28882114328387515,
          -0.01370228072930833,
          0.0607069666280625,
          -0.06144742321316418,
          -0.12243671604575596,
          -0.04762538514729455,
          0.029821664067328387,
          0.29274638534159503,
          -0.27454736145924535,
          0.10536345723573462,
          -0.2569839483315651,
          0.3125346235857235,
          0.3027558487436553,
          0.048661171560576706,
          0.2266301165569161,
          0.12412127320281527,
          0.18812402390703908,
          -0.1971005791111627,
          0.05971135088529567,
          -0.14840159470230205,
          0.04598473093669313,
          -0.12519273607033168,
          -0.05279219704454205,
          -0.004675892010813844,
          -0.19424127343878822,
          0.31140687209397033,
          0.26099514681864255,
          0.1368074355988335,
          0.1629002704106218,
          -0.061921347469971126,
          0.24512985661415235,
          0.1465690057825711,
          -0.24307022444386236,
          -0.2871417157749555,
          -0.27771791368851684,
          -0.03434282287144429,
          0.3683039837856825,
          -0.07934622997281877,
          -0.23706454327623055,
          -0.32043425880597143,
          0.07862815407739737,
          0.04037357930454171,
          -0.2635005758567502,
