{
  "neuralNetwork": {
    "numInputs": 11,
    "hiddenLayers": [
      32,
      32,
      32,
      32
    ],
    "numOutputs": 1,
    "hiddenWeights": [
      [
        [
          0.8645334654156868,
          -0.7351433443784905,
          0.532455530013681,
          -1.3135314964682272,
          0.3681077400398374,
          0.1146632418447659,
          0.3439728704783139,
          0.03979546734182057,
          0.3402842246613823,
          -0.5715108166459635,
          -0.27330253637920887
        ],
        [
          0.15632544002177123,
          -0.40923003410605363,
          -0.5366360422461854,
          -0.23289294531940505,
          -0.7145381991065002,
          -0.07633670339721668,
          -0.1851113470809301,
          0.14729568572473198,
          -0.16669925831476948,
          0.2081415201830654,
          0.07400144901208222
        ],
        [
          0.3499763087105788,
          -0.7869287741537111,
          -0.3296155793837252,
          -0.2270725118985381,
          -0.7889203446264359,
          -0.23262487730695958,
          0.5043115584610363,
          -0.8278907583596954,
          -0.5513539422016438,
          -0.818655639585974,
          -0.42226897903423277
        ],
        [
          -0.5921326093097874,
          -0.4224677721484582,
          0.3224705143609173,
          0.8516151937720498,
          -0.20775750397369722,
          0.01620590356757797,
          0.46867539872667546,
          -0.2955750967960651,
          -0.23078477984630913,
          -0.008748234772549721,
          -0.03364692796156387
        ],
        [
          0.3216833382183583,
          -0.39839833393237617,
          -0.33395488284270386,
          -0.12604794182168835,
          0.1744725131369827,
          -0.9714860278186591,
          0.017646376334322107,
          -0.2712777037892804,
          0.19934112860428252,
          -0.3964567918358795,
          -0.0176938390191817
        ],
        [
          0.7781690285919444,
          0.14881663176609092,
          -0.2144489487539192,
          -0.08159106968308674,
          -0.06803763339489348,
          -0.17801616217852226,
          0.36975680698836877,
          -0.24605573896548574,
          -0.4514065655961705,
          -0.3195489431019143,
          0.6923304917766812
        ],
        [
          0.3907843172260201,
          0.7008938323633084,
          -0.0003737354098882385,
          -0.3722307412265482,
          0.1205487401835156,
          0.773218280720521,
          0.291269716674234,
          -0.35769937729343304,
          -0.7290178456571463,
          0.48805689970903704,
          -0.33523082824938805
        ],
        [
          -0.2630078229307174,
          -0.0958463664582829,
          0.2251353386483284,
          0.14008664749887742,
          -0.15906519338204742,
          0.3288853539676712,
          0.8733163326266151,
          -0.07858971480373536,
          0.5511562836041599,
          0.3570061992788001,
          -0.24662796600551967
        ],
        [
          -0.13466732186340033,
          -0.48714735054086755,
          0.2766285993146015,
          0.38671371318832704,
          -0.7329312086946009,
          0.6188537103950689,
          -0.2293928421189398,
          0.7801909552919302,
          0.43819044234564847,
          -0.05181605255165439,
          0.2772652103223362
        ],
        [
          -0.6774215080081158,
          0.3794563871544859,
          0.6430410606044127,
          0.5856534836278675,
          0.0324288179271212,
          -0.3116251891327909,
          0.3849371452251112,
          0.6080560289228057,
          -0.3377704409109102,
          -0.23162415692766844,
          0.8157819421797268
        ],
        [
          0.346395125142228,
          0.03881708364100415,
          0.4288634750955074,
          -0.4487209051379539,
          0.22352181881674993,
          0.4683870563511046,
          0.34546742195622887,
          -0.4523970384697247,
          -0.17217480267617527,
          0.2493068257197302,
          0.42093282185337955
        ],
        [
          0.39511667084411184,
          0.30387579320979563,
          -0.1765940661981183,
          0.9269325462424514,
          -0.21421324703613095,
          -0.6256844508476515,
          -0.08678862032636915,
          -0.6215770646555987,
          -0.07661859451146229,
          -0.173561562447628,
          0.3438768464512411
        ],
        [
          -0.16200794891536266,
          0.1798843012109777,
          -0.8815555130088909,
          -0.5012780143603782,
          -0.4915687507872095,
          -0.26411135072168945,
          -0.17662017482607303,
          -0.24260313189622545,
          0.11888493801109745,
          -0.01609694598892539,
          0.3871862553459692
        ],
        [
          0.09703696479312941,
          0.16142636379761582,
          0.3162514404883408,
          -0.15852477650372732,
          -0.4617331190860652,
          0.2617954806700416,
          -0.9982862229292988,
          -0.5833522142372517,
          0.01673401475634388,
          0.16562841157929245,
          -0.5394344459168134
        ],
        [
          0.2046093905867544,
          -0.7676207179811613,
          -0.33185359525627695,
          0.5215785168552569,
          0.28051722842911564,
          -0.30781174134217193,
          -0.038066524631736716,
          -0.03627974669396703,
          -0.6692278700844687,
          -0.1531749154665892,
          -0.7411250078534238
        ],
        [
          -1.4079904508480157,
          -0.617778464454056,
          0.4347807050953486,
          0.18186352912077497,
          0.23737440717411615,
          -0.1324299540374046,
          0.47186368512432575,
          -0.3462000048833217,
          0.12062087180444515,
          0.18303439051241233,
          1.2215523864359215
        ],
        [
          0.3462871871079228,
          0.04395917100963986,
          0.16939028648659546,
          -0.3503363351443212,
          1.2975235127841476,
          -0.34059940130238087,
          0.48096658883136884,
          0.402082245616903,
          0.5193320022812525,
          -0.3818145082797926,
          -1.33087429593997
        ],
        [
          0.20930435961542992,
          -0.5247635273439097,
          0.08792690786048149,
          1.244874254014158,
          0.2619826172030875,
          0.0005558274835091745,
          -0.5783578941685568,
          -0.5517400974194422,
          -0.061848770707817656,
          0.5110309512820586,
          0.39866701094799445
        ],
        [
          -0.04013990458768804,
          0.1373389535028496,
          0.7104481019340366,
          -0.37531738296447653,
          1.0616037217112317,
          -0.6910204656504595,
          -0.14343371863194743,
          -0.36346028561475435,
          0.39471349084800883,
          -0.09511006929557297,
          0.4645609305123078
        ],
        [
          0.13850529032195516,
          0.549389761205067,
          -0.1873541195176015,
          -0.0384243631213549,
          0.39908270289973713,
          -0.06479129571563473,
          -0.5776311443714592,
          -0.23550075698456777,
          -0.9818664659419385,
          0.7014771235695495,
          0.3488642295749073
        ],
        [
          -0.21341192391587435,
          0.3687888195621254,
          -1.2595253235975736,
          0.020412060731047444,
          -0.18363088332554947,
          -0.19242987263285316,
          -0.3360090325301201,
          0.26930637246627104,
          0.24471873588757756,
          0.026032211078529013,
          -0.46735483170668846
        ],
        [
          0.03723524003653124,
          0.20989535763579875,
          -0.02032222182467835,
          0.5599554643330527,
          -0.059744610662308927,
          0.36337386399569815,
          -0.3755233794992251,
          0.1569539567229093,
          -0.24750833888782423,
          -0.8339228991508161,
          -0.6115859643698721
        ],
        [
          0.4445742454014989,
          0.08677108364257839,
          -0.07958808622174765,
          -0.3741231282292372,
          -0.20412063365855737,
          -0.21207161345431333,
          -0.686546160539502,
          0.7500243371499781,
          0.23759426854509866,
          0.4413752957409428,
          0.4141578595419548
        ],
        [
          -0.23529492694476722,
          -0.18431429501496255,
          -0.9628137812028803,
          0.2657785607398802,
          -0.07121422576165498,
          -0.24294730250596727,
          -0.43228974813586657,
          -0.25116090508008676,
          0.03770148401345283,
          -0.02681555900294095,
          0.2625521324787234
        ],
        [
          0.6744502308767082,
          -0.023971942869451077,
          -0.15658599476491594,
          -0.03229746968518218,
          0.5527148962137083,
          0.2988785607092092,
          -0.006573007660763494,
          0.6014937651362057,
          -0.21168019630705542,
          -0.7778051661156385,
          0.4409278714749749
        ],
        [
          0.2757891003702968,
          -0.9949930295113496,
          0.19784851414349733,
          -0.13400189992303493,
          0.20300428736860487,
          -0.02411112928383394,
          -0.5900380138380282,
          -0.1863404339773851,
          0.25999905236063703,
          0.0035377295569472902,
          1.040700388453762
        ],
        [
          -0.08331477035803693,
          0.09420248979375159,
          0.45765627264020425,
          0.27704609656074647,
          0.1262419031736028,
          -0.9406782462693101,
          -0.10433890954160789,
          0.40233098247013666,
          0.046203450883271796,
          -0.043591096545755256,
          0.48091778302221305
        ],
        [
          -0.04912795094380566,
          -0.3676492839167056,
          -0.1135153877676825,
          0.15766566395885911,
          -0.3899682170439818,
          -0.9075725228583232,
          -0.3039991940928562,
          0.31580113460906706,
          0.24152043016078556,
          -2.4108704398827636,
          0.7742305586735297
        ],
        [
          0.09982728203748449,
          0.5385572285098179,
          -0.9391869312277137,
          -0.46069597353811037,
          -0.12761706130178255,
          0.9103358155185062,
          0.060738748019019136,
          -0.22820765978801327,
          -0.04392125470767629,
          -0.007482994403990426,
          0.47754957402585296
        ],
        [
          0.5990441917471606,
          0.4972053334159184,
          -0.37885173796144245,
          0.7504443746177198,
          -0.1843154617209336,
          0.5855291564869451,
          -0.6311350695950442,
          -0.32297115747164556,
          0.0884936444941284,
          0.5182159363722327,
          -0.4450145373434201
        ],
        [
          -0.17251316174341727,
          1.08799009508861,
          0.3216333781760356,
          0.16940977850004263,
          -0.3030670637750017,
          0.3446755386845473,
          0.7337372086105275,
          0.05975679024910106,
          0.4316254861598187,
          -0.3488420718111445,
          -0.6574770811763169
        ],
        [
          0.05466505310713608,
          0.10706400000479668,
          -0.1401753488219061,
          0.945394578563389,
          0.3537969721649831,
          0.19981507062413206,
          -0.13892338461851148,
          0.752963205544918,
          1.2683708366470812,
          -0.04913425648585202,
          -0.034456441574501596
        ]
      ],
      [
        [
          0.05959312331869883,
          0.03861107918672125,
          -0.21361479817089518,
          -0.053221299531700836,
          0.19045287017272816,
          0.25697116970160094,
          0.06473307346453192,
          -0.06429676540924337,
          -0.07121666231183359,
          0.2364672401451928,
          0.06052261433682735,
          -0.022459825835850735,
          -0.05027662881373571,
          0.06792463820878578,
          -0.10946238627181248,
          0.1721279585815974,
          0.005807345597033333,
          0.0013326978490586828,
          -0.02771730729712792,
          0.397378992609705,
          -0.15053407679437053,
          0.3834280900752613,
          -0.18337223838802508,
          -0.01511721952960162,
          0.05571159970775338,
          -0.40907448357724746,
          0.011827331127613376,
          -0.11891702840549986,
          -0.14746883906814984,
          -0.04980922368914882,
          0.5577253350209415,
          0.06490147656172934
        ],
        [
          0.20877572756489418,
          0.0471836219487252,
          0.2398098865558803,
          0.30822045487497696,
          -0.04636969010923751,
          -0.1274323314168902,
          -0.4915438776571619,
          0.24499295400007703,
          -0.16266473710174906,
          0.10289676245046872,
          0.0033684836274891815,
          0.2521053411663229,
          -0.037687469224771945,
          0.06030863277555442,
          -0.262415151363886,
          0.32443082417740066,
          -0.19668446455015637,
          -0.2587071129738098,
          0.07266325359088752,
          -0.10885163936563766,
          0.44789040659524215,
          0.403185081353227,
          -0.15836728730232857,
          0.1412023132408779,
          -0.035648018355458236,
          0.47458405381970725,
          0.19956465503296994,
          0.2253984950741891,
          -0.16719763051916467,
          -0.07689736413186965,
          0.0882701106050618,
          -0.10484451884224896
        ],
        [
          0.2718330943130942,
          -0.38003463159279394,
          0.12232040667135936,
          -0.04825787311280096,
          0.07404803929800483,
          -0.332280020839519,
          0.09440549279469956,
          0.5635557461705614,
          0.21667639561910637,
          -0.1750820601118241,
          -0.20556915739055234,
          0.14223367308971815,
          0.09295335004172055,
          -0.14382818293048408,
          -0.1482719461321463,
          -0.018008973836867573,
          0.2535945061152972,
          0.12564925626634724,
          -0.029776209773751765,
          -0.23374568380601823,
          0.07184677205148021,
          -0.04164557709616452,
          -0.4321299591748727,
          -0.002484156795926757,
          0.10164100127837598,
          0.061279573870161655,
          -0.08016320762008157,
          0.6434520225651124,
          -0.2057057303482158,
          -0.03250546203825387,
          -0.09152077306497634,
          0.14085320361405304
        ],
        [
          0.2631145911414045,
          0.4559226175002153,
          -0.2280597585433221,
          0.017544383192671594,
          -0.23061825071421674,
          0.11428825510203397,
          0.21588609076651216,
          -0.21770327095901873,
          0.17881723982568498,
          -0.37804243877456317,
          0.46738129682639806,
          -0.22261426484867755,
          0.47585675691870066,
          -0.04821156592576273,
          -0.015952432569988937,
          -0.24448313922538245,
          -0.6045368137078586,
          0.5126000554419982,
          0.35517692003332246,
          0.14064586258465278,
          -0.06530416110196785,
          0.2748992391503248,
          0.11270905965290667,
          0.032982499218541204,
          0.01614973198644721,
          0.011833673537073961,
          -0.19637352407121783,
          0.25714245308686146,
          0.15654682995514344,
          -0.10263263625668355,
          -0.20716192290221058,
          0.0989327456555247
        ],
        [
          0.16497822495543882,
          0.030954471697110766,
          0.04099405849414289,
          -0.12299174888796104,
          0.12137257636881442,
          0.23042067448427953,
          0.4844084977973393,
          0.23966768717575898,
          -0.3694388601427177,
          0.23882210719564115,
          0.34186422373417963,
          0.5766025377236101,
          -0.05815498505684402,
          0.14968142344012803,
          -0.21985559126958515,
          0.1234227942189598,
          -0.1384213055662686,
          -0.3092141421100991,
          0.5127340374651933,
          -0.02896282650576506,
          0.15791518341772076,
          0.04420365715241102,
          -0.15367221966705788,
          -0.036919298702700026,
          -0.10809344674419112,
          -0.3362111899572598,
          0.3160152974032443,
          0.6434836346857356,
          -0.46322088979705794,
          -0.21064261023692465,
          0.1722694612626234,
          -0.06961738078512851
        ],
        [
          -0.1863223714562604,
          -0.41929384933821845,
          0.24462489225080833,
          -0.02605101904935835,
          0.21121693703578112,
          -0.041125003207603913,
          0.0481430524654552,
          -0.0342107334834598,
          -0.46332588144002734,
          0.04587984543842923,
          0.3648989371542731,
          0.08852300545404064,
          -0.017256841875909677,
          -0.43014106262639895,
          -0.06258384045754513,
          0.42245794081544064,
          0.15369747055440813,
          0.1796173733663679,
          0.0236408914352932,
          0.2916081894833003,
          0.08078149894814744,
          -0.3807600910607304,
          -0.03261526505613447,
          -0.13323186395080136,
          0.07599978481965389,
          0.13655351943169206,
          0.10181971097449748,
          -0.06823206654436748,
          -0.30468852460101625,
          -0.007346054600480496,
          -0.3374285516401575,
          0.005283140384946581
        ],
        [
          0.010683573274741964,
          -0.14568377102328994,
          0.3634782398054573,
          0.0804267473790606,
          0.04845744791381164,
          0.14782318626648625,
          0.14162568374250284,
          -0.2811608082946092,
          -0.1524644311637028,
          0.11992281459231571,
          0.10343005463463248,
          -0.1436027916721914,
          -0.24805822676426187,
          0.08781379132327592,
          -0.4164354397878254,
          0.05388796913921215,
          -0.6599381135209923,
          -0.16430031900110265,
          -0.1596019840306337,
          0.10972099244784769,
          -0.0635404116388817,
          0.10713845111697445,
          0.048872616026820886,
          0.20135050194427,
          -0.07828375749159061,
          0.20385871128450142,
          0.36305607860892086,
          -0.2466089196234175,
          0.3155030983418109,
          0.010259448245868686,
          -0.08182535176964194,
          -0.048751890505264996
        ],
        [
          0.16836457497990936,
          0.2810780223260041,
          0.04865293396178443,
          -0.0663667848174521,
          -0.1788466485273533,
          0.14915541208669025,
          0.19233682401498375,
          -0.12605813735453036,
          -0.3731700859244471,
          -0.047059700389952684,
          0.025620567103437356,
          -0.4178835513403305,
          0.27418024618075776,
          0.18867648183183466,
          -0.04963617886757092,
          0.2706265587919823,
          0.46641505338467704,
          0.08120651846654027,
          0.3413352881296803,
          -0.2726527910757774,
          -0.02904230825875432,
          -0.22779480341287114,
          0.0034925359054470023,
          0.019689079801931877,
          -0.11730506754977131,
          0.02033193679824304,
          0.09552229145952362,
          -0.0029657332575642008,
          0.12226514717313257,
          -0.17925388822786625,
          -0.07821203608088664,
          -0.2441016223462453
        ],
        [
          0.13050151706242838,
          -0.07760171803901435,
          0.1265771451111922,
          0.03849297549520208,
          -0.027676426760109386,
          0.22872049565818417,
          -0.21289813253867637,
          0.002344273971259998,
          -0.14120025397888877,
          0.06544463133949416,
          -0.1516066482774633,
          -0.2472588590636192,
          0.25141440798284065,
          0.08584793387490412,
          -0.29709092507666984,
          0.19376218170713294,
          0.29328660253424715,
          -0.09637814264636643,
          0.03170753629515041,
          -0.36297116039344246,
          -0.10891402211159727,
          0.06468608530491808,
          -0.04154438804581184,
          -0.2296951873026799,
          -0.029840324528125607,
          0.0400979454460202,
          0.18229389057924245,
          -0.30422653222229856,
          0.3037967504967114,
          -0.24307470833572856,
          0.11951112717290652,
          -0.04633790290988047
        ],
        [
          -0.05885244456117563,
          0.0936206907612966,
          0.19504290641329827,
          0.2795530441399721,
          -0.06358586232786098,
          0.39257304921724223,
          -0.2516403376508153,
          0.16021777128142106,
          0.3065015241990418,
          0.1653387280684922,
          0.04338991276516566,
          -0.1686953008506673,
          0.060876452153960675,
          0.11686368057613285,
          0.28110522121585957,
          -0.000023050667980507612,
          0.25709842719160886,
          -0.289279198782556,
          -0.4656308660259147,
          -0.2637385078537064,
          0.15440276191606414,
          0.15121896923243439,
          -0.09524475654196812,
          0.12155803551160058,
          -0.25594658193737857,
          0.1984456727055373,
          -0.03553311035134701,
          -0.10245242407073052,
          -0.1598098458553173,
          -0.006442445027593311,
          -0.29919920868109023,
          0.11819427438241879
        ],
        [
          -0.2259291740897763,
          0.02724506166362051,
          0.0596271817414748,
          0.0946070231660384,
          -0.15207709489737967,
          -0.23697516955285214,
          0.22904865949412376,
          -0.07400456210895484,
          0.0031171502413151154,
          -0.009488130269908279,
          0.05155031833108796,
          -0.0254143832979433,
          -0.026757479866330897,
          -0.009731629961844087,
          -0.03152942667602986,
          0.10593466108502808,
          0.35961445340941256,
          -0.059582263677459724,
          -0.044140533611205894,
          -0.10343382718061246,
          -0.10750585747267112,
          -0.03623024981633226,
          -0.3864369163257014,
          0.3509158773751441,
          -0.21728389609209886,
          -0.1395383467874667,
          -0.08118636564680906,
          0.5770468657065243,
          0.02418282135776505,
          0.2085268400041245,
          0.3562068236817916,
          -0.30653160416608277
        ],
        [
          0.21913511349556225,
          0.42651952274128013,
          0.1781685051829362,
          -0.24233469844508687,
          0.18645304811763352,
          0.03552672994415377,
          0.4008951230932924,
          -0.046583811998737734,
          -0.31028911363444706,
          -0.45492252142814515,
          0.003961605347039232,
          -0.04274769330931759,
          -0.25184857843872877,
          -0.1644181090099266,
          0.22752752875258808,
          -0.08085403251381193,
          -0.13696695045015847,
          -0.06220738042658756,
          -0.10821229693624025,
          0.21322442512057116,
          0.0014819909298253789,
          -0.103097667774442,
          -0.23175362971815636,
          -0.07969842494687515,
          0.06080862805774118,
          -0.2079379481090329,
          -0.35476130282702845,
          -0.17181685234976646,
          -0.06878594838318963,
          0.07386028728156645,
          0.19123088504427152,
          0.10734788363987176
        ],
        [
          0.29567759090394824,
          0.1640551124178362,
          0.12758831930264303,
          0.24560879858826357,
          0.027640735243581353,
          -0.18629673066239155,
          0.3459831537252233,
          0.19855849041694476,
          -0.009422148436967287,
          0.1299209426270728,
          -0.13175167974708654,
          0.25227225082084687,
          0.19631045836568103,
          -0.05330319538656324,
          0.27336897801959464,
          -0.09295449986367385,
          -0.22618124936566764,
          -0.013970652510301395,
          0.025870054974867093,
          -0.03714124907172182,
          0.3751180322376335,
          0.009860715408712296,
          0.14463440923978854,
          0.09653575835903677,
          -0.3235820234690856,
          0.12294390516519696,
          0.18935879853061105,
          -0.08227032595340375,
          0.08517466725284996,
          -0.24876537236574972,
          0.2955560119357128,
          -0.24809110948538174
        ],
        [
          -0.06854884339964643,
          0.2279378291974843,
          0.01870100962783542,
          -0.3130192457478301,
          -0.1199632464854678,
          0.08087839570402848,
          0.2887042289290816,
          0.18243488137059366,
          0.26698629331013113,
          0.01938790858587285,
          -0.09298202564419934,
          0.10019139041596806,
          -0.17389534510994825,
          0.05082324778704638,
          -0.2984659404381563,
          -0.045680792937937545,
          -0.14674923627177733,
          0.01268587072417287,
          0.10047298330983129,
          0.5969421481825757,
          -0.3991302674356178,
          -0.09251757440932525,
          -0.13173238611660348,
          -0.05068103032920734,
          -0.26177577439534483,
          0.019200416084904366,
          -0.11143724285605458,
          0.677412316273825,
          -0.22181355758684185,
          -0.09498430489271054,
          -0.009501388365746335,
          0.2936934488848154
        ],
        [
          0.16376752512872944,
          0.02504083876215988,
          0.12309681950430769,
          -0.43298650913286524,
          0.14926310962593015,
          -0.08004143527151661,
          0.0012417881503112712,
          0.19274666984490635,
          0.03156030045123012,
          0.27907483987497333,
          -0.08589963543733067,
          -0.3786607725101678,
          -0.38333483058760426,
          -0.0789637444442466,
          0.018039129532348038,
          0.1825940913769937,
          0.19068374231255164,
          0.40436300793318586,
          0.10198759267774496,
          0.0433278949462953,
          0.238405364698041,
          0.03817208793381698,
          0.1290774647957594,
          -0.07309476763366896,
          0.08377131740133682,
          -0.15780259658056028,
          -0.25433439468727537,
          0.3862343444713612,
          0.05435348857686717,
          -0.6113651740671495,
          -0.04046969943282135,
          -0.23368628325330043
        ],
        [
          0.07254399005890984,
          -0.10758008926550551,
          -0.24339148546832776,
          -0.047179608517107355,
          -0.08388218942255493,
          0.16868972453886075,
          0.04797044278764614,
          -0.08123880226740723,
          -0.07326891032271325,
          0.2560022799748953,
          -0.009593114453423646,
          -0.2310712293559441,
          -0.22128960972296283,
          0.24420422456919874,
          0.20797067976914557,
          0.08972129284963898,
          0.020750038422839408,
          0.07251376816859766,
          0.17765383964896056,
          0.47118256118737695,
          -0.046671740240053446,
          -0.21199412779789137,
          0.041180953238260126,
          0.015603266455321422,
          0.018157353380012516,
          -0.08987713807153438,
          -0.032117089814867154,
          0.18866569370035535,
          -0.06583886899590403,
          -0.33660694298597116,
          -0.22114883478526703,
          0.35109428795146197
        ],
        [
          0.09841862600594582,
          0.21281697232666646,
          -0.020058312985825725,
          -0.2216601159328009,
          -0.35246715389876776,
          0.005804051363793306,
          0.4888266858453183,
          -0.32561398544082926,
          0.22313126937975566,
          -0.3585486375815375,
          0.10958876608646737,
          0.08807106956622071,
          0.30389371926173886,
          -0.15348951358173807,
          0.2923318229973179,
          -0.1643707014246524,
          -0.11573335603684526,
          -0.2500917247449468,
          -0.4478183920066397,
          -0.2922330892899533,
          0.19785899197355142,
          -0.24827649978679808,
          0.09562913938324329,
          -0.06595071391275394,
          0.6237830294730281,
          -0.1362837949884973,
          -0.008803472184576298,
          -0.29331548045194106,
          -0.5238280272146577,
          0.2916766104135834,
          -0.14099668682839356,
          -0.5354250520146807
        ],
        [
          -0.32370831000761746,
          -0.0631802612716521,
          0.031133976371723836,
          0.2920655586628373,
          0.17022777544593595,
          -0.3206987591278237,
          -0.1887869548671051,
          0.2208172328562187,
          -0.1810915025614024,
          -0.21955772639219806,
          -0.11165307369703724,
          -0.44842376761081193,
          0.3203362054650574,
          -0.05637682180111224,
          -0.03698337969778026,
          -0.14284626685780674,
          -0.480322490812434,
          0.05378079097935459,
          -0.14511781915256,
          0.028736812383205416,
          -0.0882931681199698,
          -0.2659641372727779,
          -0.2124868803780146,
          -0.10242963274669999,
          -0.19325970271558832,
          0.3102483808001381,
          -0.08286869306264497,
          -0.2776399483253013,
          -0.3804666087558691,
          0.05919000662059576,
          -0.04172518082554575,
          -0.08665328068587791
        ],
        [
          0.2707179102314349,
          -0.03531149593108945,
          -0.09262428345396685,
          -0.23448107814319927,
          -0.24492045028769377,
          -0.19621570377014866,
          -0.11734400962771498,
          -0.00659106376785669,
          0.1581456094719879,
          0.13181016001300014,
          -0.10421414614155214,
          -0.03330674669892991,
          -0.19808059975803138,
          0.15271371771541287,
          0.07279576604768295,
          -0.03836226728255399,
          -0.046491745139610165,
          0.04082505177511879,
          0.28672707318788127,
          -0.16426166007523568,
          0.38926327785958703,
          -0.1250265202481597,
          -0.09837811334512289,
          -0.004541153314415624,
          0.14050346228173333,
          -0.09942796981721107,
          -0.048910960747658744,
          0.02968851334852996,
          0.11712921940933987,
          0.2141225309149619,
          -0.07691087917792382,
          0.22003224537575336
        ],
        [
          0.053478805279409465,
          0.1585758969989927,
          0.039694202232011803,
          -0.3180071676681087,
          0.2047202977729761,
          0.1441727441514749,
          -0.043884906419193535,
          0.060301866758283,
          -0.2450211501926756,
          -0.011854024269187812,
          -0.35466891445872883,
          -0.1319961219909828,
          0.09911435389272871,
          0.04610570221502584,
          0.5051570066941966,
          -0.12384315463330497,
          0.15651126293929868,
          -0.10190532829631474,
          -0.04356894295902379,
          -0.45015375821875425,
          0.40933691949028,
          0.3115587973328315,
          0.29140547214049006,
          -0.05937585881513545,
          -0.2531065391897629,
          0.17971525850075032,
          0.598545673553698,
          0.21504988884705956,
          -0.049842604634256465,
          0.28970670497185463,
          -0.011981120247031834,
          -0.1108965325847246
        ],
        [
          -0.6958159848646581,
          0.12370987817726187,
          0.020830301974106822,
          0.28434411894275563,
          -0.29860448280182317,
          -0.013059029210447066,
          -0.34328548146387494,
          0.17401842324793262,
          -0.1306256783737134,
          0.03575855932451648,
          -0.016421115664565007,
          0.08990697907582663,
          -0.0892691748366321,
          -0.13109761975285872,
          0.15410741636304442,
          -0.2204789497546647,
          -0.20062561396963305,
          0.136417471772896,
          0.3019646854186379,
          0.2275357629523043,
          -0.49672586444313455,
          -0.027603854975271007,
          0.016337964114996575,
          0.007257537821282436,
          -0.1950398137257062,
          0.1355827613050126,
          0.14999386680528193,
          0.15123756703842453,
          -0.18029682932336702,
          -0.07942659466933087,
          0.1264182743576635,
          -0.059483164008304154
        ],
        [
          -0.4914148795507825,
          -0.0039595710440336485,
          -0.31140075734451833,
          0.09943583431752014,
          0.04923468591116393,
          0.33903706978848974,
          0.1317611311067591,
          0.09629797687757222,
          -0.11279676541009852,
          0.09244688839282657,
          -0.10063126688602407,
          0.0828121307065954,
          0.2884842602406683,
          0.10334469978796738,
          0.05348417814175172,
          -0.423156672952119,
          -0.4801699103554134,
          0.45461281502297285,
          0.03141521807822342,
          0.00966519797733153,
          -0.2068806588843849,
          -0.10360564940187462,
          0.475416886027816,
          -0.05616512134460016,
          0.44932295368329156,
          0.25669951414103526,
          0.05066112740989584,
          -0.059056173677355134,
          0.15449255439179205,
          0.18676095856725822,
          -0.07533871708900505,
          0.10877693033756336
        ],
        [
          0.1268870850261411,
          0.0004338773393022457,
          0.07648336859497429,
          -0.08289926070222338,
          0.35351510677483156,
          0.07705447991795936,
          0.20301382159838388,
          0.08867406598383444,
          -0.044869766851098655,
          0.497016663040527,
          0.0225780303508755,
          0.07290044476755378,
          -0.23080540276960237,
          -0.3516283388846398,
          -0.019791996152224774,
          0.11266787828181796,
          -0.13484051799869337,
          0.1081266987561905,
          -0.0518829791646432,
          0.25737144392078765,
          0.1295676106210184,
          0.046439150246333376,
          0.35079360553631944,
          0.37088292766810793,
          -0.23481830569117332,
          -0.29752812485335867,
          0.01189594725448258,
          0.1542114172074474,
          0.21882252640056044,
          0.21987476325287847,
          0.07779055037285533,
          0.09087572065209613
        ],
        [
          0.13509827646362568,
          -0.07631221815965668,
          0.06626794829008785,
          0.04799365664039156,
          0.005319567141690761,
          0.03336097221843003,
          0.07795244508201021,
          0.0702916381818028,
          0.23503902831091122,
          0.2026473569416293,
          0.2298167303759717,
          0.2442040530367541,
          -0.28220503732043345,
          -0.4092203648668458,
          -0.04037405497365492,
          0.37117056957890215,
          0.2494821735603265,
          -0.28430455358398726,
          -0.3075990920655381,
          0.19783583481143185,
          -0.05260759687914222,
          -0.11460839510664096,
          0.1317386268362622,
          -0.17865762980204716,
          -0.36604985400294526,
          -0.32312852295607253,
          0.10126123330294039,
          0.1887244243207496,
          0.0989219152099384,
          0.008878465751338603,
          0.010748258933972467,
          0.012845680212874744
        ],
        [
          0.10813828950998015,
          0.29973317843721614,
          0.4193273728529319,
          0.0801959717749222,
          -0.19194099728730113,
          0.1897371381059315,
          0.173210921197217,
          0.11629838529639175,
          -0.034196714646606445,
          0.09498449705070951,
          0.04346232849516478,
          -0.3786606388010278,
          -0.21570296735723732,
          -0.11612706839082919,
          0.03369471363232229,
          0.056213228310294384,
          0.49942797284884144,
          -0.010676778587302977,
          0.15174005962431747,
          0.13722226056467743,
          -0.11575012746640764,
          -0.10841966924247794,
          -0.018022645784401225,
          -0.0270018436497615,
          -0.07757313223213005,
          0.3040237166941952,
          0.0722665558262347,
          -0.16216468300134182,
          -0.1241615378120137,
          0.2906178155504814,
          -0.4425163625146036,
          0.09375803229028055
        ],
        [
          0.1875435584976127,
          0.16333942332469625,
          0.07330423070191414,
          -0.19262203995615615,
          -0.12498036652603267,
          -0.09607494178062144,
          -0.0928636030853927,
          0.010827921499179246,
          -0.04732433233068211,
          0.3978039713193463,
          -0.23299917286579175,
          0.2714072651650285,
          -0.1463486909281106,
          0.1711336063801155,
          0.1320008717486714,
          -0.04494083179450056,
          0.07987856205553512,
          -0.6173454133482702,
          -0.2412184012364702,
          0.03851100110448831,
          -0.10448991275010577,
          0.08749101465278553,
          0.022876592619603252,
          0.02805992688568981,
          0.21989781285685583,
          0.2277712640146671,
          0.21298147581853127,
          0.10107396722338263,
          -0.11815735142623328,
          -0.17587975976981407,
          0.09574978581386494,
          0.2988331529593557
        ],
        [
          -0.4324622460677221,
          0.01879022114345357,
          -0.08145191781926268,
          -0.023191552243367435,
          0.023778570750300904,
          -0.15805060940744262,
          -0.0004459742983352145,
          0.09876051090988029,
          0.4060632861979436,
          0.2392110721496982,
          -0.2753425347337813,
          -0.031403752778809,
          -0.2123741592790466,
          -0.18519175300805735,
          0.04291140958940465,
          -0.40896881039556987,
          -0.2276265816761977,
          -0.05337322047913633,
          -0.007312621798822565,
          -0.2453012239137105,
          0.12132816508933193,
          0.37766493889153646,
          0.2539907174770743,
          -0.3218709786003542,
          0.14215866063244287,
          -0.07435663321162277,
          -0.037709109742988745,
          0.10347911256465497,
          -0.21213280972538923,
          0.042698149698138704,
          -0.18391707392227533,
          0.4286564640642485
        ],
        [
          0.6519927272623608,
          0.20619826307747677,
          0.11218323250459881,
          0.14634141230984896,
          0.035364288975333884,
          -0.1522000986286096,
          0.5088823101344465,
          0.1399528691881395,
          0.029792557568537333,
          -0.0813167915113049,
          -0.27024772353537374,
          0.22794142029110295,
          -0.1991110254240115,
          0.011701012327118537,
          -0.1954127573837013,
          0.08984705880912804,
          0.4431862554930223,
          -0.24128035695096728,
          -0.027694023005173526,
          0.05170042760793324,
          0.0794614405057692,
          0.3285402165784772,
          -0.07868375181369978,
          -0.043245948642902744,
          0.13107197013360083,
          -0.5583617156870744,
          -0.2868658718746039,
          0.5257841839785167,
          -0.15736983795123935,
          -0.09760659555861913,
          0.13664828774421042,
          0.07169744520865946
        ],
        [
          -0.2976210716934089,
          0.2263412570405488,
          0.008121518665106959,
          -0.07062949947243616,
          -0.06815727239433846,
          0.07143037135338098,
          -0.3668595962409337,
          0.005798476540219221,
          0.1468640973810137,
          0.35236358628838477,
          0.24294370956842584,
          -0.32808110445091915,
          0.04710167830552637,
          0.08546365227295313,
          -0.04960936246173964,
          -0.5419390688799667,
          -0.59058198036937,
          0.13118162240994238,
          -0.29653321318078096,
          -0.2491475391478067,
          -0.09310775634873798,
          0.3517391937024685,
          0.11304647825091033,
          -0.07269848570629399,
          -0.1034055343770479,
          0.09757519722675471,
          -0.26091830765694124,
          -0.22665354116673095,
          -0.004974819825963747,
          0.3614002179436712,
          -0.10391278774774974,
          0.05535602346239584
        ],
        [
          -0.2178816234936758,
          -0.31591537888532345,
          0.0004290822914873877,
          -0.028345270151694003,
          -0.038688502421879795,
          -0.3084355643042325,
          -0.05235447687054177,
          -0.07765460826402466,
          -0.22193542168362138,
          0.34097490525540386,
          0.10715586022632653,
          0.23671318814449074,
          -0.017149103950953933,
          0.1389784755821736,
          -0.1919153553174836,
          0.47896134228115533,
          0.11901278576390811,
          -0.15207756754382062,
          -0.07100706338888778,
          -0.16945516826286508,
          0.00930945811652142,
          0.16664147907660973,
          -0.33652841709735587,
          -0.12839413316527007,
          0.3664868524459406,
          -0.2038483211023164,
          0.18473919150029924,
          0.48068115500601094,
          0.004591165686317119,
          0.39009690447578177,
          0.3764554085416202,
          -0.14666164709295385
        ],
        [
          0.014396273959006941,
          0.017299476740844092,
          0.04591456364774295,
          -0.028354421984657423,
          0.13436289903391832,
          -0.18242424125812445,
          -0.06378385734380437,
          0.2288521925785504,
          0.3903826297073009,
          -0.047928995952829165,
          0.228363198256846,
          -0.44795656083826557,
          0.06893396943796926,
          -0.06725303078802067,
          0.2402728551370103,
          -0.15660869100783853,
          0.10668767061585252,
          0.06497130106383925,
          0.22759134995389446,
          -0.03359644306169126,
          -0.18818803970984854,
          -0.04234700561275372,
          0.009892654202061731,
          0.011674651918435485,
          0.05236116497467109,
          0.3634825950228258,
          -0.09993937885867936,
          -0.6420008342200368,
          0.3018388042918968,
          -0.2399689435688437,
          -0.11730905663354974,
          -0.2761436560803489
        ],
        [
          -0.1287835626102088,
          -0.04506400155172641,
          0.2901162571054886,
          0.09013982661745863,
          -0.10447099266211564,
          -0.13571533344996137,
          -0.23355255915891915,
          0.03166883688017463,
          -0.12968771760991005,
          -0.09161511038515137,
          0.41808403599658955,
          0.009840402654654518,
          0.1885440336791644,
          -0.1337055423178839,
          0.01042892426214823,
          -0.03989030491948295,
          0.015159846977405772,
          0.025677485784991273,
          -0.3058735867043551,
          -0.01757966141469625,
          -0.04407258778026953,
          -0.15625209777395208,
          -0.14453432689942086,
          0.1306755128710578,
          -0.06353404875163629,
          -0.047895226809549926,
          -0.4254162519344536,
          -0.5505786943197454,
          -0.05558346275248157,
          -0.1327820104769262,
          0.09280040674658718,
          -0.12787704732892377
        ]
      ],
      [
        [
          0.05473892359585111,
          0.0301598995081168,
          -0.03297220108459345,
          -0.249755092734941,
          -0.26437854522014687,
          -0.01793732921522735,
          0.2767516731656058,
          -0.5185917567802889,
          0.03741787410607901,
          -0.4529495871411452,
          0.17057765345644543,
          0.4574673381514301,
          0.3166776994604975,
          0.029774491837262402,
          -0.3054087483631725,
          -0.16861035771033345,
          -0.0017321879645599636,
          0.7613187240356543,
          -0.06783291725290803,
          -0.2634139328909198,
          0.2155092700103929,
          -0.14571810557432208,
          0.15555529520621422,
          -0.03697392002944443,
          -0.2354474156926758,
          -0.38932405632935657,
          0.21618090794282993,
          -0.214368201996324,
          0.2219275775494506,
          -0.0407460578551536,
          -0.21398449264689473,
          0.5181039501622534
        ],
        [
          -0.24286991919111733,
          0.3669503212399475,
          0.1253603060251821,
          0.39263230771656765,
          -0.12178078753776599,
          -0.18040442470481477,
          -0.1869425388347214,
          -0.23047353666384832,
          -0.10955728380167863,
          -0.07175698674029816,
          -0.19561275826897373,
          0.015673941795105412,
          -0.0012701042711988017,
          0.010547077069757086,
          -0.3902702251610616,
          -0.03860699718370078,
          -0.08601184971290382,
          0.15218930015515833,
          0.18027317562135992,
          -0.17396211632086336,
          -0.042465648942934614,
          -0.004086698111089539,
          -0.11977182438477006,
          -0.6208312077667366,
          -0.10154939999134488,
          0.08200300438537211,
          0.020975627849422925,
          -0.27271509667161375,
          0.3856138982662002,
          -0.1963412357048357,
          0.41173272964614666,
          0.4902857761428968
        ],
        [
          0.20248357151365967,
          0.01896741807800866,
          0.03944209496503457,
          -0.10340717807770179,
          -0.19591022403781308,
          0.058394478499360664,
          -0.19683093769456514,
          -0.14258383438660027,
          -0.44413007042197966,
          0.01918717456157111,
          -0.2907349068739208,
          -0.10653938446380577,
          0.2585394313415204,
          -0.15649422914817993,
          -0.055790888758550615,
          -0.22849187799146073,
          0.08680122835499367,
          -0.03632646768653914,
          0.34278296886245796,
          0.38029245601804373,
          -0.1657651539585032,
          0.1319903723922494,
          -0.18313130372330302,
          -0.2737655274391585,
          -0.24811383118176508,
          0.2263405311217955,
          0.4172359594162171,
          -0.3808824785760785,
          -0.1716681613524378,
          -0.05765710097439892,
          0.32593254741827804,
          -0.17997559299740443
        ],
        [
          -0.21264457214744267,
          -0.642927843283588,
          0.09145483563390484,
          0.03747308601043647,
          -0.12038218504606053,
          0.1019285389053977,
          0.5990936786229928,
          -0.3658880606848303,
          -0.12387277701974482,
          -0.0004841436923329063,
          0.16595802955806652,
          0.13506219043501705,
          0.226488100910856,
          -0.15241430437731024,
          0.1336261484337084,
          0.02742238595225732,
          0.39668873755842826,
          0.11298051018002563,
          0.06312065850545656,
          0.2614431367334855,
          -0.10267949501260713,
          0.36584094422740826,
          0.5348100162040441,
          -0.18597308633822748,
          -0.025839434700489636,
          0.7660278734025635,
          -0.13813627517316687,
          -0.5069177738222755,
          0.339651816822107,
          -0.32845382950263485,
          0.2553847978318355,
          0.20163280745244375
        ],
        [
          0.026207232271511345,
          -0.024185412642132025,
          0.1453140332372587,
          0.2134556379133551,
          0.15323650011617496,
          -0.020902372293631413,
          0.23324420972955345,
          0.3714860420913305,
          0.6254737354068263,
          0.318271658081558,
          0.2505194573140894,
          0.02706573008522284,
          -0.04724891408827074,
          -0.3734239135060016,
          -0.09033143782787471,
          -0.2010422245926101,
          0.3680670047265845,
          0.28438368380834217,
          -0.36372299197168745,
          0.2248191300148677,
          0.06397631947010737,
          0.12165742307187141,
          -0.017240856073455955,
          0.04047349399362406,
          -0.11550522438384829,
          -0.15563374504237962,
          0.05540433984768159,
          0.009468609851341436,
          0.316307022356303,
          0.1334168200928745,
          -0.2972716335818743,
          0.07253095085841398
        ],
        [
          0.15137567857281603,
          0.07661910704177799,
          0.13227484446434562,
          0.5688347191343445,
          -0.13387927145038264,
          -0.0820112125250082,
          -0.1607453708225631,
          -0.14953982465175775,
          -0.28021965624862616,
          0.2338708317450738,
          -0.04448375474610297,
          -0.2153721753354471,
          -0.4556642199479899,
          0.13446683661085695,
          0.4222868218590327,
          0.027551886144096642,
          -0.18597111844266428,
          0.27304398878500785,
          -0.09215093533184371,
          -0.04407417722115446,
          0.4471999200022204,
          0.0040263668170264335,
          0.27343217326599595,
          -0.1264339887160299,
          0.2801888185651521,
          -0.5278427986830879,
          -0.05991815957398824,
          -0.13581480728483192,
          -0.18959837980825528,
          0.1684757633656379,
          0.12192215093994169,
          0.11119781510335408
        ],
        [
          0.03417804147817431,
          -0.2842242853895923,
          0.1409587448132405,
          0.2509431984281047,
          -0.052666187363456005,
          -0.2698716977966661,
          -0.29793911756470776,
          0.3812829774645249,
          0.14244644810507576,
          -0.15936817212906793,
          0.06195961249398017,
          0.23850629713258228,
          0.0821265488372574,
          -0.557714674383079,
          0.01457502175759021,
          -0.1802335705188574,
          0.2798225268695929,
          -0.3795495825425074,
          0.4694291281853015,
          -0.15134959526408748,
          -0.1760355440562096,
          0.06498035701551337,
          -0.16251328431876433,
          -0.0937030925978133,
          -0.38603888917568824,
          -0.19863210622108501,
          -0.26235261443625063,
          0.40658039076823976,
          0.050426151357231275,
          0.13774859944761553,
          0.4190352130932949,
          0.2815262696429468
        ],
        [
          0.3958426860906829,
          0.013115577322080612,
          0.294102727706296,
          0.5231924820942856,
          -0.15762340475507736,
          -0.5042963913917445,
          -0.0410252214841906,
          0.2575679371616339,
          -0.17989396590936294,
          0.30516393773672773,
          -0.08565754115058863,
          -0.5826124542422265,
          -0.06826143983922729,
          0.027043861889145846,
          0.12264882208632825,
          -0.45621506216989743,
          0.5475110667700356,
          -0.22399362172554765,
          -0.023883135892299272,
          -0.013715730827977238,
          -0.10673656895958429,
          0.5759084560772728,
          0.04016936157611021,
          0.19307390987660672,
          -0.02000382638241213,
          -0.15598244472481332,
          -0.09560979918049672,
          -0.41073739757885314,
          0.043443864718013155,
          0.3459241442690013,
          -0.15465774412821795,
          -0.29748730149478997
        ],
        [
          0.16526568344083217,
          -0.28056150774137,
          0.27299457509476205,
          -0.02047126021547377,
          -0.47089610816171396,
          -0.2609373182845465,
          -0.17655828094359483,
          -0.45000203829193225,
          -0.18030597111416014,
          0.13231944095978945,
          -0.016460468955709295,
          0.06507728311441582,
          -0.174032917828614,
          -0.24224569418652617,
          -0.23333836612508482,
          -0.25395939093789704,
          0.45204524468440277,
          0.11736701370353166,
          -0.08380928729878931,
          0.014644612421242847,
          -0.07396331562769978,
          -0.059986203237077526,
          -0.6893263486139116,
          -0.15237811086312408,
          -0.17560543276717497,
          -0.20939569705066685,
          -0.0026862901333076544,
          -0.47752727878931467,
          -0.12020188751202242,
          -0.1304532686530803,
          -0.05740047162804928,
          -0.1775939951482636
        ],
        [
          0.3223533376885991,
          0.27057176575607916,
          -0.3495210756811745,
          0.032436238755928604,
          0.3819838233121571,
          -0.09740892979573941,
          0.01642130349047181,
          0.2552373305725765,
          0.13770311122878123,
          0.0857675732585722,
          0.33383138750932,
          0.08151147005920627,
          0.48339021839873214,
          -0.2156511732336375,
          -0.241687480570884,
          -0.23667464498241944,
          0.2848669172458672,
          0.01617932035094009,
          -0.36508873834734346,
          -0.20587059140106195,
          -0.19901297661332992,
          -0.03441504559824874,
          -0.41183532449251076,
          -0.07014929175530013,
          -0.13259309411013234,
          -0.37099942875332453,
          -0.3698546785723,
          -0.11912706554847989,
          -0.08602394021739532,
          -0.03260317981386901,
          0.1206937848618697,
          0.20056262170412448
        ],
        [
          -0.11528889129335736,
          -0.22778155051301724,
          -0.3442590663180833,
          -0.40377412782654554,
          -0.2852199056280501,
          -0.323470960412835,
          -0.11691205495379883,
          -0.08158552269842173,
          0.2751018583206943,
          0.3127285178647414,
          0.15557626654198684,
          0.017894590725628465,
          -0.04143333564302869,
          -0.126841231320873,
          -0.25631064432752004,
          -0.07261866875558345,
          0.39424885021681055,
          0.7366181467840307,
          0.027694400522428875,
          0.23240411857209692,
          -0.17023932940232434,
          0.1951058749427075,
          -0.12896512014831243,
          0.18826234890081467,
          -0.0816121560663264,
          0.04703820522080911,
          0.04646601879633051,
          0.11272125029130287,
          -0.026122394086019247,
          0.3095100661227007,
          -0.1607536365864455,
          0.16084129734451788
        ],
        [
          0.5482630919892371,
          -0.1483489947944291,
          0.15710667721511273,
          -0.29846434218827655,
          0.446255933294059,
          -0.2723047061625062,
          0.156679805178547,
          -0.14610636644961483,
          -0.05262227596320272,
          -0.151071357117569,
          -0.24297040379964138,
          0.420251904544003,
          0.03925069131464239,
          0.18142404886374697,
          0.035735023082595636,
          0.17382059121017523,
          -0.11722228179453276,
          -0.30526544185751986,
          -0.2307709553001298,
          0.11770673435108132,
          0.20958098434955666,
          0.11487787558625934,
          -0.08235046021972423,
          -0.12693961637426257,
          0.6111483324610494,
          -0.22004734589505676,
          0.22158724093565532,
          -0.31155567333544937,
          -0.1174491257793538,
          0.2734625470308384,
          0.11897100035495758,
          -0.21578840887478282
        ],
        [
          -0.1451528976139271,
          0.2838904631847464,
          0.37315435159969723,
          -0.29801447177025375,
          0.38820185507618565,
          -0.2539941417517515,
          -0.17085027132863256,
          -0.06576964254859935,
          -0.07827527124826274,
          0.07300240982148393,
          0.3895717711387508,
          -0.13618785658434135,
          0.4332307550637273,
          0.14310463505244844,
          0.3896012753302447,
          -0.12757068388548215,
          -0.020199459580780576,
          -0.15123157551005958,
          -0.11915120303982353,
          0.3258616779443525,
          -0.05351516634715054,
          -0.48507537875043366,
          0.3511202813385796,
          0.41085254018985845,
          -0.33765809668702523,
          0.1854201398482154,
          -0.029246460509896873,
          0.4383854951182853,
          -0.26370575370968086,
          0.31673630362080063,
          -0.05608227139795774,
          -0.3625139109785802
        ],
        [
          -0.07861786751049686,
          -0.1664514046960809,
          -0.17541055761672222,
          -0.20870304621061714,
          -0.13822744942051118,
          0.09832188789469679,
          -0.10658220214748897,
          -0.08776959026325772,
          0.3220983115618765,
          0.05461307045382716,
          0.49905082185638344,
          -0.17912731068566817,
          -0.07247485053743957,
          0.216118906669336,
          0.19437095709431676,
          -0.017100546025201186,
          -0.11789189905837769,
          0.2251249793324539,
          0.3265050587899071,
          0.22478037237976276,
          0.4664487439046404,
          0.3146811362352895,
          -0.22401995251872286,
          -0.22730677925493312,
          0.2121186486334781,
          0.2169709655759096,
          -0.0855036451127734,
          -0.3328893042214105,
          0.057224916853534036,
          -0.061549827049078194,
          0.010601545111130066,
          -0.026710829191105737
        ],
        [
          0.059355579615637644,
          -0.33157329861105606,
          -0.12301362063856264,
          -0.03140042028996655,
          -0.09552384289712179,
          -0.41409098741521766,
          -0.2703979105223497,
          -0.31580299198668627,
          0.013464824748801776,
          -0.386934139577266,
          -0.09208243155543236,
          0.05080743194472434,
          0.29485638100824657,
          -0.07401805818857249,
          -0.16214252100323795,
          -0.055190085799418614,
          0.043397924295014594,
          -0.03367619167903013,
          -0.21151650694701324,
          0.0036375689877514647,
          -0.14870130174407964,
          0.2440938930377809,
          0.0616461875347409,
          0.24024023750059503,
          -0.18804866286062097,
          0.02157297649992766,
          0.26043462834846837,
          0.018123558660519234,
          0.006817441609495436,
          0.3844455244833582,
          -0.3400199639701061,
          -0.3714253030317928
        ],
        [
          -0.025119633527020152,
          -0.0696000568875798,
          -0.34913129865360837,
          0.1184305242469001,
          -0.17718582422180565,
          0.12893204230644428,
          0.2634837867835035,
          0.37881040846411185,
          -0.051787037055952466,
          0.044937603061648915,
          0.17047071031945138,
          0.43942474290242556,
          0.19190650562801784,
          -0.49473401206474893,
          -0.029296139971757944,
          -0.047230625353087786,
          0.4544666743533133,
          -0.04526077855693337,
          -0.200262044150202,
          -0.16721024505250745,
          -0.2985881535006662,
          -0.08229131394532108,
          -0.2686461791644819,
          -0.06635360519376626,
          0.07894571456696241,
          0.0857891720477684,
          -0.33427121561222817,
          0.26453471654433014,
          -0.3419651760027086,
          -0.625111218314027,
          -0.10325411644244248,
          0.30788880823548354
        ],
        [
          -0.269358537694729,
          -0.10252136115912022,
          -0.3571968149223867,
          0.037696010648082146,
          -0.013426751863071799,
          0.3952190589045211,
          -0.45645459362796625,
          0.2010301196003293,
          0.03600686085100903,
          0.001035886467309559,
          0.16491299904545914,
          0.06774488386455121,
          -0.6187301512979483,
          0.04452986371535171,
          0.044077886435258555,
          -0.24879548228452383,
          0.24017559698484692,
          0.19775011277726706,
          -0.31664743899514997,
          -0.18963351133895637,
          -0.34022765866371507,
          -0.1795288954241186,
          -0.1421649554297972,
          -0.11259919764374661,
          0.2808860379141251,
          -0.22271304367511507,
          -0.290699588201262,
          0.11901740848903529,
          0.2688296724070937,
          -0.08560796060892432,
          -0.35865339750460234,
          0.2462347731077372
        ],
        [
          0.20347010100462037,
          0.056091107537222906,
          0.11409351052605593,
          -0.32645982440847726,
          -0.5215726556098496,
          -0.08172835915785831,
          0.0994020742086713,
          -0.3964070201166435,
          -0.37189393791236164,
          0.32042329347722504,
          0.3072145725968202,
          0.04152689088268101,
          -0.21701777759845967,
          -0.10171299823667772,
          0.016375505920581443,
          0.06567098018023139,
          -0.19140886658767145,
          0.2744529397491817,
          -0.3182518929130056,
          -0.22406269716362706,
          0.098049141589463,
          -0.29789664918530745,
          -0.12930706575334242,
          0.007784113290072329,
          -0.0876472056345697,
          0.14998980626915048,
          0.27403771772038116,
          -0.10922433008886036,
          -0.31952581637887234,
          0.20181555101135426,
          0.0199156753016445,
          0.02340817894667235
        ],
        [
          -0.12006921548395219,
          -0.10740506141804906,
          -0.10194266124052492,
          -0.10477671165678179,
          -0.17544983279549994,
          -0.3131520617145833,
          0.3157094777460598,
          0.049738446263938564,
          0.0897845338864924,
          -0.026633315976112123,
          -0.34565009144026015,
          -0.1739610350654131,
          -0.19251793463484868,
          -0.1640651646061992,
          -0.08636125373043278,
          0.22081215186079348,
          0.43179150899239255,
          -0.0010339262735600857,
          0.22245698579008713,
          0.2766251471521953,
          0.4010925820544972,
          -0.080367248636968,
          -0.21958950372711378,
          -0.14262985973797887,
          0.18913212676599106,
          0.30816001514936137,
          -0.1891985983308277,
          0.019759763717786757,
          0.02269503001577494,
          -0.8384098045833667,
          -0.05345776518225331,
          -0.16839575404346566
        ],
        [
          0.2796359063126618,
          0.1840383255079479,
          0.3180750627869745,
          -0.4729640667687859,
          0.07336283301152179,
          0.1974368600000924,
          -0.3863998457784584,
          0.1563823452812055,
          0.256450618788631,
          0.11573299386405884,
          -0.46555338698878274,
          -0.027749091601506924,
          0.1540419318468798,
          0.10564620758605593,
          0.193903055048603,
          -0.08737549986937482,
          0.39449135236506444,
          -0.5716638154997016,
          -0.04875488834866408,
          0.6625876619862844,
          -0.3402446323535899,
          -0.49016341781730843,
          0.16703299555525417,
          0.26785524110946596,
          0.051470304596996856,
          0.5182909409069609,
          0.2627662354354171,
          0.13317016602817608,
          -0.30065863659259184,
          0.0025365762435135943,
          0.4735801422950161,
          0.2571450235547131
        ],
        [
          0.16818818790397472,
          0.08487420590924061,
          0.49607889888878487,
          0.29425473733513774,
          0.37529512770565376,
          -0.17410043686154328,
          -0.10969050981115189,
          -0.13381126419039865,
          -0.18634674403031226,
          -0.3644767429239557,
          0.32735457705175025,
          0.23784158992832768,
          0.42572673537989,
          0.5321280438836843,
          0.022449249022043507,
          0.004092131505842414,
          0.26118767672201904,
          0.08945716349403092,
          -0.07011406443590021,
          -0.41444578211779143,
          0.41935023191860277,
          0.21205901174571062,
          -0.14774622056131168,
          0.03235063491562532,
          0.03193915802955632,
          0.062154743864387636,
          0.052146215678786176,
          0.352135592850545,
          -0.08483051189906644,
          -0.08857289162506407,
          0.4253237769669911,
          -0.35806767625814545
        ],
        [
          0.19711631729671825,
          -0.17692604278003388,
          -0.043978950815024696,
          -0.1954466956537604,
          0.2820581598154468,
          0.3304157970315334,
          -0.14036342336158206,
          0.21633644549157896,
          0.27851291054589666,
          -0.4880793732284634,
          -0.3057772158543395,
          -0.04333908396154818,
          -0.15243121096518256,
          -0.09209828709373041,
          0.07620666559162863,
          0.10536689653481444,
          -0.4051318818192214,
          0.5145995316719147,
          -0.23647490911088814,
          0.06651453939383066,
          0.7336243124383139,
          -0.23432065647403852,
          0.3160080222129396,
          -0.14853571214601885,
          -0.26928070648294905,
          -0.05709325513430335,
          -0.22638326978741943,
          -0.29485341793446124,
          -0.2692751180191751,
          0.03055745629029557,
          0.30031660958809925,
          0.3230414721860909
        ],
        [
          -0.2683563271307196,
          -0.0038105655735646234,
          0.0734480096123726,
          0.21443365546838333,
          -0.3477557886929885,
          0.3651504508107083,
          0.5902546476275091,
          0.031495641774583874,
          -0.0291502714069669,
          0.020498793434694688,
          0.29165317830396553,
          -0.18529916933835444,
          -0.12420364480633926,
          0.28544636495845127,
          -0.041233481475020484,
          0.24056655673391503,
          0.6033243132503591,
          0.5086519669014077,
          -0.0896456693600861,
          0.1336657124092565,
          0.13646358933740077,
          0.2224321010539196,
          -0.1921237884123337,
          -0.34999784202097284,
          0.4030455831265613,
          0.09501685704491153,
          -0.1838860916382994,
          -0.3286740327612328,
          -0.39032566938023366,
          0.23175191263946715,
          0.20755599862132515,
          -0.07030921170558788
        ],
        [
          -0.7328568933750169,
          0.4712937426093391,
          0.0038825300632287997,
          -0.3039216333737138,
          -0.044106222240469235,
          0.004866887133617462,
          0.35687395868223404,
          0.06529894566145876,
          0.17805131498674423,
          -0.040291532699885946,
          -0.03823240821356266,
          -0.39843100835254647,
          0.03484338368362019,
          -0.3132612497453962,
          -0.21957267349950735,
          0.0887073137396096,
          0.03416344546197991,
          0.14134881830885987,
          -0.2224929096831073,
          0.03827957857191722,
          -0.19627139364528032,
          0.14731682223135928,
          -0.03610495442645219,
          -0.2612879972016047,
          0.2519115237495156,
          0.022005778833132136,
          -0.1187412386201999,
          -0.15333004528761676,
          -0.16729115501257327,
          0.34478320073882535,
          -0.12318113457854439,
          -0.19059605611164968
        ],
        [
          -0.23427728287930646,
          -0.19656292289721497,
          -0.02480961586799144,
          -0.11267007730500454,
          -0.3124859064592211,
          -0.16874643253016278,
          0.10224763929297465,
          0.07514634429777664,
          0.004713610988324146,
          -0.014617437420230502,
          -0.5761235242897714,
          0.26119892855714405,
          0.1272285218325114,
          -0.12041465547171104,
          0.3125932557481768,
          -0.2078473311069354,
          0.3292084709738329,
          -0.01928460657476902,
          0.18610559138493796,
          -0.4058048694566907,
          -0.1459878145468676,
          -0.4734625739224962,
          -0.4976969825526205,
          0.12867931382391645,
          0.1784210074060998,
          0.0860087084973405,
          -0.4668597650100375,
          0.22072756169918661,
          -0.03834822796935616,
          -0.503531938692622,
          0.3933206066686776,
          -0.04292182989786166
        ],
        [
          0.005233519687819767,
          -0.2629659820856109,
          -0.3827948742537808,
          0.3721208625475236,
          -0.020694197729328706,
          0.9256342346309109,
          -0.011341559959092936,
          -0.020340346076947124,
          0.19309036992405965,
          -0.38749498270544264,
          -0.22990433411118033,
          0.2072800752454201,
          0.16613328711736838,
          0.29642892877999183,
          0.488761048542082,
          -0.029781634130376336,
          -0.1508446664354566,
          -0.46992781841860093,
          0.4200794277413799,
          -0.41098157476603653,
          -0.1702213727491116,
          -0.144387453929826,
          -0.03232219340640765,
          0.26955864347066427,
          -0.5966496778017116,
          -0.5914296486332671,
          -0.004266468528675452,
          -0.45201957930175984,
          0.07834646549712732,
          0.23114389519456932,
          0.35287283040311285,
          -0.17197012143671025
        ],
        [
          -0.09205046304113078,
          -0.04602043281765361,
          -0.17940947815212396,
          0.5422259593535238,
          -0.2325687529736618,
          -0.05936462332977836,
          -0.1120801708708678,
          0.04283745578811858,
          -0.31675674108580437,
          0.2400958694629272,
          -0.32617104562178967,
          0.213377059400225,
          -0.05977880077955024,
          0.10597847343032069,
          -0.3166251486723891,
          -0.15953318835889946,
          0.09232265104480532,
          0.29517708636038004,
          0.3104682557576007,
          0.5010562211579905,
          0.27549656305674813,
          -0.05084658200632939,
          -0.19399837458998453,
          -0.22308740194285506,
          -0.05367326194466554,
          -0.5052591378848686,
          0.4189069961782142,
          -0.18144486436631946,
          0.6773623255109458,
          -0.32212260635478307,
          0.3906628164653292,
          0.06372511622336167
        ],
        [
          0.054945086595334494,
          0.17589939364896323,
          -0.09391931154571317,
          -0.1189925016747196,
          -0.08609245601262928,
          0.34459732688166345,
          0.2760398014664371,
          -0.1517716309008474,
          0.3045748665107256,
          -0.03356379778093057,
          -0.1122068890571203,
          -0.02938567918132951,
          -0.22629085393002846,
          -0.16302072968222353,
          0.45381832027111213,
          -0.28933654531458874,
          -0.07033877605951017,
          -0.21677804593668742,
          -0.013895162801133768,
          0.43736882350872525,
          -0.2039343208974851,
          -0.22004390095364293,
          -0.07718865502118911,
          -0.15507266558558105,
          -0.4503638717591162,
          -0.2063421114903442,
          -0.3045292463614632,
          -0.3016524548231603,
          -0.21403361035660043,
          0.06792136851653909,
          0.12472510418816288,
          0.1585507819505622
        ],
        [
          0.1007531608217389,
          0.439115116054542,
          -0.3615567604066895,
          0.1575148634435216,
          0.2925314480364987,
          -0.25141122566390023,
          0.33272018652432844,
          0.00617590732592513,
          0.26083603445557924,
          0.09783457688586132,
          -0.24938998431263107,
          -0.18464738759233956,
          0.26064252834207413,
          -0.12670677028541225,
          0.07127326072359304,
          0.2324393580689171,
          -0.2849274646217362,
          -0.28176468202701915,
          -0.05253645390082478,
          0.008394762164080565,
          -0.09649485014635184,
          0.13903610893345641,
          0.10083091000285704,
          -0.04138984551991776,
          -0.6412702171257936,
          -0.15524332215677844,
          -0.016144146660271474,
          -0.4056570840524877,
          0.1934936981611366,
          -0.1877356980783194,
          0.4700902909017201,
          0.05856101171758897
        ],
        [
          -0.11072818490130514,
          0.3192708278944841,
          -0.5315555885818567,
          0.2019951326210478,
          0.41109716623673725,
          -0.000933720464755297,
          -0.33081123035176485,
          -0.15417024790881292,
          -0.17199043272493272,
          0.0076077450163577415,
          -0.4644982074773907,
          0.15358098835609713,
          -0.1738746710311713,
          0.08504536798728103,
          -0.5253175595964557,
          0.03375718803709641,
          0.31235012147353014,
          -0.04824173114731461,
          0.088711265135069,
          0.2343864715122667,
          0.03273037056571085,
          0.46174082147813783,
          0.6212669365131697,
          0.012142312879344851,
          -0.21534196403081707,
          0.18361915791303035,
          -0.25160679060183083,
          -0.3648669436977139,
          0.4254029396891999,
          0.02769842860087948,
          -0.5452767227862155,
          0.1815061212385464
        ],
        [
          0.15756705201660062,
          -0.07061942901859516,
          -0.008469510630786308,
          0.33928323393129123,
          -0.18767597503292027,
          -0.25004450100230297,
          -0.07532817532822356,
          -0.07491205760621866,
          0.1304367752789449,
          0.01643135871598957,
          -0.07919629116536042,
          -0.073163062963772,
          -0.07874242568063082,
          -0.1315376286007659,
          -0.17338222120705754,
          -0.029498131907400183,
          0.010224249520402915,
          -0.13119713154568732,
          0.3657649430887009,
          -0.011143985536200331,
          -0.41399141597839384,
          -0.04380792912558027,
          0.08697864102416564,
          0.10578067656954131,
          -0.012464846869139855,
          0.2542169752921917,
          0.31585371080389624,
          0.5858206346296804,
          0.146902916491852,
          -0.17292600024487442,
          -0.05671127095158369,
          -0.2603724041349608
        ],
        [
          -0.24299190644731,
          0.5735602085046418,
          -0.48604160185875994,
          -0.2907577067711603,
          0.18472426450152385,
          -0.2820331758774461,
          -0.10638818893349394,
          -0.11770703293172909,
          -0.0584704334668824,
          -0.43614581678661374,
          -0.0956997511644355,
          0.029353997292552954,
          -0.16242361617523102,
          -0.3193913050495506,
          0.3442399901619395,
          0.6175618161428271,
          0.09202316913173086,
          0.16901630615735716,
          0.2493500061525837,
          0.31724479547507545,
          0.28618031726663795,
          -0.46052237283911773,
          -0.18760252216218773,
          -0.3902974370946767,
          0.25686859653593747,
          -0.611271398404711,
          -0.42416549690863625,
          0.22685801211112083,
          0.24713467412018983,
          0.07066852921317181,
          -0.5434259427734436,
          -0.0019937464382897424
        ]
      ],
      [
        [
          0.04109224286676741,
          -0.03040508045032599,
          0.17232825111983913,
          -0.24542191236226427,
          0.1749583633803925,
          0.11615466366148496,
          0.1427718421514442,
          0.23035672574045343,
          0.18965510325751103,
          -0.027667067969698124,
          -0.23687623229336058,
          -0.16759799842546455,
          0.1557265157369845,
          -0.2412033451854586,
          0.059245639169570215,
          -0.08604786093368157,
          0.20358062711400438,
          -0.06490889930243347,
          -0.07955636815881219,
          -0.37893815404854364,
          -0.05759421296693278,
          -0.0942824721138659,
          0.13009539940726486,
          -0.07311913827130055,
          -0.3900508567859885,
          0.04496784380230816,
          -0.12070604983638177,
          -0.3942502507256113,
          -0.05522695068444581,
          0.1951432275289935,
          0.06459360044782173,
          0.15046713520549893
        ],
        [
          -0.38867041270272945,
          -0.4774407678099904,
          0.10669009383948913,
          0.25729084617804426,
          -0.07216679386643361,
          0.2958369171555314,
          -0.11366649918930787,
          0.005921603208571667,
          -0.4850707134989873,
          -0.040981859547130815,
          -0.09519136878652272,
          -0.28489221463040987,
          -0.40705244463304113,
          0.025577598626531743,
          0.37300184221176025,
          0.5986898168301984,
          -0.13263606300018432,
          0.23869645993399677,
          0.12208921966421789,
          0.28283279539045003,
          0.39233835923397753,
          0.11829802472125316,
          -0.24147229230209918,
          0.027901679323929375,
          0.01945519787969871,
          -0.5498020150557686,
          0.4237103977420884,
          0.029470807193947575,
          0.12213346635028638,
          -0.16886183840329852,
          -0.0718652777631748,
          0.16307795406928996
        ],
        [
          0.07116850665520667,
          -0.1379859188145975,
          0.2558099639697346,
          -0.03354938464626508,
          -0.13142792171739626,
          0.1696599879893352,
          0.5599447298636356,
          -0.13849624330430493,
          -0.002703735264242642,
          -0.1252522423277421,
          -0.14890553956042107,
          0.1508126734562881,
          0.09689141404199927,
          -0.2554605649265412,
          0.15792863854996295,
          -0.02380236545848675,
          -0.06680891358207305,
          -0.2737909744205258,
          0.14831650950474232,
          -0.14168358047411245,
          -0.05330077110096479,
          -0.3471925207438485,
          0.2001410430440815,
          -0.3112365676100482,
          -0.3858010745327487,
          0.26800409228410754,
          0.045219899216769666,
          -0.004603076694044106,
          0.10806503774249912,
          0.43627947649857407,
          0.17446346162493215,
          -0.1093571581630743
        ],
        [
          0.18598939102418988,
          0.03384664077603436,
          -0.047667943807659825,
          0.02615619215336492,
          -0.07769709760999696,
          0.05275237818887741,
          0.14320833092536003,
          0.0057563495969415205,
          0.27563716966564156,
          -0.11782127804978391,
          0.03742727282800434,
          -0.022686645212966917,
          0.2872947164582955,
          -0.09730090309416997,
          0.11165423284557519,
          -0.41278628147971747,
          -0.09868722052279062,
          -0.27959277220811857,
          -0.227268356953289,
          0.027294215847340837,
          0.22274738196110977,
          0.04714753929350855,
          0.07241284297705068,
          -0.0976077370105483,
          -0.15820244888963553,
          -0.06075900950071595,
          -0.4518259447288027,
          -0.0311752599572239,
          0.02827147163789621,
          -0.16454693143862076,
          0.25543509117095375,
          0.11425693961016546
        ],
        [
          -0.016723667545879225,
          0.13926050998993184,
          -0.14646840450985701,
          0.042086289542213905,
          0.05210099444789282,
          0.04806828954551839,
          0.17129226773553746,
          -0.08036959186843554,
          -0.20572844245162455,
          -0.17669777870605294,
          -0.07691166770796865,
          -0.2765636029772313,
          0.06268871579091838,
          0.03132134666223951,
          -0.04167258175807349,
          -0.3418394409025073,
          0.3759795498556113,
          -0.08699103066622993,
          0.20288949069249848,
          0.12960340451775493,
          -0.3594673509811988,
          0.06761019678621831,
          -0.04092163033570035,
          -0.002927077857388103,
          -0.17029898100919558,
          -0.00980874337114747,
          -0.18433222581967995,
          0.04438827056766355,
          -0.3432279028111891,
          -0.0026180190735317567,
          -0.19236648913333398,
          -0.21247266635311493
        ],
        [
          -0.0333436494019837,
          -0.0781131946341508,
          -0.30631472954172295,
          -0.009280216335842383,
          -0.4012490081258386,
          -0.023223610873162756,
          -0.5044617707458174,
          -0.2452016320191036,
          -0.2961725988269592,
          0.1511646664552562,
          -0.18943213955692723,
          -0.22980245232180307,
          -0.21412418948602913,
          0.03619263650454612,
          0.39232390228275865,
          0.21217115690839916,
          -0.2523292010836565,
          0.06294693545355663,
          -0.2810641803880441,
          0.011432642083416631,
          -0.1852304852888758,
          -0.10679547879775234,
          -0.12156657087428568,
          -0.03890828092906262,
          0.10711010540834699,
          -0.3026668369342532,
          -0.1531917902828705,
          -0.2880992093386317,
          0.327333597262477,
          0.12527809805748016,
          -0.7012984641165709,
          0.1493692646090794
        ],
        [
          0.13873940075226224,
          0.02496648550072884,
          -0.05408893665927446,
          0.17497933664487722,
          -0.22107865097374638,
          -0.3357905131703435,
          0.19937525334216086,
          -0.11453874392467607,
          0.022434514300088557,
          0.13223296489182707,
          0.08761184083299889,
          0.060465558194503284,
          0.18961013103322713,
          0.024897065089961704,
          -0.20043946852498346,
          -0.09338521763719866,
          0.023081503267855515,
          0.15207861089170344,
          0.03889648043446604,
          0.15520030272150778,
          -0.3110610954487746,
          -0.33429426472275203,
          -0.2720741075801577,
          0.11725491598479762,
          -0.17858365649850386,
          0.16849540721579506,
          -0.14418448041346274,
          -0.15468715027510205,
          -0.08668411553259013,
          -0.07252355929320134,
          0.026651249706944356,
          -0.1795969428291325
        ],
        [
          -0.06307454879908438,
          0.30137124561022693,
          0.1641435437401101,
          -0.19369464916470686,
          0.2164522202525068,
          -0.19778775071740923,
          0.05833607281388603,
          0.09268009282734764,
          0.22414920078677744,
          -0.2562234126468298,
          -0.28766368049620616,
          0.1886481677255313,
          -0.04271810136054714,
          -0.04459802005935031,
          0.1705595664013014,
          0.021588735563709716,
          -0.06749956058178536,
          -0.14702458906883262,
          -0.24875216959896435,
          0.050017293464064014,
          -0.01259281589386574,
          -0.1500945923982701,
          0.1446760861200645,
          -0.5688686534168249,
          -0.14157545576749284,
          0.1437409703952682,
          0.002666340580807209,
          0.004195149732424965,
          -0.016178550394062012,
          0.04962545412806178,
          -0.20686117251942726,
          -0.3659699737063311
        ],
        [
          -0.0875715565771142,
          0.031400827563624875,
          0.28332500460135107,
          0.03877791669173079,
          -0.05291895872156118,
          0.040915100855578125,
          0.026555215705154036,
          -0.09729231592204371,
          -0.08451474274386311,
          -0.3595240975987346,
          0.10485586621909034,
          -0.010305424217776478,
          0.16571498301905443,
          -0.034512314914182086,
          -0.232934851895977,
          0.07970724152653202,
          0.3554507286999151,
          -0.12083532663192609,
          -0.010654820952018836,
          -0.12017609310571636,
          0.00042660019935776344,
          0.2481250707430046,
          0.12292522675009486,
          -0.22570132960713407,
          0.17365361122215117,
          0.1383429082160798,
          0.12203456752409657,
          -0.37584896286628144,
          -0.018669091088195262,
          -0.05596577081495521,
          0.2347121447740619,
          -0.1221447751672587
        ],
        [
          0.40283534152071837,
          0.159418630631332,
          0.10495476144407465,
          -0.17582735814734912,
          -0.2712314270056838,
          -0.06306663697131752,
          -0.18174630430132543,
          -0.0742799428263652,
          -0.30579530089391316,
          0.12429566326011325,
          -0.21725872296781557,
          0.14527907587398206,
          0.2219704205303579,
          -0.09789996441554272,
          -0.2717989801845037,
          -0.1091505418732048,
          0.703384721988422,
          -0.4429295826610825,
          -0.00959801524116933,
          -0.15356585000468967,
          0.33753293608336016,
          0.09140095422558983,
          0.023862329863024855,
          -0.007904174343499737,
          -0.08309110387226706,
          0.3482167365842265,
          -0.3080388413572136,
          -0.16083923136404268,
          -0.23783596163015558,
          -0.028776085722856292,
          -0.17773098590015973,
          -0.18153731448785612
        ],
        [
          -0.11782016997059522,
          -0.02321844164211679,
          0.46972378299213735,
          0.1590105931566166,
          -0.1626685434495453,
          -0.18455247150927723,
          0.1121660795782936,
          -0.05665008240621921,
          0.18092780692785512,
          0.07762433745897244,
          -0.016560700291630905,
          -0.06205834837297095,
          -0.0586469425437142,
          0.07857233874290682,
          -0.22020147425948297,
          0.17624889055878817,
          0.19875781095344322,
          -0.08538083636569103,
          0.2599395024022029,
          0.19857892768588253,
          -0.06770452556357874,
          0.14199287727934815,
          0.40308797990412537,
          0.028301888506217066,
          0.2643197954312805,
          -0.10245841702625383,
          -0.19222755542234013,
          -0.18702950814083982,
          -0.374000268233532,
          -0.130786987719713,
          -0.4138983091838076,
          -0.16079609126906014
        ],
        [
          0.01911147042231036,
          -0.11664257513164791,
          -0.0818836533543634,
          0.2433734306964198,
          0.0017971789935879244,
          -0.27846765648058297,
          0.20103951412822824,
          0.2287505875778611,
          -0.16613351558132128,
          -0.4170142562268147,
          -0.00009020632964110079,
          0.11717711211082413,
          0.07625856787519301,
          0.16107803106001403,
          0.26920731632429934,
          -0.10202128248555745,
          -0.049888370490507,
          -0.25407133857396064,
          0.10788878872062088,
          -0.2781330118283117,
          0.06083838047908626,
          -0.014883306048272107,
          -0.17268348653868762,
          -0.013823629865950742,
          -0.14970968189804565,
          0.04224348524691905,
          -0.11976645605327159,
          -0.02676539418361662,
          -0.012824535761164746,
          0.11433673617934921,
          0.4134282645463841,
          0.0747599277231724
        ],
        [
          0.2961765440556272,
          0.23674482778396214,
          0.46852967308405763,
          0.10895667421012842,
          0.07915698899906334,
          -0.2233945535551386,
          0.1846153268361016,
          0.06668290670740162,
          0.11979404080004678,
          0.005484514256252135,
          0.00731174670005906,
          -0.16820960069197582,
          0.43679812299045495,
          -0.13765134987521463,
          -0.08809639589230463,
          -0.12373128789960122,
          0.1284299692202096,
          -0.0048513308654690186,
          0.18639180004922384,
          -0.29657052942324674,
          -0.07475754467730947,
          -0.20131230839805694,
          0.12863209093487943,
          0.3648621323539019,
          -0.366527896661989,
          0.23778538552388212,
          -0.2901529352889581,
          0.330714830956375,
          -0.03101168504783142,
          -0.02820427245060309,
          0.36698470313244863,
          -0.007774735724531042
        ],
        [
          0.12303131238975314,
          0.2403806412120415,
          0.015615510331634141,
          -0.16717375971071985,
          -0.2664726085510121,
          0.026374789782386544,
          -0.01478849247227419,
          -0.09255538537809489,
          0.07678049635312657,
          -0.16916837314698557,
          0.21024634212240045,
          0.13448398163559525,
          0.0878356402120786,
          0.17783385845374772,
          0.2593018110752614,
          -0.12816111868457516,
          0.19874109981548824,
          -0.23472886737384058,
          0.3447258217192405,
          0.16986360044069107,
          -0.2070792276215614,
          -0.35048228458455544,
          0.024161553094242845,
          -0.0465464583132701,
          -0.0684583125581115,
          0.129499747517876,
          0.02818814935720849,
          -0.19700210790361183,
          0.03054900052198919,
          0.09172286903765527,
          -0.26888517378841786,
          0.22861954970433943
        ],
        [
          0.3186326943706807,
          0.13598465212075286,
          0.08715978837606266,
          -0.3246560689525095,
          -0.0625025290496729,
          0.022399261778589592,
          0.021628302165547064,
          -0.041184921552753447,
          0.06034656249975462,
          -0.23307410764262107,
          -0.08468188819539334,
          0.05179564784370027,
          0.14320328163358242,
          -0.025998773945624176,
          -0.03930585305998605,
          -0.07277114809345143,
          0.21200786156468227,
          -0.26577736310446776,
          0.21354680310221616,
          -0.007908666930775188,
          -0.39349492326931657,
          -0.033525025053955146,
          0.04145162439607787,
          -0.3001673595996866,
          -0.07239480451844989,
          0.26654919069875616,
          0.1432196860126904,
          -0.18489481988437417,
          0.08507054408062406,
          0.2634167702009552,
          0.22420986655254432,
          -0.11734844029947067
        ],
        [
          0.16383193805281582,
          0.2439290655983046,
          -0.1279193332711659,
          -0.2546991268651015,
          0.28072066452346894,
          -0.05466907871528229,
          0.21946423086031996,
          -0.26903790836515534,
          0.2450200137968881,
          -0.23306332283002557,
          -0.15521405913118463,
          0.08047161149255773,
          0.01442721577874157,
          0.05556745318882972,
          -0.14645516228871197,
          -0.07990583952677968,
          0.30674691027649353,
          -0.038226180191699516,
          0.050657079605711794,
          -0.33984864207065707,
          0.027014370510604034,
          -0.3043016927075482,
          0.2925789305863894,
          -0.27706495543230425,
          -0.05800202184204846,
          0.5193548305611277,
          -0.39107848519598887,
          -0.2799346161398729,
          -0.16308092410449396,
          0.1160810764054046,
          0.2149968373715807,
          -0.12831752741329724
        ],
        [
          -0.054079318952520064,
          -0.11460961693954101,
          -0.37040704992990364,
          0.2551071485956129,
          -0.3835984712906537,
          0.25552253769670913,
          0.057977376170641186,
          0.04007637832931055,
          -0.0959458306665357,
          -0.021636250401121406,
          -0.08549261988827896,
          -0.006307023225441432,
          -0.09137882135836886,
          -0.39566890978479347,
          -0.01709605606716317,
          0.10904756218792266,
          -0.038293019087903696,
          0.19252226261502722,
          0.06063904411688165,
          0.2675448346997373,
          -0.012678334122253554,
          -0.16723143688105327,
          0.26440693100930956,
          0.05857255765802359,
          0.17486218831076686,
          -0.1510228642278907,
          0.06101769335719865,
          -0.1194130990064018,
          -0.047986218062063504,
          -0.04949420376188186,
          -0.18423648580722812,
          -0.09862801944775988
        ],
        [
          -0.05461081596375297,
          -0.04479140583159,
          0.08264766420493161,
          0.2932801087673722,
          -0.20165361425319203,
          -0.29895611491385393,
          -0.029115517762128812,
          0.00834061907682018,
          -0.2791605284973825,
          0.4103428420912487,
          -0.06651582807986803,
          -0.02637193406474814,
          -0.2858235851274375,
          0.37227339634266526,
          0.11818951921897189,
          0.16215998767046694,
          0.13157429085570052,
          -0.2882557410397143,
          -0.41268073273036804,
          -0.0969486996074005,
          0.04581139460873785,
          0.2639238021997075,
          -0.06262884022512655,
          0.006327891738504509,
          0.15744727137311518,
          -0.25734178071988356,
          -0.04772904298751907,
          0.07199747866011827,
          0.010230540829921421,
          0.024839469729116884,
          -0.27046614934438146,
          0.02979254936442189
        ],
        [
          0.3327843508014626,
          0.12617070991236143,
          -0.14420261747217225,
          -0.12582244044281646,
          -0.04684812034130407,
          0.02621601522501827,
          -0.10264799233172996,
          -0.16416371115662595,
          0.1684329033689049,
          0.01689641495203078,
          -0.20408234832672414,
          -0.10135165269290909,
          0.016487141874160546,
          0.0625504920186482,
          0.19789933780181326,
          0.14852515833132537,
          0.17351189453343435,
          0.061416288924556174,
          0.11938505530668492,
          0.008504640531869915,
          0.2919761357961261,
          0.13802026673656762,
          -0.048371278529263484,
          -0.05156055769323848,
          -0.26478487747585994,
          -0.13121150518479532,
          0.09933947350579056,
          0.12961140942027904,
          -0.041353642175472514,
          -0.31797100108131016,
          0.29899121429608205,
          -0.08432000544036444
        ],
        [
          -0.4138049949437158,
          0.22730525693765727,
          0.3394076623033586,
          0.18396191518199806,
          -0.2931527999284537,
          0.07895897538484575,
          0.13677088761124084,
          0.2652392607681035,
          0.15161185686673875,
          0.20254220600766945,
          -0.150609917733524,
          -0.25983577989811873,
          -0.44902692047577636,
          0.004792608120688265,
          0.35724516001773404,
          0.20254697350788833,
          0.04491981317669446,
          0.24931013675237548,
          0.116968785604543,
          0.2510591986701013,
          0.21049935118270144,
          -0.04495355363932289,
          -0.046829646963895424,
          -0.17067818212878583,
          0.1758294544662232,
          -0.045023805170496534,
          0.04538312322708411,
          0.35335333452798534,
          0.11724424249746669,
          0.03464706374181793,
          -0.13296173720255533,
          0.14118747314146984
        ],
        [
          0.3463139528172311,
          -0.12847276228783472,
          -0.34099717811900315,
          -0.07515973999696374,
          -0.12118463689004715,
          -0.15920301569053377,
          0.2610992098454924,
          -0.023714786637835626,
          -0.11249270018782603,
          -0.04061314906550091,
          -0.2059959717660995,
          0.014450652819520238,
          -0.09756483282961387,
          0.26733138458985645,
          -0.1483480334838507,
          -0.18601554557792893,
          -0.03716542365664784,
          -0.05100140040188566,
          -0.040030064813466805,
          0.2901731735665757,
          0.13217733861411707,
          -0.08758198064915199,
          0.17534954840652006,
          0.012553194784493479,
          -0.3390610749633315,
          0.09296684175921438,
          -0.02926761334122175,
          -0.2571291967817951,
          0.2911622774966368,
          -0.005814137891996711,
          0.26796871051308097,
          -0.22237692883830376
        ],
        [
          -0.03940891374240798,
          0.3202297187817554,
          -0.06793597085766145,
          0.07849493329724816,
          -0.18315258952043578,
          -0.2949123776914726,
          -0.05037031520933147,
          0.007614896030717119,
          0.025790329849681694,
          0.1233345003739693,
          -0.27504792731873623,
          0.07377907112734251,
          0.035052443817112706,
          0.07813832371488848,
          -0.17356436487647103,
          0.039389018367079226,
          -0.09093349719013148,
          -0.18704830650359885,
          -0.04549548810887075,
          -0.13201184283521045,
          -0.2514958699890273,
          0.35339918121900266,
          0.13257905137321824,
          0.047996900866570005,
          -0.04060706356257413,
          0.20793178189942488,
          0.16139582407738562,
          -0.40411369602914016,
          -0.058560781543486116,
          -0.13505390158927064,
          0.0057907555189813985,
          -0.22654125680635295
        ],
        [
          0.384374888520243,
          -0.16487584720205736,
          -0.02195024225912618,
          -0.08406768706590156,
          -0.1571972085914597,
          0.12568493349546078,
          0.2327130237243757,
          -0.18012463034707762,
          0.1026282526757429,
          0.1551459576405361,
          0.32388831828803116,
